0.8013506043803466,-0.009539447930061711,-0.2089292129893732,2.116580783500757,-0.09238896153203313,0.08793206028987553,0.05062867227339139,0.0,0.0,-0.001857894907416085,-0.2855676009174165,0.12446126606857551,0.21221536376834305,0.03944890337190071,-0.8160916309786903,-0.05491089429470318,0.15321827962910423,-0.05594598885079705,0.0,-0.6164534903041035,0.0,0.0,-0.016560422739710503,-0.006444167306902491,0.11004680246620945,-0.054036284632335334,0.0,0.0,-0.38350364239325613,-0.11353126955960512,-0.8103956182865641,-2.0093042516140405,-0.03898801797506816,-0.5476453741938985,-0.3253923586636428,0.37313629658960956,0.0,-0.17812849101381986,-0.23644500805315144,0.0,0.0,0.05882373577209052,-0.3321924738860529,-0.015202299575938494,-0.034474356436640395,-0.18396472759257138,-0.002974417285474109,0.48786113049120206,0.0,-0.34593555802511416,-0.684938712470858,-0.011959767389767126,-0.08447292001713379,-0.7564946440744801,0.05609380053192809,0.009958784188177418,0.01864416962580052,-0.0051591176548242395,-0.027182555362594268,0.0,-0.31286192036587884,-0.9358213693222949,-0.06257310640773538,-0.01970444806414017,-0.0444300830687899,-0.12820389628176415,0.0,-0.3498530427266037,-0.7791475326019218,0.0,0.14837943914701654,0.9855996751978544,0.2809118032177302,0.0,0.0,-0.25899744467597474,0.11200794728319861,0.5468279832823902,0.0,-0.19231008040935746,-0.0032709556446646757,0.5389133890042193,0.0,-0.0704254822942386,-0.6833342494695676,0.0,0.0,-0.058699356671115595,0.051164759034217536,0.0,-0.1285328471995978,-0.05383856940636786,-0.5317992547031966,-0.0002688189650867905,-0.2544032256781465,1.155910300369784,0.7504307136400038,0.0,0.0,-0.8314464292724031,0.0,0.03284414617642243,-1.4407534033580913,-0.03973702867979443,-0.13027120156165548,0.6887856198455957,0.03181357556079265,-0.11229314930594465,0.07701141047142711,-0.01608452444942111,-0.2847126861220541,0.0,-0.003286518466922568,0.0,-0.2531455971561434,0.07278597156132868,-0.23378572925480767,0.6376485562351658,0.0,0.9789983119433424,0.4703561964804699,-0.3792746635471485,1.079497463992375,0.0,0.06563086643970756,-0.29177948792579395,0.0,-0.09704147918002037,0.7389915749487559,-0.1159595365770889,-0.19736359419863375,0.0,0.00377022317820931,-0.04895525687537609,-0.5082317191390157,0.000449773844764759,-0.44769181372024325,0.0,-0.004007979862322061,-0.1600356646953957,0.0,-0.4496265732760299,-0.68353336341441,0.16261323111944964,0.0,-0.09504080824583734,-0.9653486581864889,0.25909339974681433,0.0,-0.12689170894446583,-0.004395814100057632,-0.006667875745881817,-0.054148819460911206,0.6959811481993404,-0.012303758032339641,-0.08146600401274037,0.0,0.06116210793426619,-0.10690418094162742,0.014201886004346014,0.27434354144314455,0.0,0.6692058242113655,-0.0005799497486785373,-0.6419091085122646,0.3359355438110263,-0.013255374908645406,-0.7355451987922778,0.9693170342812977,0.0,0.21382639354787622,-0.023242847565054302,-0.415181593642484,-0.11652568080273869,-0.22959525498895567,-0.4681317774346222,0.2588425842501668,-0.03429354437446894,0.0,0.0,0.6384950780777574,-0.6147800385104439,0.0,0.0,-0.06128665865120403,-0.030067475511756852,-0.01579177380165816,0.0,-0.13836663581020364,-0.07137119201813068,0.3491438392559342,0.7334967726398994,2.8717975357436196,-0.12073220920731828,0.19074504286878838,0.0,0.10540946961246923,-0.019690210661882764,-0.04080107605179345,0.0,-0.11399671634533881,-0.03180592877941338,-0.09733707460826566,-0.17687218466969146,-0.7474983328167719,-0.04185868038249088,0.0,-3.0496917032754336,-0.170743462984805,-0.2801507148508853,0.8356889206737436,-0.24165567515821662,-0.0015519399550452733,0.0,0.2174125507366034,0.0,0.0,0.6179247394832346,0.0,-0.02230980658217175,0.0,-0.057132030434613144,-2.25673642837181,0.0,-1.0275421525572668,-0.22588179531782077,-0.14416984985647538,0.0,-0.20040506663766403,1.8975119083543857,0.4670383476527603,0.0,0.08257827273323969,-0.16244306433492325,0.0,-1.4013131436905382,-0.03996589312762588,0.09815823484989719,0.03240719509327123,-0.010032304017916164,0.0,-0.35284928483812417,0.0,-0.006895762678719823,-0.01691566170368759,0.9398082269674738,-0.42733168819271294,0.0,0.0,-0.12234430450615191,0.6828416384954217,-0.08948369746606509,1.1306163077808384,-0.013929566958732988,0.0,0.043213207947455354,0.23707350158380122,-0.0009037483634366664,0.0,-0.1165747124206715,0.18304606114303867,0.13220597952872348,-0.0016650129656181855,-0.30541144927485236,0.0,0.1676654320498881,-0.19314306911271778,-0.759573584669899,-0.22387542807788124,-0.002794188508015952,-0.004278233567236246,-0.456570070665992,0.15032535434488378,-0.017078918090375875,0.6492260783363004,-0.019584658634130107,-0.03248751301917764,0.0,0.15381375598048494,-2.5394512680462764,0.0,0.005793268567374781,-0.12787269820100317,0.0,-0.014210032542857643,0.5414614216695439,-0.09236387672047387,-0.7059677488841816,-0.6870119121647933,-0.2297374226152762,-0.04180810583346744,0.0,1.4379998712548796,-0.02753013708988118,0.96767138529296,-0.22473779952231349,-0.8939947922591932,-0.08797898033250258,-0.03807747741114688,-0.05474054592957329,-0.41744763385829964,0.2492438306188412,-0.19803221527230822,0.0015957564284037862,-0.016400649578409192,-0.3783439060092931,-0.01151661612118727,0.1619428940460974,-0.018391561058969462,-0.03411676249213126,0.05668834458487899,-0.018633118992218128,-0.671495688533104,1.257103044245192,-0.15925679691948516,0.13635136778700477,0.0,0.04847828983854558,-1.7637779716916488,0.004984443118832417,0.007210652239809046,-0.07021525515351643,0.1785180849148681,-0.19125507305055342,-0.026733498153606355,-0.04383114041653401,0.0,0.0,-0.19494490942554568,0.0,0.0,0.3472359602278841,-0.3430914036528384,-0.03020161194721135,-0.17350963886717596,-0.1005956156011278,0.0,0.0,2.4343649003433954,-0.07134006365136884,0.0,-0.2057363857910585,0.0,-0.7554326523710916,-0.054652510577537484,-1.0335846847993733,0.015183219736606801,-0.19885053069239264,-0.20623979844265572,-0.05203438607252389,0.016819161490965358,0.0,-0.3929276860593695,-0.21125278270531028,0.0,0.015787593961798328,1.679171416120345,0.0,-0.42637117620960063,0.1309039210161158,-0.4588568995647952,2.615537669535625,0.08650195161952895,-0.010521784756233396,0.0,-0.07601873448949822,0.0,2.9621393904013598,0.03434395566517675,-0.47096153718501255,-0.2515683412278064,-0.03705942233548138,-0.05334283963986801,0.005559965579848802,0.0,0.0,0.0,-0.001024083268628404,0.03210467721592361,-0.0110004040427335,0.1635623394145759,-0.0012780776446172414,0.16715641642181203,0.6703058334907912,0.013051435445114973,-0.060478463558086136,0.0,-0.11677667425273532,0.04169139042597425,-0.31327776935401264,-0.36838548046725944,0.08680206011432076,0.22189475593161773,0.0053752458398391625,0.8988187255065012,-2.1054121085264175,-0.04863139996438726,-0.029650292285442068,0.0,0.44945755903931767,0.0,0.0,-0.25015874101798646,0.0269689892090721,-0.26768378187192005,0.0,-0.6063048088453654,-0.11013674796998277,-0.4228947984467499,-0.02491580069581282,0.0,0.04301564812377542,-0.6981202841713394,0.0,-0.1363532327197991,1.1791515649180302,-0.13225165374879058,-0.011502201525399821,-0.08119602922717459,0.3902264925773674,-0.4621011154279802,-0.42727579319411885,-0.05892109109408307,0.009485823274113587,0.07169240699928557,-0.02391887872831873,-0.8606418213107719,0.45118924557923795,-0.018573228562443707,-0.07517462660572369,-0.10614660524100397,-0.03262866584371248,0.0,0.0,0.0,0.11067057444444377,-0.02350919699228069,0.0,0.027698460443940247,-0.30332613333544123,0.8993786326626952,0.0,0.0,-0.025885666172204048,-0.13660425158130557,-0.23422000133812118,-0.5488244070722857,-0.40828900443843164,-0.05206712353729745,0.0,-0.044659607400906326,-0.36370656611547986,-0.32925143590970823,-0.6734299956242211,0.0,0.0,-0.0955628678676557,-0.39448500116156054,-0.0021115083837105774,-0.0835340376848587,-0.0417664817894556,0.030316188064071214,-2.3046726453666184,0.2571486862503524,0.07020094706608249,0.0,0.0,-0.6105730009066499,-0.015436431407060455,0.1675394014383771,-2.3110667621202325,-0.0294392741254286,0.46353614897687473,-0.09681124394919999,0.9950957380903709,0.5499918498149994,0.0,0.0910667899217447,1.6049093401136179,0.0,-0.1324639400833342,-0.014752592477471103,0.9472861869881282,-0.0776851878287004,0.0,-0.5063024944789203,0.0,0.013845090072625738,-0.0011894049437331557,-0.010916560654429128,-0.04337009843459563,-0.01675451799408872,-0.0038958350417549296,-0.46585153923157785,-0.024025732295179316,-0.0018292331875783042,-0.057218928552914265,-0.10286852045925471,-0.29954256570382526,-0.02957024016781825,-0.5678452138552667,0.42873267685062977,0.0,-0.783456263991285,-0.38641069210273776,-0.06615524892905697,0.295747533663641,0.024341939149744852,0.0,3.8473766001505716,-0.018973891619276425,-0.6405877944315811,0.023449463218288658,-0.404906595374082,0.0,0.0,0.0,0.09172850950933498,-0.6938926970051043,0.3124646738768366,-0.03183352580273733,-0.05785777149419614,-0.1622085401612721,0.019468139903124664,0.4820008482251982,0.010236087226336493,0.012481723713453458,-1.9064390965759788,0.0,-0.41251718826106853,1.3595597969089943,-1.9414520279868253,-0.18884326350731936,-0.2366227968603835,-1.1041705865518257,1.086419778426601,-0.11533658881365319,0.21169877373978438,0.16024194438216796,-0.007721445105193494,-0.6681961041278995,0.7941207422053221,0.04873796021382684,-0.006600996530302113,0.0,0.008098818021002345,-0.0881570355159643,-0.06419513342744805,-0.28287846556375695,0.1126710000068612,0.0,-0.06695850848063935,-0.8253417589264875,0.014699855166454664,0.0,0.0,0.0,0.0011934764634230826,0.0,-0.05790474877046319,-0.017911737634000325,0.0018381770901090937,1.045669764398223,-0.025188908657643616,0.34309044952693596,-0.23646275016366486,-0.16258892213532916,0.17010693734080898,-0.5156801326777356,-0.20472543123658316,-0.02386989035208278,-0.496961357818346,0.09828507468091781,-0.3853146415416957,0.3859021462680437,-0.014064091258234355,0.33755760702124027,-0.15427044670611695,0.09175227097848415,-0.21150364089362075,0.056130817241335215,-0.1939008491816339,-0.15008170082020456,-0.4307860453969712,-0.00010986070722847952,-0.03826885794196718,-0.0006590488072014534,0.0,0.2813742231606055,3.433174399699926,-0.02517880337228631,0.0,-0.228932333777625,0.04236010110857844,-0.1368307848423616,0.11995591139921608,-0.45500345637572076,-0.9794770148297841,-0.009489508446483871,1.3663584063507193,-0.06322993059119776,0.0,-0.06260666752124439,0.0,-0.3472661974409758,0.2919094852314661,-0.2694692860522565,-0.1965906715413564,0.0,0.06069396950338249,0.0,-0.009851196603046486,-1.6865846406352003,-0.0022846426763425015,0.0239909413418645,-0.1891638565631384,-0.5746417254585878,-0.6902236498776124,1.224703686622678,-0.599494747922918,1.0932049044854346,-0.016845548955751594,-0.10753313198082222,-0.4439751286232051,-0.23475574368444224,0.0,-0.09417275613873421,0.0,1.5064608280083152,0.0,-0.25932780317381593,-0.05676563477980256,0.8936937213805352,0.0,-0.7139365836443368,-1.3517362185277202,-0.40245977410169137,0.0,-1.362360176318856,0.3101428247434906,-0.12777837865586206,0.7931458600086806,0.2442747778756743,-0.0614624530397384,-0.10216238603669142,0.2861401828942002,0.009476289949244661,-0.022707977755860486,0.2932524751302509,-0.10341132378891352,0.0,-0.05191571279500292,-0.3566286342434597,-0.25333911769941775,-0.7034748917706465,-0.009334656974693928,0.015534930938486747,0.0,-0.6070089318044127,-0.9206123396171157,0.0,-0.5627470648329471,0.0,0.5040516189318144,-2.557330518512404,-0.11587413359963443,0.3419455889733936,0.0,-0.6747167680016688,-0.00910330731947993,-0.8450192253029718,-0.33015452122245753,-0.03726645296144808,-0.10675145537489465,0.0,-0.18160803840351625,-0.00912904815790159,0.0,-0.030118720269278323,0.05399700891852034,0.0,0.0,-0.10033883810157161,0.0,0.1139454292686663,-0.3869852327584175,-0.4250499949547205,-0.014027138164466135,-1.7677005997018251,-0.013878747678659474,-0.012195141695174579,0.8399126434162998,-0.321443104026961,-1.7581983758147712,0.41599817816076545,-0.05620108201017024,-0.010790654097434257,0.06371388369968521,-0.28933498912657885,0.0,-0.02982060093201905,-0.12506939098326308,-0.10600852603178854,0.0,-1.1809609273077235,-0.12458647345234804,2.82724760830572,0.0,-0.16780165810018308,-1.051205442082034,0.056063692975181226,-1.6621848928727185,-0.02508373933509227,0.23137041505783482,-2.222157142439396,-0.16265955282649228,0.0,0.024882965546692937,-0.2164863227101514,-0.3738498667158421,-1.2151743820619705,0.3449401007006168,-0.03258017406786262,-0.064991632544417,-0.03832427587193776,-0.6662121995172777,-0.9456001012982879,-1.2126354074786017,0.0,0.05229267915922621,0.022064690474260722,-0.06710608569359142,0.0,0.0,0.004791790012597857,-0.021842719355500414,-0.013352591140580494,-0.24760387101851425,-0.7077251741655395,-0.19434101766438341,0.17304860157503746,0.15021526157543585,-0.013215151220142135,-0.15913838458017995,-0.10887731214980706,-0.0018271255323045628,-0.28630671514899997,0.0,0.0,-0.07912842046771061,-0.11075806965182866,0.20513814404344233,-0.022555206692722925,0.1373768181678524,-0.5835035869871694,0.0,0.0034775078239219367,0.0,0.0,-0.04703248592152349,-0.7428358008285846,-0.10119905056317931,-0.010748205871094329,-0.186934741344548,-0.10298923107941493,-1.0249597006562094,0.0,-0.11358107612789888,-0.019521052020351842,-0.09461484570443689,-0.07743140004963278,0.0,0.0,0.0,0.1758344700454702,-0.039039831824685546,-0.0007189466014548009,0.0,-0.0009910056053720358,0.0,0.07056787586666304,-0.6297085444128201,0.04785703819708997,-0.158753662159033,-0.656781665940671,-0.28482893314992236,-0.01022755215446018,-0.11933342789319322,0.0,0.04389827105504402,0.0,0.0,0.4123140954119053,-0.060247925791548536,-0.2622491939247508,0.29945071489787123,0.024084958868029395,-0.23172034295570595,0.9014409811710218,0.0,-0.5784249880976992,-0.19294465144523584,-0.09333966101264621,-0.05246171288174206,-0.14549393793590654,0.0017226120356812515,0.43762711402419474,0.0,0.0,1.2370090605981383,0.0,0.22107000459548343,-0.210707888621512,-0.01175115618347382,0.0,0.28888014778637994,-0.03651944490633432,0.4407217501918514,0.0,-0.06481533848312127,0.0,0.258645677267135,0.44746360476031466,0.0,-0.4151876982574179,4.858137742273525,-0.01985864674555947,0.8401014825157106,0.0,-0.03964511444961251,-1.6512927343196973,0.5061937923586577,0.059850478045616426,-0.20565576936695254,-0.04233284822860735,-0.01679021485001006,-0.011687822772272496,-0.016949892672693097,0.0,-0.08597550170063324,0.0,-1.5942421944551,0.21582684590792367,-0.34189126011675247,0.0,4.830533651446011,0.012437366952329417,0.0,0.08837378786964623,-0.3423125421213103,-0.01959594213542644,0.0,-0.0644759424898278,0.41410402991662054,-0.37707969527844803,0.826345994023983,-0.6844114050605402,-0.2173931060468385,-0.0018799828416440833,0.030123334718760886,-0.004226251291604324,-0.005145880623360537,-0.5597129079206343,-0.029342535196654623,0.014964780894442383,0.0,0.0,-0.12733590299116923,-0.5515297835518969,-0.7121885109597932,-0.04426771159106081,0.0,0.6733204712465215,0.1935929809850448,-0.23009266638601544,-0.7443356406604793,-0.016492095675101712,-0.8593448777168632,-0.01235893254829557,-0.29505251059763304,0.0,0.38410540583850783,-0.12453959655361076,-0.3502117660347199,-0.826077177745199,0.0,-0.1605310174793044,0.5693872797467834,0.0567785394763437,-0.7070716886910425,-0.6526773629954806,0.0,-0.23160585543292378,-0.08768833931344618,-0.7643627954917,-0.8549970600344982,0.028853321099411057,-0.06953080503158961,-0.06423433803881949,-0.5566307494363464,0.0,0.0,-0.06383196369069619,-0.003730382426612708,0.0,0.09447212722814324,0.053998428580688054,0.4565453136027302,0.014387498477065677,0.0,0.0,-0.20538126315505795,-0.03168396620304902,0.23494743413579197,0.0,-0.05847012553368515,-0.09289572958243193,-0.021722598373111288,0.0,-0.06646001991859622,0.9802303773991704,-0.1026398852228676,-0.12155551749774209,-0.06890338224969751,-0.003640802990625435,0.011728841270448626,-0.032481191337690014,0.0,0.13524389698190437,-0.32678371096945674,-1.1443867661029592,-0.0744518962030294,0.10880622866596512,0.07008737193628622,-0.013862582851152595,-0.8331913092564041,0.1337423937330319,-0.004269184187409446,-0.02943549736247071,-0.058423530223986546,-0.03646176162925957,0.0,0.0,1.105576572751887,0.10694513953069923,0.16890500443010484,0.11975719891301442,0.48623286673403443,-0.45284984744695245,0.0,-0.04167625569121469,-0.12110530939756117,-0.005217227606584494,0.4317181776750073,-0.01406347250262351,0.09284725033199849,0.21955634915352593,0.0,0.0,0.14324793103577896,0.0,0.1117168721900161,-0.8694071446959997,0.5836209300471505,-0.03312940375922015,0.015750061955423004,0.0,-0.9513536682341118,-0.018451999317937434,-0.044040808243405144,-0.12122106638411052,0.0,0.04565874290894426,3.6750841507056506,-0.04951060296928782,0.0,0.0,-0.06584897545270006,-0.014172304613095557,0.05375761839413569,-0.15101375353422367,0.0,-0.03108599596721103,-0.35512526598295774,0.0,-0.5520026317690677,0.0,-0.03743805656902353,0.0,-0.041162793204199334,-0.27657012999284386,0.0,-0.10282313031440872,-0.0644962016906534,-0.007152862845531725,0.009416190231271451,-0.4539955216144759,0.07142991697945776,0.0649581205630539,-0.055405860809992304,-0.17571705447347763,0.006692999776120153,-0.04283159141739949,0.0,-0.006544399433788679,0.0,-0.6147370514616833,-1.1811523491509168,0.08038139091413099,0.0,0.0,-0.45002669701925196,1.3903644360872416,0.0008736434194993466,0.04147184673273608,-1.1861771632992542,0.0,0.09129159549259179,-0.1303548105216905,-0.36178698406988885,0.0,0.021761383589917044,-0.0895796550815909,-0.0912083571306785,0.17330784015557868,0.09100169579238454,0.01815335282578681,0.024195996139716666,-0.1535347589118938,-0.2425708893205812,0.0076883114912509294,0.3447614281121355,-2.354750039037291,-0.01744790039671228,-0.0029858603002819164,0.0,-0.008601066294291302,0.7024924724904436,0.024140911778974056,0.3025856349665144,0.0,0.3303727314427637,0.0,0.0,0.0,-0.06757449893981654,-0.280242679895794,0.5954163350831785,0.0,0.0,0.0,0.09642207804518389,-0.07843958675994941,-0.020225547198707824,-0.14506486367346524,-0.23103077133718783,-0.014581550863709006,0.0,0.04935796885809453,-0.06467280113230621,0.0,0.16538666396225846,-0.07141866899373128,0.0,-0.082372100363151,0.3522536494322412,0.028502438438906142,-0.021009768844938076,0.04782054316862828,-0.03400671580939408,0.06151942832546323,-0.12333064403414785,0.0,-2.426237915414211,-0.16966771971438058,0.0,-0.017707488840576133,0.0,0.027028589236596692,-0.10911549412965142,-0.11497402583909211,-0.8670080716696215,0.0,0.0,-0.03093653870548213,0.10120615553615916,0.0,0.0,-0.2520373413333884,-0.726831758471639,-0.1165743444844787,-1.430105270285342,-0.0022002817608312297,-0.04641782538854829,-0.04087261581416505,-0.03333481516844683,0.0,0.0,0.0,0.0,0.010158224409829351,-0.016834994829653734,3.183144123568846,1.3199411205033935,-0.04239105376980218,0.04314752288721953,0.0,-1.2083222144467165,-0.18525030338375148,-0.11557148820674398,-0.08742149324442754,0.13434002281395124,0.10495148631193565,0.0,0.0,-0.1685186340650256,-0.31826830258633665,-0.15160104624242896,1.3999620358611207,-0.2882341559932989,0.0,5.2012994278964095,0.18574902651902245,-0.023414829860383186,0.02332837411280901,-0.2686206437467665,-0.035675623300695916,0.0,0.1136547463467978,-0.3741684802365843,0.0,0.0,0.18461613150122852,-0.09479003592645023,0.2621249571567058,-1.0167293841128733,-0.018032149663369638,0.0,1.0888561740041873,0.4039268120663866,-0.014042385283311339,-1.2322097147084925,0.0,-0.21329613315663762,-0.0471708784841163,-0.1447821744644851,0.0,-0.0659596784267008,0.0,-2.3439073245710613,1.5297719598959723,0.068519322944621,0.19909660405918655,-0.14594173188454335,-1.7609125211586354,0.03583448314081684,-0.6218646137332341,0.1525703171793727,-0.005655200859477447,-0.11627057024285908,-0.1651707110668004,-6.256277349091207,0.0,0.0,-0.0052397539183957195,0.0,0.0243286564034811,0.0,-0.15410660952369165,0.0,0.0006795377779189475,0.5106010030332201,0.5610963539341982,-0.07706581574350801,0.0,-0.00970242917848304,0.1500708752741244,-0.002096572197955314,0.9840516919978656,0.05269531729961648,-0.41537325672877917,-0.05918680519392477,0.029603915390034617,0.0,0.0,-0.6009746075049007,-0.1362094167076455,-0.1363148424420466,-0.027184963149297334,-0.2364230663710735,0.0568366348576666,0.0,0.0,0.0,0.0,0.02717923856796259,-0.12224924599812712,-0.00245097657673318,-0.002863737648922655,0.0,-0.05466558747434809,-0.27513569434110874,-0.016516872967995845,-0.11278984984176026,0.0,0.0,-0.052542055742898594,-0.13652664350572727,-0.10991032788959472,-0.09621938899251861,0.16808847520628245,-0.7554527058442957,0.0,0.25460441650082943,-0.5958687995327716,-0.44953426663107754,-0.06964854410230112,-0.10988200761444465,0.33899948287980836,-0.05082160961874521,0.39740646134589325,-0.18375342787917073,-0.0743468087530406,-0.8917078689897127,0.0,-0.15455429739418808,-0.06939313216571258,0.0,0.0,-0.10024549339467392,-0.17601669677031437,0.32630426549667435,0.0,0.016538566348285905,0.30821621246155595,0.26880696052043906,1.18873285258499,0.20579096391179288,0.0,-1.0847457528224846,0.0,0.0,0.0,0.0,0.0,-0.06517223158072245,-0.1575115964219409,0.23305966073285259,-0.021359334560911186,-0.0875290378947918,0.0,0.12631542888280875,-0.38003194429550163,-0.1419989471351601,-0.024340492381229976,-0.5194161642471011,-0.10342278713004138,-0.49129169731978173,0.0,-0.04906374799575566,-0.00321746546606362,0.0,-0.06176411789705987,0.0015185033605679143,-0.2035905859669344,-0.02888802787360405,0.3460652610342374,0.7896683371220934,-0.009821251679067609,-0.006895762678719823,0.0,-0.4633954993022317,-0.21990782117239352,-0.1333040697487408,-0.44444783970439666,-0.05134585091039158,-0.09699200101496626,0.0,0.05517728136518391,0.7813875789485218,-0.925234698528841,0.0,0.0,0.0,0.0,0.4973435111573118,-0.003958646611711975,-0.04351536940885058,0.0,0.0,-0.06451261095567624,-0.03999498701526303,0.0,-0.1033064951134426,0.03251178795031585,-0.004187862201424266,-0.18100070836061757,6.493105482073324,0.0,-0.08078021137611623,0.12493861802843689,-0.3642602798431578,0.0,-1.4206217512369614,-0.02287099658148574,0.0,0.027471920118814365,-0.025280502873279733,1.164111050674098,0.0,0.0,-0.2436332643776653,0.144952817996118,0.0,0.0,-0.00844080895514317,0.0,-0.2610216761505367,-0.18262066039555272,0.03416889531405619,0.09550597851996476,0.0,-0.1486455633409713,0.18316648518298978,-0.4384298410215055,-0.4798166467693189,0.04770108488539477,-0.051491797307852825,-0.114721169095512,-0.3435378863084601,-0.08529155826937698,0.02764668535653436,-0.3185212236775484,0.818686568054793,0.0,-0.03334575769506089,0.0,-0.6248621276524962,-0.14827233739546383,-0.1308641950997009,0.0,0.0,-0.09222731634534827,-0.01028127176180518,0.14059152701326094,-0.7964189900330765,-0.24574780724590772,-0.004511535503287724,-0.010125887862942294,0.0,-0.0975591741952217,-0.09245703570597835,-0.10886914937095256,0.0,-2.4325627698461956,-0.4988575006764342,-0.07041002542945496,0.0,0.0,-0.04039874025541442,0.12168737304454144,-0.04589970497705713,0.0,-0.029094179478946394,-0.08281903877458524,0.5061217305408989,0.0,-0.2174529426726189,0.0009106726025748209,0.7802776133942361,-0.08711331997495247,0.0,0.07865520880143143,0.08399294334953172,0.0,-0.1669325399846891,0.10597361628066546,0.5347168944768623,-0.6394289818194201,0.0,-0.17422548244268268,-0.04216924182414796,-0.1380824161732081,-0.2580494378043403,-0.4451837481848509,0.24836476693453263,0.16975845709038656,0.0,0.0,0.13790005156933122,0.0,-0.031201989898443618,0.22976610950861018,-0.05362915350290834,-0.10575116809576761,0.5895585910295398,0.21173489308262056,-0.041513198851203595,-0.13728570625616351,-0.012379649792742737,-0.025983602949038065,-0.058836025182947116,0.3912067699718462,-0.9264273537149653,-0.5321278636744172,-0.06007312538933481,-0.0018875462885164058,-0.0942677550511299,0.019632713614009555,-0.5024322963454543,-0.16806496261522985,0.0,-0.2632844010128872,0.15413642030619928,0.0,-0.11034911964788689,0.8887793950188257,0.01597773447496998,0.0,0.036770883492877396,0.0,0.12649482401742515,0.0,0.15801068107200017,-0.38246143776084013,-0.09607540475565673,0.0361075766470038,-0.22797966079374513,0.1584572365590799,-0.18425772255770737,-0.7845668614577028,0.010958003644021965,-0.8152108355198775,-0.36059421847624895,-0.9432810203711041,0.11787754274571835,-0.017370828420800496,-0.01273441058299702,0.0,-0.07901853172509113,-0.018344857661396125,0.0,-0.3203740602854638,-0.001857894907416085,0.0,0.0,-0.07223562214520181,0.0,0.0,0.08897598146084047,-7.5485252271289855,-0.3893179406362014,0.19810448724606358,-0.021515709288065808,-0.4508189943130983,-0.04392906009638233,-0.20584959019293428,-0.762513498656632,-0.1415958655799384,-0.0003335604108441853,0.32268036550689744,-0.08729015184371101,0.0,-0.21053112899736035,-0.016271069720126645,-0.18300752704294937,0.1279222503378084,0.08689117750576641,0.2667628492682591,0.0,0.0,0.0,-0.05491010727741977,1.6095272000134664,-2.431170901124236,-0.07516386813662204,0.5156292330447284,0.06577042204726888,-1.690003957016125,-0.07001992572712204,-0.07553135249192239,-0.007542583622534669,-0.05003198634311887,-0.09819212558367389,0.0,-0.014291883730273246,-1.0349800037494383,0.0,0.47681583225124724,0.0015014605254205851,-0.3033220308740208,0.13150017845055112,0.01415224568719607,-0.012073388286040829,0.05533985471180015,0.07656494229231424,0.22693755051980577,-0.05869580656173598,-0.06393159545931844,-0.7402212833412591,0.3091309270843025,-0.0342236430466963,0.0,0.13883078421780243,0.02954372302704606,0.3286299446965232,0.7249137551757664,0.05258242214140965,-1.6113092612076891,-0.3340870035086405,-0.27939076532919727,0.2924034442787588,-0.34067262700965456,0.0,-0.49997489204829715,-0.15425314787390718,-0.052709790542542885,-0.09132291712957537,0.0,-0.2232749745730467,-0.02122638194350929,-0.1135423006127573,-0.13144359043789583,-0.018770184412950235,0.0,0.0,-1.088533025122197,-0.014233577447485815,-0.021097980667858368,0.0,-0.005199972980815181,0.0,0.0023378720001872542,0.0,0.17183766265122163,0.4701953323917834,-0.14080187534665864,-0.10334489040181545,0.7415150044561128,0.0,0.05165836291405539,0.0,-0.16415827731382507,-0.0022756640344535075,1.1300046631263383,-0.010420826849892206,-0.2975328089605997,-2.645841612695056,0.0,-0.4758583566239327,-1.4075158645896346,0.0,-0.13605146584236624,0.0,0.028624344933892577,0.0,0.0,0.6146480528023396,-0.04665581736281179,-0.07100391223287408,-0.6132448192720152,-0.010136969142328332,-0.10346464724733152,-0.17981563357112545,0.0,-0.13766376579666736,-0.4829886418969667,-0.045439389007815266,0.1270631039036659,-0.004007979862322061,0.0,-0.08969506663243719,0.04375906163047979,0.6319840486148363,-0.016413089457323383,-0.03341517216748839,0.005789724221146252,0.1725405265814304,-0.35302959091556374,-1.2565978096778978,0.0,-0.0652208410193998,-0.08242680988594034,-0.008020648066037714,0.6947557880036309,-0.5158473664311541,0.0,0.0,0.6951104406666476,0.0,0.3983146266058879,0.0,-0.011868169221300582,-1.4263218192867169,0.0,-0.03793568181918256,-0.2845420017805231,-0.07623225786054519,-0.7239634334111101,-0.05721852035935002,-0.009897906610570842,-0.023320714480130667,-0.2355635656538509,-0.47675241573591615,-0.0635350993373768,-0.011821262308502525,0.0,-0.062105350322118565,-1.0063021028962433,0.0,-0.08205840834928667,-0.019818681307422027,-1.160936732897309,-1.6868419367428773,-0.01650117542179626,-0.3420643949823296,-0.019299879171095283,-2.144227681721535,0.0,0.8214373824673636,0.0,-0.06644882565308971,-4.2215292451077735,-0.4762401279550396,-0.07589642084233492,0.0,-0.03850457644302487,-0.6582396272554681,0.0,-0.12650479962513972,-0.006209626018618337,2.3783187598418265,0.32163337268725567,-0.10291251774043349,0.08806549028320129,0.0,-0.2601025929516775,0.02686671795668581,0.0,-0.2781244044972988,0.0,0.0,0.0,0.0,0.0,-0.20346022909567008,-0.24087287335129293,-0.1671942817937082,2.408686237148059,0.25274864821749865,-0.3774222733492669,0.29775903776412127,0.0,0.0,-0.049157929711025276,0.044923302298395675,0.0,-0.021738801905081602,0.4642238760750289,0.0,0.0,-0.08300087867724097,0.8122394999863549,0.1528226412016993,0.0,0.0,-0.00395740340997798,0.2520558858866055,0.026416891429102793,-0.06259521162249719,-4.2446414829451875,-0.15862415635558236,-0.08520158974729025,-0.05587435053327611,-0.08723038720344992,-0.18923834944439702,-0.33049493916643924,0.0,0.059517372999117434,0.0,-1.1499074367873925,0.0,0.44992887456751435,-0.09941421765731757,-0.21813040124720326,0.5014619240439496,-0.14644663949139686,-0.2914396230696866,0.0,-0.07608019164813717,-0.10214966286796291,0.0,0.11612953696008994,0.23691466984832754,0.20649021586652413,-0.4071816521218673,0.0,-0.057305670392957156,0.046116737786684917,0.0,-0.06858789849466412,0.0,0.0,-0.8819306022181306,0.7051851011694339,0.15156870635517936,0.0004752983451038384,-0.07506192636599378,0.48273255980839463,0.03973468975910776,1.3521467290094402,0.0,0.0730633355600792,-0.09791920579179772,-0.7600900201684239,0.03213428104718869,-0.5838845871056083,0.0,-0.01650602204228075,0.0,-1.740838613388791,0.8795604728031446,1.0081363626167281,0.0,0.0,-0.7384480483852112,-0.5603046630953705,0.1518445462232703,0.02127051254416222,-0.10712924437833059,0.0,-1.1779001139920515,0.09894257478301689,-0.13981992574586422,-0.8707261272553818,0.07766502641410254,0.058231401405522284,-0.10661632218830691,0.5816164754942168,0.09653962230039619,0.1192362481938732,-0.4552159808490853,-1.0093106518896697,-0.20974888009680295,0.0,1.690149733645853,0.15559501852814736,-2.5356056570901786,-0.10961707855157736,-0.10200048265392246,0.07791107586582342,-0.08882804428022047,-0.0539968829628338,-0.18638262969477848,0.0,0.30516269924847794,0.01647314861654558,-0.012415492895663524,-1.4486264136463916,-0.7589904224821022,0.2572558040257423,0.4546538601418921,-0.0978160500797522,0.07487114463731522,0.00838999149333601,0.0,0.0,0.02125975864271131,0.5873036970081819,0.009588629568030875,-0.2919987864195791,0.0,0.0,-0.010278901761805527,0.0,0.0,-0.09358311734016735,-0.022211553820686635,0.0,0.03844872469479503,1.483371283306782,-0.6141378083361241,-0.09272707439756249,-0.02161741335111771,0.027017697184715545,-0.1421447117141995,-0.030686141591071654,0.0,0.35143039257099684,-0.08396947718971282,0.015216250428150134,-0.16547008672267344,-0.22183434354153334,0.017412900699449965,-0.2474060244703897,0.0,0.0,1.001359179830817,-0.43055728683434175,-0.04495873205833713,-0.21835523398592352,0.0,-0.06346778909522503,0.0,0.0,-0.1460263012939464,1.5319768920337795,0.0,-0.009420115097020959,0.0,0.0,-0.012268927137565363,1.599586208601944,-0.6417007423607827,-0.022862263039617758,0.0,-0.16403043212757001,0.0,0.0,-0.08907829075037912,-0.04260800897735196,0.1932689048861661,-0.03317788776846056,0.3697049816073115,-0.49282394655765177,0.0,-0.05313728489096095,-2.714215017770599,0.06013472678770063,-0.1624997392376739,-0.17252275859379462,0.0,1.4660691673450643,0.37988714185656425,-0.023416073223795075,0.0,0.06669877217144816,0.0,0.0,0.0,-0.08920630942337267,-0.20359426220496687,-0.10232709380628772,0.41052016551304904,-2.558716180076302,-2.5963455848063526,0.0,0.0,0.33224457986455697,0.48488554387610144,-0.6285958046518905,-0.06858698245118384,-0.02749879568763485,0.1491675298327634,0.0,0.0012796146349980592,-0.516332036266192,-0.8456854405501056,-0.13992531515543524,0.18119451746487464,0.045527254087436346,-0.003933731408465256,-0.003840189941452801,-0.013377857545894392,-0.014738926869468892,0.1765910115866789,-0.13004286408136095,0.0,-0.1318203439727401,-0.25753128768886174,0.0,0.00460433510746085,0.0,-0.19997294950693717,-0.04513519861975138,1.105035855799737,-0.36618439563384336,0.0,-0.005020164032388866,0.04654799285727979,-0.016548055680496748,1.3514418943941238,0.0,-0.09241398597659845,0.25542693470173167,0.04137270403497211,-0.5325482501599824,0.0,-1.421419929185438,-0.24096503002757114,0.050017488487655797,0.0,-0.2685353871394353,-0.3997126228833944,-0.05635150739213277,0.0,-0.03754701685027862,0.0,-0.017549776951327888,0.0,-0.0605277663678247,0.13322906849083738,1.5658419521050155,0.0753648836288756,0.32450930120478716,-0.46344488327499445,-0.5897412754038368,-0.14620563822433733,-0.0696957165424275,-0.05077247851444423,-0.051711235208465864,-1.026679289921991,0.0,0.0,0.0,-0.1190723380006937,0.10739079420325094,-0.03133820586623816,-0.0012991091574304293,-0.9801920537731879,-0.05584874916394283,-0.04111734608461381,-2.7368487051549297,-0.3710442291701986,-0.9771378572494103,-0.26021522547262893,-0.8193475406811698,-0.14445576446104966,0.0,0.799927940412118,0.0,0.3467258022611705,0.0,-1.5277040888242666,-0.04808036518317166,-0.045297629253750034,-0.29751799931961476,-1.521553317669808,-0.4282273153996876,-0.3374144370978172,0.0,0.001838483491172169,0.0,0.1565469095129331,0.14383159149027772,-0.13011291532410313,0.0,0.4502071504369198,-4.075903268752906,0.3456436971925474,-0.10309825645505717,-0.022500164171006722,-0.1042311847092455,0.4053014892156863,-0.18329705714560401,-0.05439503634096204,0.21278736808710721,-0.08821317789359445,0.19257403605968987,-0.3648405360514896,0.0,-0.5156232396396262,-0.6646262070343881,-0.08607600159217939,-0.8195666223447688,0.14359181896829026,-0.17677157121792278,-0.010355124336046044,0.0,-0.005632045317621988,-0.6788233684321475,-0.04428093169976349,-2.535591542367736,-0.22532783999230718,-0.3865915071501994,0.0,0.14569377428377428,0.0027132749321646856,-0.19086155280563621,-1.858373758494597,0.0,0.0,-0.011192880494073573,-1.8741595653868357,-0.024855781821381213,0.07066235145902738,-0.14687255828414714,-0.4907290244756698,0.0,-0.019762071051195765,0.0,-0.8351316075015396,-0.15813625791990743,0.10201926620185067,-0.039670620722880245,0.3135149690684693,0.0,-0.004808319882089151,0.11385751710863105,-0.010533613107639093,1.4846009439411094,-0.14881229691266346,0.16678107746532658,-0.1596065026094091,-0.010262745581623704,-0.6934680493378287,-0.014214252337611526,-0.01912209809076273,0.44113361592735034,0.31365262929714416,-0.0317253309032812,0.7041302795407798,-2.0029896107865297,-0.018266954078550144,-0.01643407649287112,2.4348726900274915,-0.0010569777831657436,0.44027104005139744,0.19127791842494918,0.0,0.053981592626583114,0.3636624934543228,-0.5325600422758325,0.954502204179342,0.26443339023020634,-0.23424592252767149,-0.01039415949669154,0.43637335464437543,0.022535234234420307,-0.05769555627896356,0.10167124886104627,-0.009924147453616923,0.08062664404037002,1.5066281873559177,-3.045357201679435,-0.05596091302083245,0.0,-0.4227206932612985,-0.05043059947141428,-0.4612853765051525,0.0,0.0,0.0,-0.20457311528119884,-0.21437961021902688,-0.06641189526728969,0.0,-0.08572985920336322,0.04688901577045489,0.030218958036622758,-0.03367790479271304,0.0,0.44132696050268483,0.05389031684922715,0.6060354203353386,0.23017669769999774,0.10940824921476822,0.008798586607808098,0.11408866857497348,-0.031764037798680644,-0.0015921073007834586,0.04475933315927353,0.0,0.0,0.0,-0.06244806048687269,1.434310115567709,0.0,-0.17858852059465605,-0.038823265313993785,-0.06911733421314592,0.19076489106677053,-0.003919981199833926,-0.030044962076924957,-0.25445278806648974,0.3689005805000135,-0.13690881804724467,0.24242441738551665,0.4452799228905162,-0.25752674196234326,-0.1641507621501243,0.0,0.0,-0.2859388033903483,-0.01353019160954761,-0.24822519187892841,-0.014215479954920122,0.5755152224859333,0.13424267150659747,0.007603987808623777,-0.029498035145561357,-0.012558635073896087,0.0,0.0,0.0,0.0,-0.2870401992821995,-0.18646280962200742,1.116191019918836,-0.4028851478117143,-0.08402552252580013,-0.4442039013982769,0.0,-0.023346829328093423,-0.07170908265413434,-0.5710442692493197,-0.162329994598497,-0.09500677426050844,0.5695989741488613,0.18120273999799918,0.8258423727380386,-2.415094555818252,-0.10892223052179649,0.0,-0.779221354463187,0.0,0.1595211532726733,0.44732793716126434,-0.04255775194884875,-0.02901183034888029,-0.021556268772861903,-0.3942053028185626,0.28024154439153015,0.0,1.6590008901342312,0.009149569547783355,-0.06350092801497705,-0.037530981207615284,0.028428625187855754,-0.05641977846382887,-0.8192846472979138,-0.015461014197305497,-0.06249326938645065,-0.11766156190311014,-0.17792849908266264,0.16100683027312468,-0.8716333960947772,0.07583264433847031,0.0,-0.028017570899814357,0.0,0.07051534847628323,-0.6973306134539905,-0.0985568588899858,-0.18831723125383082,0.0,0.0,-0.026828353834916586,0.0,-0.6693737274638548,-0.05287204683403181,-0.3151668543760624,0.0,0.16471220020777835,0.0,-0.14140989778271407,-0.006526562339253941,0.0,-0.13439426496314094,-0.5954302315144839,-0.010261580141409463,-0.4568357697099038,-0.3798366972164262,-0.030943944101073304,0.0,0.18666884533268283,-0.03794537542053652,-0.058875407266637834,0.05258813748778729,0.021550582209546816,0.01193340613420369,0.0,0.0,0.19731334190436814,-0.03263603524591894,0.0,-0.1694804875827767,-0.46823215039929544,0.23082948353854005,-0.5377644385973767,-0.031648678639225256,-0.04420369914632229,0.08053714246132959,0.0,0.0,-0.03723989005888364,0.0,-0.038660204467925265,-0.04494832977041283,2.948485878140776,0.8419235568053502,-0.397175138696788,-0.32069355148591794,0.0,1.6664107616867538,0.0,0.0,-0.3349130157644643,-0.5028400873741212,-0.26472684383473405,-0.02506249279663928,0.0,0.055059021690696174,-0.045985335562418204,-0.013880985433254112,0.0,0.0,-0.055749057426961596,0.581866129350924,0.5176837882890433,0.9179190240604052,-0.1982126725717424,-0.16108532683163665,0.0643595001005594,0.0,-0.12345691422600434,0.0,0.017550454920498868,0.5413976268238961,0.032648809952711494,-0.015557171739863975,-0.6962897850281636,-0.1614591133611587,0.03560485569801632,0.08165640369731914,-0.015505675594325963,0.0,-0.4657129393527773,-0.2807644538359885,-0.25391183310767645,-0.01731517291951049,-0.4547257411069645,-0.03476083964067298,-0.29475897531088235,-0.14782277891789924,0.47027650395775633,-0.2962832728232641,-0.02864177228060333,0.0,-0.2827383483261039,-0.23772695033700747,-2.031130789430108,0.32237527971876473,0.0,-0.32577908840784064,0.0,0.935296980906113,-0.26581338101451646,-0.43901479450898573,-0.007929716804648329,-0.8130727727116898,-0.06163366530477961,0.19911721095336776,0.0,0.48167491433807086,0.0,-0.3630560514905219,-0.0009221717656731799,0.0,-0.04321145019847824,-0.0017100878186829074,0.680972793948932,0.5287005127268658,-0.4407850384772887,0.0,-0.11299789082128278,-0.6128697194357575,0.013715902857925635,0.0,0.0,0.0,0.04212624700158944,0.08924361634743687,0.0,0.0,0.0,-0.030287863751003695,-0.1361549310784516,0.0,0.15137392486396078,-0.013901988247889545,-0.0701741955647617,0.7541809975623757,0.01463260200766825,-0.7683528463322539,0.024369395543983482,-0.024176345341512483,0.0,-0.03610541301076349,-0.6281344302594851,0.01328638851937285,0.0,0.08415124059956366,-0.07585284244159493,0.0,0.10680595667934548,-0.0035203139798615883,0.31532583982426443,0.8956076995472345,1.2598688642479827,0.679989326004227,0.08391331155156032,-0.015522337409604849,-0.012371449739375262,-0.3889437639929026,0.0,-0.16461959097710505,0.009173103885409652,-0.0863858060240356,-0.04020690025575231,0.0,0.0,-0.27566251034891326,0.4711998487580003,0.0,0.38509789399327277,-0.7220214733643628,-0.043971523326738544,-0.2578862772786732,0.126618444147258,0.08362251018581061,0.0,-0.7724012721847918,-0.5523889877807696,-0.24243528912736195,-1.2362983375622045,-1.3942922034801997,-0.11312480953750952,-0.09905166967364862,-0.050603784323260924,-0.3848357170867067,-1.0166586818068606,0.029451790976163086,0.0,0.19174930455751693,-0.21502355796305364,-0.35353851766333516,1.201175026485835,0.08852342083136089,0.0,-0.04533245141305517,0.04244050060104362,-0.5376375492572322,-0.05929714252898464,0.0,0.420462169922479,-0.0487932849762828,-0.1636409007842394,0.0,-0.9249386724405166,-0.03872819005272322,-0.517503118838748,0.1476047351257201,-0.017140276550440193,-0.04388923014828772,-0.1403916199815313,0.027640976225155933,-0.01829934454092962,-0.18972676065488847,0.0,-0.0886873487143238,-0.0061039564788185835,-0.014004430583936186,-0.05939940226442239,0.0,-0.7679712437477207,0.0,0.0,0.035902675008118994,-0.8146908038465793,0.0,1.0591057891012692,-0.0053368641587407005,0.0,-0.42800008638297254,0.0,0.30576014021173814,0.45508540929867397,0.0,0.0,-0.22777558109079651,-0.08830895364832017,0.005149542162066627,-0.007750207737176528,-0.01647444481821433,0.32363571881403064,0.614889619646344,-0.015193911714966866,0.0698629858033569,0.0,0.06812433771869576,0.0,0.2804855254592684,-0.2245719386387048,-0.2906579023732233,-0.1744088804844927,-0.0009286014441349801,0.00494570268949632,0.0,0.0,-0.056378504682633515,-0.2165621377910979,0.6728610963938699,-0.23368728602400515,-0.024478914340861718,-0.5548613812442909,-0.17601521935789255,1.0823906035394706,0.8612520178383167,0.0,-2.29777347089964,0.0,-0.023487578818092297,-0.06283044227309881,-0.09743661474037964,-0.011629697037394113,-0.11271992574348251,-0.07855618635390299,-0.7331684819643177,0.04620908783341633,0.0,-0.026910153243685835,0.0,-0.03749848092601029,0.0,0.057790030839854914,0.0,-0.13059328065871734,0.2502670688970945,-0.49298689242302196,-0.09757392390832383,0.0,-0.005903427853812461,-0.06840283344770942,0.23892061945778928,-0.09678522061010579,-0.4926175349081378,0.32266159122496885,0.39490282980037306,-0.38073420297688093,0.0,-0.07317883669746604,-1.1991804151286145,-0.455580072277222,-0.024526019606695735,0.0,0.0,0.318470617485507,-1.2524402011236326,-0.3692500619904655,0.0,0.1025175679764798,-1.083690022070931,0.0028761806952291753,0.00042898363398342996,-0.2643427302815712,-0.0528352726386697,-0.7940982839981354,-0.04670450379041141,-0.7011154225565087,0.5844178309556547,0.0,-0.06877847558263826,-0.05435090042229628,-0.07702229976092613,0.08553143675532938,0.0,-0.00713318580818931,0.0,-0.042965846356990064,-0.6381127893007529,-0.6178929237632774,-0.0431685927342853,0.0,0.17950119556627936,0.10264683481042476,0.0,0.03590500233257013,1.0891639954568488,-0.005823995844313607,-0.344058626933372,-1.337383484449536,-0.048094660132049744,-0.007897963941826952,1.2678730050990834,-0.04908054942626776,-0.2027466648600006,0.011804101307130154,2.133589223964152,0.0,0.02131267846759651,0.0,-0.005889514171692961,0.0,0.0,-0.6198396358189594,-0.22317552879655583,-0.06652827408547772,-0.4912597147816308,0.13723173312979073,-0.14383043551995411,-1.044365610665716,-0.06606222143588397,0.0,0.12982209596521285,-0.36212751956239597,0.25247125610237614,0.0,-0.43402772036322324,-0.4708991812509596,-0.014638331577167107,-0.12409540029421799,0.2979302691423997,-0.14896993592578528,0.0017917447066182635,0.18023728175576362,0.0,0.0,-0.12984554997994976,0.0,-0.06373473440828716,-0.21579104856377387,0.031225965008393714,0.25767097587537285,-0.9383740867028582,0.0,-0.37356762816900996,0.0,0.6203933306043565,0.0,-0.06752176346043405,-0.1689745812637117,-0.5059146872733283,2.2642007249910723,-0.21735707032988627,-0.08631345747883463,-0.33093610422138026,0.0027226767603306516,-0.17380950033797266,0.07301778732542576,-1.0098621812156512,-0.9048802518054235,0.0,-0.33039636018121543,-0.09682833199470468,-0.050054817729576526,0.0,0.003761561397753005,-0.0564890889443484,0.19775672928045218,0.07815053635322931,0.023145320180738616,0.0,0.9965468331609857,-0.9994022575602334,0.0,-0.21705280513831604,-0.5765407041045985,-0.6457604513723253,-1.0199821812035956,-0.41706647572197586,-0.46400154458683274,-0.4764714449795924,0.06821038588221073,-0.45807375147986695,-0.007589415198828506,-2.3310693703320715,-0.3481100490742955,-0.03749815892265708,0.003641153021242063,0.13433559527963648,0.0,0.0,0.17772312286283315,0.0,0.06901547416811636,-0.03033792811195139,-0.057354442228874765,-0.26074691267759875,0.0,-2.179799054989745,-0.10277112026681295,-0.024045704155803795,0.10393580752647787,-1.864427153642469,-1.7010067120899472,-0.11188577994029773,0.0,-0.7002025753756146,-0.4801510674578053,-0.026419033515980146,0.0,0.16910510802648432,0.01952225057703674,-0.031261698148056676,-0.34578497399516817,-0.01120436871318705,-0.00049931042617376,-0.21742602443067977,-0.0013800088579693183,0.021622711395122955,-0.007373118904439826,-0.23118557684238944,0.0009124564833898115,0.4400825696343254,-0.4376552445103255,0.24900602309857692,-0.1766098443900106,0.2837453861959331,-0.500898674963115,-0.4214950849252652,0.07568913621223006,0.0738344987338198,0.0,0.18948915877960004,0.12384098458989035,-0.05487561680971083,-0.8482471842819904,0.0,0.0,0.0,-0.07546966300052917,0.0,-0.17668531506259277,-1.2613047828376105,-0.04337383304176116,0.0,0.0,-0.21494474960912954,0.0,-0.049148970233858114,-0.21567675610681022,-0.25373952232890445,0.0,-0.009470577904978652,0.0,-0.2486251245897788,-0.014677813836266934,0.42553212656433365,-0.03906957879509244,-0.1697770205301445,-0.11113712956623259,0.6572649028133868,0.0,-0.11653253561843466,-0.06915374213699693,-0.031268900240473387,0.0,-0.49749685978688474,-1.42967157172185,-0.0018163676588132994,1.3255079957775875,0.08833347676797973,0.0,0.6334995084812947,-0.25337008615785994,0.3532405920224945,-0.13294277921815548,-0.3397724862090061,1.1716033726227562,-0.280714643160798,1.5452497068137325,-0.04787302774843203,0.23732614014595366,-0.08082827784327522,0.0036260982206785964,0.0113814351391184,-0.02330108900961161,0.0,-0.011502201525399821,-0.6452805965188584,0.0,-0.04055571412571503,0.0,-0.010484920035387417,0.4871744169871505,-0.043369137396957705,-0.3634106324054024,-0.017015443803236444,-0.007995338379684025,0.2384724963877464,-0.25604157068856837,0.44051437014431005,-0.028038917875359063,0.0,-0.07687606127758503,-0.1011214328818183,0.0,-0.34813008840921345,-0.07991318980773474,0.21959642772707008,0.047638858836254676,0.0,0.0,-0.07671451918038222,-0.20312858754923382,-0.20446249138994,-0.10676143915763651,-0.341144521934493,-0.12014746874930235,0.0,0.048503905756195564,0.7397858424819107,-0.21175967026363418,0.5606566919568992,0.0,0.0,-0.04156061163924313,-0.21355016268312066,-0.011389278954961307,-0.02944692703814115,0.0,-0.25736989909974206,0.0,0.0,0.029116985564716487,0.0,0.8124591418736008,0.031072024487965415,0.0,-0.21505347446418463,0.22828951313583482,-0.6659819820965733,1.0629060553852154,-0.8579055651723287,0.27664907918309606,0.0,0.012061716060164634,-0.08311279355662482,-0.0029087758247230817,-0.2975165544631427,0.0,0.6708815608508556,-0.6252505121241779,-0.11955611274904128,0.20783945991778902,0.0,0.200441131460069,-1.1892258929765365,0.18581405582460567,0.0,-0.21381824373351327,0.0,-0.7999558503189571,-0.4273301229576057,-0.5191161405672771,0.23360269334434325,-0.2743969627642847,-0.0614682498686655,0.016564453433893487,0.2563619633340177,-0.015539051385514568,-0.014027138164466135,-0.40645703297011715,0.4979584568966906,0.7869381699388611,-1.0577122346603092,0.3285097476937195,0.0,-0.17075288093433982,0.35967283868195377,-0.5201370642405633,-0.277267249096443,-0.666934401995018,0.0,0.0,-0.3903329431538777,-0.04847016930054961,-0.14207939464740404,0.4216770707176328,-1.769583244981502,-0.07310469350459381,0.0,-0.16217656616426024,-0.3766930258932501,-0.05203438607252389,-0.014812584390038038,-0.0004999694924172182,0.0,0.3304893040030549,-0.6598601485791528,0.01856440548788078,0.0,-0.3231795318529113,-0.13352997870741287,-0.21716118332871231,0.04324667686539871,-0.02458720349360779,-0.9788168686066516,0.10844238746390268,0.0,-0.37831067466949686,0.0,-1.5966533404162686,-0.15520170770539918,0.0,-0.1073131572618416,0.017779919275100527,0.0,-0.26678707079193187,-0.031165327462708593,-0.1683660253048306,0.0,-0.2557986925429104,0.0,0.0,-0.12042084026503229,0.0620420526056991,0.6717513460390592,-0.5992122259139127,-0.025116687494780736,0.0,-0.10461911483190169,0.5376683679431471,0.0,-0.48241564568801426,-0.0017699105245072737,0.0,-0.05946465943800014,-0.3925630837694462,-0.04008009118040576,0.34989573475591706,0.0,-0.9360639594455805,-0.004912098231700104,-11.891076135536697,-0.8206322961961574,2.3959457020572104,0.0,-0.38856584368401176,-0.5625212687702329,0.20185197445011013,-3.1473077350571765,0.03022441423551761,0.004370348489941143,-0.15721033866820242,0.0,-0.44085661433813866,0.0,0.0006837392667153215,-0.1395516909376153,-0.024990688280344023,-0.11548887972652941,-0.07005131806171948,-0.7166327940913135,0.30345498893436285,0.0,-0.004633627494337452,-0.19784631917604445,0.0,1.0031693687625027,0.0,0.0,0.0,0.0,0.0,-0.02633070231420508,0.0,0.0,1.1704890887659576,-1.3859442961074584,0.0,-0.5374611163636647,0.2850336815508586,-1.0632591782302612,0.8081716005684907,0.0,1.0165534263326843,-0.021827952177746215,0.0,-0.004511535503287724,-0.06772797843904349,-1.9353313228794051,-0.4335586486854304,-1.460538664926268,0.327064792774898,0.3746821052045324,-0.057770563757201195,-0.10030464334832666,-0.7007849481623596,0.0,-0.0530261857887612,0.0,-0.4863023740367334,0.0,0.1616807634781578,-0.1421238703088259,0.21032650159129676,0.0,0.0,-0.06319692108948316,-0.7639100782987788,0.14569924179316832,-0.017263520870080394,-0.001950409545034106,-0.4709192927339252,-0.03628123553407956,-0.001715059165388175,-0.4635684144857098,-0.016492095675101712,-0.014488005189904373,-0.0008908817326833459,0.0,0.27142393936252135,0.0,0.0,-0.0360888650410174,0.0,-0.20683055998311295,0.0,0.7339765095943002,-0.3941368375584767,0.06419758104079397,-0.4623234334231401,-1.6212808362135667,-0.05597364361854757,-0.02896235115075077,0.8222595320332873,0.12462116340827038,0.0,0.029311867281354785,-0.011382756797925298,-0.01110784582203472,0.047826828580385505,0.0,-0.15798942750260073,-0.04495473641292188,0.0,1.7102757539546343,0.0,0.3126102777496085,-0.26456391118958034,-0.028439132901855346,-0.008655090066885576,-0.1654069820967832,-0.02957463658801329,0.0,0.0,0.6656704301378135,-0.6895486089212961,-0.4256150466137233,-0.12139841897936661,0.0,0.6426952636257689,-0.0702955652176539,-0.26410729504636515,-0.3387797997075439,0.0,0.00996592229890635,0.07907203430263716,0.0,-3.5446902748570706,-0.037574308269895905,-0.19004140565582928,-0.06322750240179323,-0.3443989672431609,-0.060743825899526566,-0.10977806108634405,0.5411498359227662,0.03420751407460909,-3.2221969580712124,0.5907067407198615,-0.2119695372928325,-0.09736930922540167,-0.11083554879605031,0.0,1.3479974303335591,-0.057895543869258305,-0.6713718439010463,-0.19896919673822855,-0.013237377916850505,-0.2786079408894187,0.735608760031098,-0.12049935328477106,0.15217976419823973,-0.24068716939828963,0.0,0.04695817316077548,-0.0012784334087570283,0.047436591691835735,-1.09568982403049,0.0,1.2605276610783382,-0.00938778248205925,0.0,-0.10738407756634362,0.0,-0.3352576159759739,-0.008034869731199483,-0.002556717541730088,-0.012020394634473111,1.7876212008649535,0.08974299590057068,-0.08685623847857843,-0.09086916303982229,0.05927340605580205,-0.012833562754847079,-4.0949074874104765,0.07744751589416021,-0.4166961912725938,-0.10244226226017082,-0.4039841397836368,0.0,0.09681862896702274,-0.27403723065674346,0.18134648541310566,1.1875729577162764,0.003730357741512023,0.07181238928586432,-0.05038105476809073,0.0,0.1643954608911461,0.0,0.376005353819314,-0.07217014305381687,0.9405171552515412,-0.07633622368513418,1.0558664784620124,0.07182382024535441,-1.855119821968529,0.024013928126925103,-0.12199215454097054,0.0,-0.1372648152125871,0.0,0.0,-0.12028105868973704,0.08132790245395172,0.0,0.4972624705891962,0.0,-0.04838013003052194,0.3233109740151237,-0.1978864461217647,0.0,0.6898706586629121,0.0,-0.6776872280022865,0.0,-0.017620257041858517,0.0,-0.44903536412321376,-0.8612048958170458,0.008062163975811838,-0.006188158027565688,-0.169037890697599,-0.05530585508961848,0.0,-0.5802729486572461,0.0,0.18073764817948054,0.0,-0.5360551352543296,-0.3828959857569817,0.06682085568003171,-0.03436331309947863,0.10549045493852574,0.0006550523418308541,-0.8685638454778168,-0.017911737634000325,0.0,0.0,-0.44310094705590675,-0.014574098044086789,0.16434406171576268,-0.09840461682462341,-0.030288723303299184,-0.8169839622281648,-0.3046423016624603,0.09521707338964024,0.0,-0.17150421543376695,0.5763656518579611,1.2870794186845924,0.0,-1.0440574886747427,-0.21297090597471605,0.95078537819473,-0.42894902226944115,0.0,-0.10198449303175859,-0.07520867457538728,-0.20662794993807593,0.5144398228882651,0.0,-0.12883609100216173,-0.05409824946081537,0.0,0.0,0.7721151490173017,-0.008361508678181096,0.0,-2.454368137430479,0.2795864876574512,0.0,-0.08326905832029627,1.0250247071880414,-0.6367791907568663,-0.8494014249782893,0.0,-0.06743510115739267,0.0,0.0,-1.1613124676975715,-0.2221354503514515,-0.33955809903567064,-0.08458743355962729,0.3238827969166672,0.0,-0.07952495678786113,-0.03636542769389515,0.0,-0.9988913179265548,-1.3958089540275922,-0.029119108693180174,0.042739736310535244,-0.052627387711062214,-0.043830898580614036,-0.9365819414994065,-0.17249819204313865,-0.1604102495447986,-0.860324517527492,-0.05970751989869581,0.0,-0.36697144724941483,-0.015637144296409992,-0.052766797484166336,-0.02561813292184368,3.4497638770416086,0.0,0.0,-1.664021792546561,-0.07667595810275313,-0.07847926174986052,-0.229391197882887,0.0,0.10065558384275795,0.544569220232597,-0.1458617154589071,0.49720873409058586,-0.1291725438019405,-0.09597818871856506,0.0,-0.054699531273587204,0.09270848665459534,-1.2386052314038078,0.009159631715177082,0.20329784805386417,0.0011644917208237923,-0.9167626338442917,-0.6643677341847815,-0.0816556711041987,0.3848587956132336,0.9951826338726553,-0.08543125571500755,-0.009618055329938771,0.008065292133008885,-0.2208304162643057,-0.2619684516757456,-0.08197638765209557,-0.21328266723423228,-0.2646723991362677,0.2708449472949781,-0.026397922249938782,4.85205884252028,0.0,0.0,-0.014291421700165952,4.263472456376209,0.30694173266893493,1.8573969917530493,0.4190888182574832,1.3898122489672007,1.0367369880129726,-0.04570559595843974,-0.27115104284630576,-0.03289349386308179,0.0,-0.16119378826911865,-1.4070553132912589,-0.4729427322773095,0.026666181368353477,-0.5123524594687079,0.0,-0.5979030551520583,0.0,-0.25015874101798646,0.2223693962418017,0.02050900526278917,-0.22765462790630261,-0.10994270156943048,0.021075611630198235,0.0,-0.3405721975715081,-1.4639936857122482,-0.5783474889201495,0.0,0.0,0.7542854014825976,1.1271920666147097,-0.09277193972853695,0.26154035693970423,0.0,0.0,0.03358234316419715,0.1610566456251123,0.1745345955138757,0.0,0.2098749474947216,-0.2611858439061333,0.0,-0.2339065431867325,0.0,-0.39831120068239934,-0.03913062304042047,1.033982537817362,0.0,-0.5359629267209927,0.1751435915080519,-0.3108599596721103,0.0,-0.03729172649459779,0.0,0.3516396963241687,-0.7759040190640158,-0.04529868116842992,-0.17490807460380994,0.0,0.2872003573812071,-0.014571100102526257,-0.06735195442342912,-0.9113053202066123,-0.043411063542003525,0.0,0.0,0.0,-0.08269947980676459,0.40831916273015617,-0.013114796153028772,-0.004128902484057373,0.0,0.0,-0.010083736603422424,-0.21797185330917276,-0.03249892182132796,0.0,0.0378423734649448,-0.059596773102701825,0.0,-0.5909560444154343,-0.23172034295570595,0.0,-0.07247096962118635,-0.0017095915865603007,0.0,-0.05757947831987241,0.0,0.0,-0.24490673103151184,0.3186661959255195,0.06418272307637853,0.0,0.5284304720512735,0.05759101207073084,-0.004348369129669341,0.6014691078134191,-0.040480357293763425,-0.09294608601566814,0.06711498779638075,0.015569510108181969,0.0,-0.32572558302532134,0.034141816720138704,0.0,0.0,0.0,0.7643337161889372,0.21000035864080424,-1.2801190499955204,-0.11926775967459635,0.01287549003532652,-0.38115236993797913,-0.38073420297688093,0.04310307546067162,-0.053698538653149525,-0.002587943690650086,-0.03797550850812423,0.006676588516476203,-0.17571705447347763,-0.054516256748531416,0.0,-1.2301580466160469,-0.2854454291489506,0.2938613523228535,0.5047922319470208,-0.11991938802318326,0.10609242099370467,-0.562615721933443,-0.3077363989800893,0.0,-0.024956245915015458,0.06344361012706962,-0.25081649767226105,1.0245797844430429,-0.02177738588758614,-0.18228563212069882,0.0,0.0,-0.29289195624419484,-0.03767529457777521,-0.6413001080389762,-0.01149446105986658,-0.10044729075131097,-0.17788247018914266,0.0,0.0,-0.380744923544645,-0.41654355255479264,0.0,1.266924883822063,-0.24522889812696858,0.0,-0.00970465557678887,-0.028115486919235724,-0.06666303679369613,-0.003131483536317883,0.1049016543415382,0.2564188814777542,0.0,-0.28985068960511556,-0.12096269899624348,-1.5015603445042498,-0.07900213985963113,-0.2827858552180908,-0.2298290081260126,0.22384958544770542,-0.2578211179651772,0.0,0.0,-2.924593818350699,0.7056166312260185,-0.14066227858804478,-0.011388524136289673,-0.49671865467298015,-0.09900617667443508,-0.06859359713301655,0.08711313629796656,-1.2511959899375191,0.0,0.0,-0.13213886450354193,-0.10187180550828145,0.0,0.0,-0.4842171601255552,0.7487397792411392,-0.05091809105649115,0.0,0.0,0.0,-0.6315333427564382,-0.01760130823971544,-0.01825936116231587,0.0,0.0,-0.0787913346214196,0.0,-0.06027276473667717,0.45294814348261037,0.0,0.0,0.0,-0.5527352984285075,0.0,0.0,-0.011023975068201764,-0.0020370960568684184,-0.26107454733766167,0.0,0.0,0.0,-0.37180350551217317,0.0,-0.25197852491510825,-1.0667420964433016,0.0,-0.04039874025541442,-0.07827361560558126,-0.28380781020308643,-1.0365511784227168,1.732106057987971,-0.05272680214628219,0.0,-0.04244158659521817,-0.37960128455852477,3.13281834099131,0.0,0.02542376263664416,0.9880519153402874,1.7613173898502261,0.41311753953438557,-0.2978660744537873,-0.16276404834398475,0.0,-0.2695673709890776,-0.06709423532631965,0.0,-0.20586823609968344,0.0,0.0032353326454505832,-0.4711457029225362,-0.0007261264354874063,0.006677521854731066,0.31030286425454795,0.2453418561393102,-0.05416728719998528,-0.057582972214539924,-1.3264653936911919,0.010409994902422344,-0.026400155448809148,0.5056259559796977,-0.008263055630111548,-0.23929673991137926,-0.037574308269895905,1.8294637301547305,-0.1857580722333299,-0.02778931784592117,-0.2838297578503418,5.747727808838209,-0.006002979153142901,0.49271334172207826,-0.07983896182216163,-0.388999183205436,-0.016936918473726824,0.9679670041791522,-0.0026192325462029206,-0.00410044357572065,-0.5221133767637439,-1.1705133198547537,-0.014993465069113891,0.0679726619214947,-0.08398318082496052,0.0,-0.052542055742898594,-0.5285892308433786,-0.2016877332805878,0.0,0.0,0.4023747743811395,-0.22747743706443857,-0.35159169297386544,-0.07192538952068868,0.0,0.035940213451686714,-0.04304374852623339,0.0,0.22348406473598417,0.25505457877090515,0.627998009165509,-0.24033996959472564,-1.2577938915103444,-0.01744807252012902,-0.2884902406105138,0.0,-0.2936006365976047,-0.6112624117171382,-0.44939508182533006,-0.009455607988761024,0.0,-0.004350970368478089,0.0,-0.3600276982448527,-0.15703011300256625,-0.02516351386005335,3.2888504160881404,-0.9307670353503047,0.0,-0.4400750431903182,0.25243675994356485,-2.7788641552354862,-0.007074554678307756,-0.019720628098722572,-0.3338630453751596,0.6066946820604554,-0.1264815483272581,-0.7916302076021834,-0.9299009042989103,0.0,0.22488570366717672,-0.8726904564924448,0.0,0.03234545734326036,-0.11627895258282282,0.14652445510417222,-0.457914310890756,0.0,-0.20893370758961746,-0.006141235728101657,-11.834000416711149,0.0,0.11633583454373614,-0.6037561911960162,-0.7626682616792122,-0.052481724745260326,0.6975611602929681,-0.9736107799350124,-0.09387815016787868,-1.5564192159557309,-0.10368705333177373,0.26738942090152923,-0.07318525888805341,0.0,0.11431332540444768,-0.009866881220869796,-0.03563375399581849,-0.18489607056072974,-0.022293085663591172,0.0241966137396694,-0.02313269397282746,0.015562198803493556,-1.3364617627609967,-0.00500114481723384,-0.4899352332315589,-0.029279539086199437,-0.45248173933452235,0.0,0.0,0.0,0.0,-0.1686583425626098,0.9072187134582287,-0.011728105562334418,-0.5937050370478797,0.0,-0.07780224659501596,-0.6895635887435075,0.018284575037871603,-0.002862931550551459,-0.6439578476468414,0.0,0.10913480721754573,0.2216939311022592,-1.7743028778277241,0.015452814111722446,-0.8486565472139689,-0.4514838348048041,0.36895004352540517,0.0,-0.01571487370305763,-0.6528266319406031,0.9206851753426502,-0.3106614226307921,0.016956687545269168,-0.11293940067295065,0.0,0.0,0.013298276715291905,0.35509117721008626,-0.8731583792405215,-1.4305364536894571,-0.1442336058149575,0.0,0.0,0.0,-0.10671460927523178,0.0,0.38151523515773816,-0.07219985173161793,0.0,-0.09057269217032782,-0.0732899300978878,-1.1715110626538172,-0.026573930540372295,-0.044458817167127254,0.0,-0.2828010493192216,-0.12399181983021205,-0.058535451826216396,0.32214221338503657,-0.4502528211156383,0.2978508902281665,-1.3034745339462273,0.09604344812959305,0.0015762303981300214,-0.15492978947934002,-0.023152946932635865,0.2092129171824629,0.0,-0.06064460817726277,0.12321552208311908,-0.001516705680922676,0.0,0.023773070404176855,0.0,0.15122670338711006,2.111367737537632,0.0,-0.010139729740773273,-0.059192936055599374,-0.3683686025076783,-0.2488438468663043,2.224873251212066,0.0,0.05945696488559932,-0.1340785533093527,0.04110768628442043,0.0,-0.050572059911104056,-0.4801382176078701,-0.0549255545057325,0.0,1.2420022119577128,-0.4527394064290809,-0.15868009980675302,-0.03453888923310664,-0.3003965506453556,0.07181260683740265,0.038755908490082654,-0.021313637657468056,1.8848635118595327,-0.13021825698701472,-0.02520247306923795,-0.14553973402544657,-0.24667467434662818,0.0,0.0,-0.08568299768056073,0.0,-0.11329173449608695,-0.5945856683840985,-0.058812192624657526,-0.04507194979016331,0.42485985885553623,-0.0030761280867277595,-1.10002991215969,0.0,0.0,0.14403222679695457,-0.2569313199493434,0.0,-0.1510772185873278,0.0,0.0,0.3697450063639882,-0.08610176399679448,-0.43464264633652444,-0.012934999206604583,-0.31138770497323615,0.33982248735862775,-1.958312162815123,0.07983809545226353,0.0,-0.027585280933439826,0.5966782977807022,-0.039935135118655686,-0.15803641302406185,0.025805831117058246,0.0,0.0,-0.020353885899646842,0.0,1.4550439645832922,0.0,0.037284727640486445,-0.26385266735212143,0.022797975586038303,0.0,-0.5044599552369422,0.08414968726909314,0.0,0.0,-0.18398889418778058,-0.01516658074158735,0.0,0.08172148409401586,0.0,-0.015560418730355775,-0.07736582825294193,0.0,-0.0010455747242261284,0.0,0.20181703881642166,-0.0523444752404157,-0.01918693290953497,0.0,0.09395443044900442,-0.15585272338377687,0.46356321974084047,-0.4084093064989371,-0.2360980770169261,0.21130954264653046,-0.12131178954234724,0.2905353536495873,-0.49605498366032924,0.005500208627116518,-0.00500114481723384,1.1647385947511872,-0.21417096457185486,2.2195936327482353,0.03657584352236273,0.03876129984496758,0.0,-0.8561317984853528,0.06825959709055392,-0.033155062169546834,-0.05454155035313687,0.30179847997294534,-0.4823749313674124,0.0,-0.1338320414958485,0.0,-0.2894206521999773,-0.022551897898885974,0.009328536332436257,0.0,-0.23965204455794759,-0.06554254853813282,0.0,-0.19314899318038145,0.6418900437394482,0.5193402831525389,0.0,-0.006581454434992813,0.09746936919134389,-0.022465077550829694,0.03114087711162672,0.0,0.11164862129316419,-0.0030556037603066614,-0.2257661486249828,0.01233527017535335,0.03745061974941056,0.013035199922795612,-0.054668405263931345,0.08384419402676821,0.12824360746912689,-0.06189781291793612,-0.90002729452236,-0.006086750421937532,0.0,0.0,-0.3867290597973765,-0.041312102002539174,-0.026564506865336325,0.0,0.013508677690153383,0.0,-0.3030586891567524,-0.406214449060106,0.0,0.0,0.2925545909544406,0.12139612180168613,-0.23149672378908984,-0.01552874460393154,-0.020281367037029305,-0.056466277404968,-0.07318933054739468,-0.4392933856275734,-0.17454400192592706,-0.0762658634004199,-0.031557491071994244,0.0,-0.1187781038994848,0.043383937339410795,-0.14504186380505837,-0.04993358731392808,0.0,-0.8127526126971818,-0.9391096125413462,0.0,0.0,-0.04877377132288164,-0.005823630623036713,-0.005444870648768122,0.0,0.15777882513667207,0.07504261782748774,-0.03567480526049172,-0.0293160182946885,-0.0038434341665257946,0.6128802078163328,-0.19672684149480993,-0.18777487374972657,-0.03799647137972659,-0.17519764774500826,-2.960609176601105,-0.506169124522718,-0.009716612103518641,-0.6479201768541856,0.0,0.015673644066925542,-0.5219461615415055,0.3117800298979141,-0.5181553070028629,-0.06811581119212816,-0.08190021706049108,0.0,0.0,0.333991298339692,0.0740509002726757,-0.2706718351253058,-0.19166990866685799,1.1624942236611686,0.0,0.0,0.8926687860059407,-0.0725258246886353,0.12687198472104722,0.4296746071356695,-0.1417048875056603,-0.17346435111494876,0.0,0.14414356334998768,-0.10849979420704756,0.0,-0.08230871017784167,0.0,-0.21265895798072612,-0.044624991975219984,0.03593357560222019,-0.06605906720218975,0.06085151834526249,0.0,-0.5632886495429862,0.0,0.0,0.01372226346866749,-0.04952149995199672,-0.02627429654580953,0.0,-0.024990688280344023,-0.061972384073794726,-0.026054911556220042,-0.00765598099289397,-0.4357949181898574,0.39610940674810957,0.058112535278595535,-0.010265981364711732,-0.4534453484639706,-0.17282566646526185,0.13730222310631396,-0.022348526439956343,0.0,0.19170433442238322,-0.1461659561793574,0.04817077724638164,-0.7715229947769853,-0.0898609572054624,-0.14038607418833293,-0.005275117587644485,1.2052957142380476,0.0829459457937245,0.45507142495824693,0.0,-0.02036248290618444,0.3758860461380174,0.0,0.14860143178012764,-0.0045363070814449895,0.0,0.0,-0.16596424479450028,-0.03345884180207663,0.0922454500955064,0.0,0.0,0.14507829948857634,0.0,0.13460201685701279,-0.07300788180586043,0.2344586115846247,-0.02230398625956501,-1.2639278096195339,-0.07016578011987029,-0.05937969661763505,0.0,0.05244584814393554,0.0,-0.20402344622588275,1.004199496952835,-0.019163667842692845,-0.42658456220823004,0.0,-0.00961558216595776,-0.007698327214712319,-0.01034445917350937,0.17870891723660898,-0.07546508108188492,-1.4767789289003874,-0.10780250349809122,-0.057725186263998834,0.08596375258702128,-0.1305176625484209,-0.006491643177088665,-0.0862521646416175,1.0320759062817437,-0.7158153831386261,-0.02266367534449019,0.0,-0.07353462520564112,0.0,0.04373195292031063,-0.04301490688695954,1.939923995613931,-1.0403855421900787,-0.011480041267477899,-0.5311086624039975,0.0,0.894730444817694,0.28147745429901694,-0.06902484431126338,0.06041583986422019,-0.2574057670168104,0.0,-0.043996882116780656,0.02971107602170476,0.0,-0.03947772881163676,0.0,-0.167438102772641,-0.2936857732464203,-0.005340799205295649,1.1422663779302136,0.7122518780738937,0.00993090791141974,0.011810024717822446,-0.011959767389767126,-0.8831394509985113,-0.13693036172428874,0.0,0.0,-0.23068299239916087,-0.07703744119746221,0.02439175696506696,-0.025861300244570888,-0.10762560879373614,-0.01647444481821433,-0.24747110195040423,-0.009499391341606218,-0.0008564956368046528,0.8392127039122435,0.81157254720843,0.0,-0.023458340995090185,-0.015892547457166936,-0.10900433065159967,-0.06585104616241634,0.0,0.3656563844247194,-0.038904858444078726,-0.5935408681193516,-0.02989644074378834,0.0,-0.27844803121593675,-0.00410044357572065,-0.7151015784356102,-0.3190445566367874,0.0,0.0,-0.14443172011614644,-0.6122020039674134,-0.19353983494742408,0.14701709897785534,0.5530450888181918,0.0,0.0,0.4010644647343883,0.033723597859022486,-0.14199208446502098,-0.048722776604334134,-1.3648564692536846,-0.03424816755486034,-1.2137060777028406,0.0018193493135364204,-0.02507554015209094,0.0,0.0,-0.059749364641980475,0.0,-0.06960376590721955,-0.09197981220029598,0.8896462888896998,0.0,-0.07085506818077353,0.0,-0.011953290919648104,-0.05527168609529055,-0.01172619898412717,0.2151838111811975,-0.03657661986497111,-0.03985546881391681,-0.08855086792820274,-0.05652968989288436,0.04144069173945968,-0.11950021123736355,0.010865249983868626,0.06477741985960751,-1.255735292285533,-0.8468802386888542,0.0,0.0,-0.07387423309297668,-0.8859022640872681,-0.12689147334121698,-0.3633057116910658,0.0,-0.06344613106439584,0.16612994211677132,-0.12370790903232834,-0.08708723425716344,0.0,-0.07908460292887019,0.0,-1.479628136134416,0.0,0.0,0.3480771759138954,-1.9969298597958116,0.0,0.0,-0.31440049991094,0.0,0.0,-0.004936581186203881,0.03380126907012558,0.0,0.0,0.020106570613530057,-1.1556419585495832,-0.23474581333500072,3.4256141629355055,-2.0836476835939637,-0.6416740847318337,-0.11162490719632132,0.0,-0.011137832435763174,0.0,-0.4636080922359451,-0.2972911266819426,0.037560862681710716,0.0,-0.0014988468080922802,0.0,-0.25685741862987527,0.0,-0.13857768493858907,-0.2876233966127121,-0.035982645268940336,0.0,0.05561858651359133,1.774828428989144,-0.13544708284399282,0.015744239134154032,0.18074870062335718,-0.06822835002790215,-0.08865605940319429,0.06654390912080141,-0.28721461886666655,0.0,-0.1943972782292775,-0.8918593982712392,0.0,0.19479434426922348,-0.2612140973141738,0.0,-0.014733461291746873,-0.8487415627782661,0.45902865644323293,0.26811229342761767,-0.11594828368336212,-0.1229460098615984,0.0,-0.008362844108527761,0.0,0.0,-1.8451770405483756,-1.4208400949868927,0.024398831062092306,-0.016268583210539925,-0.9691658908401823,0.6448253688216248,0.0,-0.22891090262332423,-0.18544598292992104,-0.1347802297357032,-0.46804072588402107,0.0,-0.06382665474318852,-0.023308741030307212,-4.109033842428942,0.42266233948637294,-0.5975979740884447,-0.05494855479553537,-0.35040086746495347,0.0024682653038983204,0.10436026037089194,0.10624825624394715,-0.0013425138613101697,-0.004093273898550192,0.10491815708109023,-0.533521008039402,-0.17771793871878921,0.0,0.050525498883312994,-0.00975820212730319,0.0,-0.172387617410471,0.0,-0.7223927546760408,-0.03546810298706523,-0.6039537008840137,0.029428700378038148,0.0,-0.006447526598619548,-0.026706369938702523,0.13851725050389724,-0.020527906047673187,0.5311336501207508,0.6142959760215331,-0.015808739397319603,-0.0010749631294052235,0.0,-0.018586039159142084,0.0,0.4452325930744593,-0.19234948062641377,0.0,-0.38705781974337905,0.0,0.0,0.40983224442554916,0.1528226412016993,0.47069567356510095,-0.3966968590839431,-0.002805353605718096,-0.005575447958622689,-0.00788146666464642,-0.12369291115670968,0.0,-0.03688728976260947,-0.3549382607764699,-0.10305609800618895,0.0,0.0,-0.17881777302488627,-0.21988930021040984,-0.24194562153033888,0.0,0.058481176433285924,0.8268331314590756,1.344615834373497,1.4864877039419513,-0.06672066892793549,0.3887990282399854,-0.04225510705854316,0.7764186165243359,-0.28555970217710397,-0.5185982021392059,0.016772700387917353,0.0,0.0,0.10396641265247984,-0.1517476563752894,0.0,-0.5994691386734888,-0.019806935767515122,0.11730241605964695,0.09404948284906867,-0.13310110788897778,0.0,0.0,0.13772081244076037,-0.31331859912693333,-0.009630429562462205,-0.06682034158443272,0.0,-0.7131554756010288,-0.21443426306955957,0.0,-0.5643297336476618,0.3678384930519482,0.0,0.2664390946123895,-0.018829041196304578,0.0,0.12300244433726507,-0.05676563477980256,0.0008772431704996075,-0.022727235721150027,0.006643201331033038,-0.03346275779752797,0.01576350185321785,0.08605723234052166,-0.048056010746968865,-0.7842011019264116,-0.3370413645259735,0.0,-0.02807237295805523,-0.674102435220949,0.0,-0.059912184174005116,-0.004870999014139678,-0.08807881812393104,0.3674516914415894,0.0,0.5067354210771179,-0.4932374625585406,0.7034684856420187,0.0,-0.046995788529722936,-0.6707486118014466,-0.07968310392865935,0.02623479169758714,-0.05597364361854757,0.02991831616933916,-0.6171954986050685,-0.07179741055748484,0.0,-0.0747792914920904,0.7475912820215583,-0.08925679334659373,-1.2605674489292753,-0.10543254297990531,0.09353880635025034,-0.03614225607168349,-0.03417726728527362,-0.23103077133718783,0.0,0.021081766307116775,0.17272194703673785,-0.1546055098124323,-0.6206204328133348,-0.0921907467699473,0.3725358475243328,-0.20216813976066436,0.3714960195687571,-0.14987588692209683,-0.1599128503823041,-0.10900296142646498,0.015178777383016236,0.016226972986406914,-0.20516643146609967,-0.0002622182569930894,0.10158326128901093,-0.04936800184137264,0.24213349724407815,0.0017738767431790818,0.0,0.5224033603020263,1.5443770595944857,0.3553728210869525,0.9527859560633858,2.0444887162351337,-0.052156645341578226,-0.060046052760961234,-0.10139041419606275,-0.05018401840142439,0.0,0.13230841740723714,-0.1761968413234621,0.0,-0.018266954078550144,-0.4909424685028532,-0.13255177234705773,-0.2275175184802136,0.25381473071944327,0.08711716423702943,0.2904877781755031,0.0,-0.04690556205452075,0.0,-0.052876965166379845,-0.33385214269028285,-1.4231565087694444,-0.4093923078433231,0.48816618012127777,-0.1298134639181162,0.0,0.10480361381542436,-0.27538713893060346,0.0,-0.269702279033369,0.027407267563379432,0.1836848789140566,-0.058949687829493384,0.4145027280497092,0.11073075499263965,0.0,-0.15790531633681132,-0.023816167833840992,0.20839274800702645,-0.2644940933428105,-0.0031417787542656183,0.15153468789102065,0.0,0.04809459756560891,-0.7399023899745283,0.1209349592976784,-0.045046645666967394,0.17621786332551076,-0.11577852595248972,-0.019472302921861053,0.0,0.07135698581685486,0.0,-0.22406276493405977,-0.04597144258773815,0.0,0.0,0.2853040030883433,-0.038532063074157276,-0.42224049301056343,0.0,-0.41157429079419033,-0.20883957704584563,-0.010888008038742108,-0.33405710050206355,0.03081234596415526,-0.01474834057390021,-0.7616831133553361,-0.4569999405028553,-0.008129112773766854,-0.006982626807794232,0.30053507235472754,-0.13390167938424447,-0.03656083669708596,0.0,-0.033481468879814166,0.15615292799720215,-0.17052154939619618,0.0,0.0,1.424216057918189,0.0,-0.016883087554834537,-0.01035638525153995,0.0,-0.04910099314966523,-0.6769191728483611,-3.4212763066557623,0.970448147058994,0.11056747677511432,-0.24525252820107435,0.0,0.0,0.0,-0.05676563477980256,0.5885238336818791,0.10823015905035553,0.15976255200116582,-0.4272374366500117,-1.7677383751330977,-0.3224859014549404,-0.5673505694993709,-0.27643783888865414,-0.17223242054549498,0.0,-0.057985247390988946,0.0,-0.0036956135663550396,-0.1194001206970308,-0.7537963049836204,0.03800802224319878,-0.017142042616210298,0.0,0.0,0.0,-0.26658066375750755,0.03475645754598296,-0.5022477493697869,-0.07559110621217867,-0.19306336843219685,-0.6936418846236649,0.34129093430348134,0.0,-0.5264381869274661,0.0,-0.2666908834335091,-0.1148497180813178,-0.015939644567358704,-0.30896845313730253,-0.04087173226134806,-1.098968367801154,-0.12819776768962285,-0.3713072442238863,0.21629110451478067,0.0917720779726196,-0.43902354300905855,0.0,-0.6857740458221723,0.2501028930106959,0.0,-0.01190232718992893,0.19477246180344326,-0.04279707993113163,-0.5485724343631944,-0.03407824340145492,-0.13687124265411993,0.3587988742242994,-0.019222616969943263,0.13398648351465275,-0.0066121000694826975,-0.37607183050391524,-0.07041183562333361,0.0,0.016936976216444567,0.0,0.0,-0.12093883732829887,-0.07421177175992426,0.1362550267885102,0.06397056690160263,-0.3172814590330652,-0.041588492652665426,0.0,0.0,0.0,1.4136917727242946,-0.498905478316578,0.026893251761657064,0.10262036467401457,0.07190336127238711,-1.1819021482823564,-0.26419628557834296,0.0,-0.13081426600419407,-0.0005541592380049886,-0.2044018023675711,0.006826100621349074,0.0,0.0,-0.2465282154700779,-0.4978754226607529,-0.017911737634000325,-0.41160568110265305,0.0,0.4339103121525943,-0.05203438607252389,-0.6503252197442737,-0.5310666643921403,-0.8760450356459508,0.0,0.0,0.0,-0.4062558740355152,0.09959578993563024,0.8866276200156326,-0.06638780407975593,0.0,0.0,-0.02846173694186165,-0.37599508892572875,0.0,0.0,0.650281062391913,-0.35141427069470915,0.062446895731086374,-0.346691635660902,0.0,0.060984966458306124,0.0,1.647078316483627,0.0,0.0,0.0,0.04255323667008311,0.0,-0.011809453454078793,-0.9936774286180218,0.0,0.19532248938491154,-1.0953148240703705,-0.05063982393877738,-0.13956700293087562,0.0,0.0,-0.682989952076507,-0.006168928322646316,0.0,0.0,-0.8537427678518901,-1.7241324104667501,-0.09002292364636699,0.7744276066195873,0.0,0.20068860358435772,0.004471853514984334,-0.21717667306159621,-0.06551512812742102,0.026622766669700842,0.0,0.0007494050423253156,-0.32280966529569016,0.008906802723052236,0.0,-0.09065739566190154,-0.3477309147419699,-0.029986916979777675,0.011493445915862169,0.0,0.0,0.0,0.0,0.0,0.0,-0.010263147347123084,-0.23212017879735747,-0.43287873711538405,-0.1709752128098832,-1.1445824626850916,-0.027467582004539696,0.0,0.36697124802470454,-0.33816890876325867,-0.7479806430197298,0.0,-0.2216530104241696,0.0,0.0,-0.02443425209708201,-0.7324608257967187,0.0,-0.07592440296996336,-0.001139873026368374,-0.04338280704171252,-0.1273114396710397,0.0,-0.19621142888679308,-0.15192054080214107,-2.4530395519306163,-1.0217954627016281,0.17821502393271246,-0.0010095016223577548,-0.007593042649502619,0.0,0.4424583967320541,-0.4503989716118797,-0.011007802911249427,-1.4821639695654387,-0.2700525157069857,0.03938916060898522,0.0,0.014831799301531737,-0.32160793640564517,-0.06859285152489597,-0.22509421862839,0.13722931339763642,-0.1724255801350514,-0.0478759922475344,0.0,0.0,-0.1054974115495797,-0.11667990830850354,-0.01476400802000097,-0.05890575145029751,-19.309549420898335,0.0,-0.04481566412816461,-0.16765662529152278,0.0,0.0,-0.09761514122201376,-0.1567680301399768,-0.6605087920437972,-0.00280686430805048,0.5233721822397048,0.2148475170650563,0.0,0.5254634844598589,-0.0014116145389175693,0.1376376136810339,0.022577101454613484,-0.2701915236985137,0.0,-0.0580942198820034,-0.0033380157964064652,0.0,0.07366711168930974,0.011025039130723637,-0.03537894751729071,-0.027729159186072303,-0.5521287924881034,-0.3567971605967781,0.14916542941983935,-0.018274689940824318,-0.08571625816346652,-0.12578896202335293,1.2611879912236155,0.0,-0.18545683672656343,-0.15839437978993687,0.0,-0.03287994616622374,-0.03322836083200032,0.8524378097418336,0.0,-0.3265223792748325,-0.06475163173982629,-0.030168997964625546,0.4070899014172627,-0.10761247953181043,-0.12474158298229453,-0.1666436075368852,0.2867541705689016,0.10944873385558432,-0.023323312855548384,0.0,-0.0584133133613086,2.5408103117560485,-0.5627772755396483,-0.0774731580877892,0.15105447343865624,0.0,0.09432054294275458,-0.015195167470095168,-0.028347208648088415,-0.00307334801855541,-0.01432418598044903,-0.36577483904161995,-0.0008294662350774203,0.0,-0.1367945770126654,0.09944469531676994,0.0,0.3787087832860867,0.035866295983479984,-0.0849495794185024,-0.3509215222577222,-0.002771501078891213,-0.04755744179527008,-0.4945488581179247,-0.03598685099151286,-0.34422220133742887,-0.006065305343861512,1.478554727312351,-3.793707633341232,-0.27508451705590936,-0.06087393948132404,0.17515235036402155,-0.28921827732186556,0.0,0.28619786037860473,-1.0156780032506145,-0.0012505767465418858,-0.1922542397506215,0.8070538779497293,-1.7810495161029771,-0.4600580633811145,0.0,0.0,-1.0778850716925512,-0.34339902102900527,0.07205862763415803,0.0,-0.02526872542995122,0.3004408866246403,-0.8906289091402503,0.0,-0.2626457758034794,-0.11428161631610992,0.01697962333611666,1.7552648362454946,-0.016424607887509886,0.00654626283510908,-0.03219474646373085,-0.4452239410190177,-0.39367568904798445,0.12375940816481386,-0.5403632957518013,0.0,0.5676893345882927,0.07581365095565755,0.03092243412516867,0.34107494343571876,0.08370095251417946,1.3099003699124714,-0.5375639555375331,0.25490088076629297,-0.012658736061169877,-0.3108514611410615,0.0,0.0,-0.5170367389363599,-0.8139125210875011,-1.8287233494253128,-0.3712203274098672,0.06096848761523111,-0.17348150461217401,1.1158868500203074,0.9891968042464235,-0.17878471082219824,-0.2737209679816185,-0.8610477102502792,-0.26999812478843466,-0.01727877118930842,-1.1608969459585428,-0.8179951864294296,-0.08302831084285009,-0.22018045723315957,-0.033602494482710514,0.0,0.010629730943210928,-0.24535267383314557,-0.03621779764874951,0.0,-0.17162439931811807,-1.3195820590332774,0.0,0.0,-0.08551859867329001,-0.136477964785699,0.0,-0.0019807837270528067,0.0,-0.0913469505021513,-0.03639972650602219,-0.07252314559448607,-0.02226138021014966,0.4199112435990866,0.0,0.0,-1.368034381456517,0.4924194308506713,-0.06788653912250911,-0.04773784803184843,0.27359112534069957,-0.16933935779372666,-1.9327967179154653,-0.08355356168276078,-0.13963737220198372,-0.3438391914798232,-0.04935792242893878,0.1732920591947753,0.0,-0.43299384906177735,0.04818864006864397,-0.2315777423619699,-0.09309736436747627,0.16261193223585607,-1.8010842356530508e-05,0.0,-0.036911894077349044,-0.3024576401286395,0.0,-0.032501281484917814,0.16669548683812047,0.0,-0.0047172189656263215,-0.028551324791232405,0.10968266409595284,-0.04234291898271406,-0.1476145513103184,-0.015363042911248962,-0.3868555948384028,0.0,0.0,-0.004131418513951467,0.0,0.0,-0.07579002511365325,-0.1659957901613578,-0.6356818608639662,-0.4954355178051529,0.1244028914875723,0.05261240251804289,0.10682585342888314,0.0,0.02088369267073137,0.0,-0.04949683664898735,-0.03290041717299165,0.0,0.0,0.6444495993139651,0.0,0.0,-0.19052092432940398,0.04969031399854538,-0.007067143861504126,-0.2360703383053399,0.03199539943739705,-0.35042001152675145,0.14316561548302612,-0.004870999014139678,-0.6308338066590913,0.0,0.0,0.1512616258119528,0.7196656929158717,0.17308156135108727,-0.030710291661252297,-0.022832525919429913,-0.020168224968158323,-0.9270287149683598,0.0,-0.06606491238271091,-1.8091749672281021,0.02000528608640173,0.18693257160250545,0.12391046239822699,0.0,0.0032530514622340794,0.0,0.07468590668849794,0.0002669334556809691,-1.7541818757177337,-0.1058809760733791,-0.3726227499459155,0.02157436383645803,-0.7533430330434581,-0.35169790572255816,-0.48150857201242386,0.9524119895338036,0.057972911438437164,0.2976045971839005,0.13277932199321238,-0.12309519288348655,-0.0013179789173207077,-0.01409639757530049,-0.17799288276000386,0.4545383943966622,0.0,0.0050408763977334795,-0.43470112809429007,0.09113071574217958,-0.637566867410356,-0.2860728034143795,0.0,-1.6586722284627085,-0.1379675004065563,0.0,-0.04606401256605929,0.09959570001851446,0.4436411659449143,1.0213304579392737,0.0,0.0,-0.8143320555218756,-0.05731655162622503,0.20823905571838958,-0.6767110313439316,0.0,0.5387992610614827,0.0,-0.26320750759561895,-0.043812136231275445,-0.01232663816629217,0.0,0.5022680676748384,0.0,-0.3054750467492963,0.06729147888578818,-0.1087842568170951,-0.23928504994168118,-0.19345140422864215,-0.03005114504403509,-0.7176475710614443,-0.7097489407187204,-0.13634148391612913,-0.03770760708689993,0.0,0.0,0.0,0.0,-0.03615446002109143,0.0,0.3912299134939981,0.0,-0.007061598831870578,0.02671927535553743,-0.39475369972598073,-3.6591637419923893,-0.1431283972734527,0.0,-0.29315184717464354,-0.11723162241771289,-0.19269148020234753,-1.2176739855522338,0.0,-0.32151788565552447,-1.0931010367693572,0.0,2.468032508268392,-0.12119585837947477,0.0,0.0,-0.0923598961416298,-0.013302819783458996,0.1742355402908466,0.0,0.0,0.0,0.15694366234830628,-0.24862152092397186,-0.4332060363538422,0.21936183565540926,-0.12220399674035694,-0.03953744936476579,-0.343022588032222,-0.010838049023110984,-0.06386653879481313,-0.02656337317943588,-0.022755088043287998,-1.0430907716451008,-1.0751872138850451,-0.011778249434274348,-0.05144342491908525,0.019792499545692455,0.0,0.0,-0.1024853550543359,-1.1938588235774779,0.0,-0.1975842448940272,-0.007859225948737178,-0.004385969089557031,0.15146583545114853,-0.07829460537526352,-0.44054687172234613,0.019778374329917064,-0.024990688280344023,0.0033064042467543086,0.03277403834578762,0.0,0.0,0.8785716681258803,-0.07463095215733566,-0.7975425924307937,-0.05113034673230795,-0.11648829600885492,-0.02867596741476515,-0.44993706455801963,0.0,-0.0008035825265426343,-0.4246569655769334,0.08146110108807778,0.0,-0.07317151120948072,0.0,0.005348221625082489,-0.40070808057781515,0.3107357012607802,-0.8125769490864984,-0.27521810626482773,0.1492282726671231,-0.20915056592244555,0.14580503954165264,-0.017067684043134548,0.06427961494222942,-0.282357118950679,0.4521193609787587,-0.07516386813662204,0.4344182697451478,1.0734286909354946,0.0,0.04731444878857559,0.0,-0.04518015367409986,-0.40739789074745886,0.0,-0.04413599170672772,0.11305305749047129,-0.030277884573544894,-0.06456112721882695,0.39389938648060235,-0.2340167709045509,-0.5806104327923959,-1.305153100527108,0.8035213236868085,-0.06814279946782742,-0.08982233810282428,-0.28491345135658197,0.03789926523147236,0.017098572595402612,-0.4909789969556373,-0.9770082948301908,0.0,0.007190929174268147,0.0,0.0,0.0,0.16710933574567752,0.0,-0.05827744551743338,0.33095595814040085,-0.1528699104485509,-0.24107041703433812,0.8434652061684099,0.2239181465220658,-0.0542728747692817,-0.2312139615412216,0.0,-0.02124026843778968,0.33359658162335276,-0.06764484565274193,-0.7567804520912641,-0.0007510013808913999,-0.004019485834127764,-0.028879117150153677,-0.04791996983675395,-0.6375929445699094,-0.2496890664593841,-0.30879799722528606,0.0,0.7636245821856571,-0.3557053399933177,0.0,-0.6362852883355462,0.0,0.0,-0.8859116396194872,0.16891797387347782,-0.0766739005951867,0.027374799020143253,0.9624889882251064,0.0,-0.11887472510535038,-0.33693839256551267,-0.3722481396041249,1.103937425028613,-1.4081496243333786,0.07053862356105702,-0.007758058550740502,-0.16375492193391708,0.14377389825687942,-0.3038277136494438,-0.06850755391563647,-0.3257978058709367,-0.2074798636465907,-0.042448152526290195,-0.15773834897934627,0.0,0.0,0.0,-0.010909508556039877,-0.24863053149507536,-0.5610003677559509,-0.03182055249578247,-0.0030423709856358277,0.0,-0.2237925000346884,-0.07851514099796984,-0.3366204207959912,0.4193271427421111,0.0,-0.05584874916394283,0.07040964085047664,0.24181717108346246,-0.05676563477980256,0.0,0.0,-0.03623275004692154,-0.0407058239541959,-0.7619946742857412,-0.08070849736272209,0.17141572427957597,0.0,0.011991145141573076,0.1703122318159578,-0.30358081924438723,-0.10195537350988372,0.0,-0.0051657616792945785,-0.0068068217488945785,0.0,-0.15466105741387817,-0.003581465326019588,0.0,0.0,-0.03714394395022695,0.0,0.006644787295825319,0.40868026452457173,0.0,-0.23242919870917372,2.187664721269959,0.0,0.0,-0.12544990224376382,-0.13062953726745977,0.07535623594903645,0.659389469355905,-1.0071163442292943,0.0,-0.0009919624972428134,0.00312546206644748,0.22582012319933786,0.13812522628700505,-0.1263423147931517,0.0,0.17645879109189633,0.00017663937744778182,-0.02333162279527698,-0.0008524172438090308,-0.2093687626975263,-0.3859404532846006,-0.334559422724059,0.11970095609123285,0.0823625332647483,-0.005470837215721831,0.0,-0.014889476183350682,0.20872364476801386,0.4198561253530596,0.024088654448840105,-0.009068673093117277,0.07042967499797306,-0.3990649176399174,0.030473203581626494,-0.251654883954859,-0.2666376835566404,0.0,0.5282899251536647,-0.17070621928425797,-0.4043880362009361,-0.3113898133499388,-0.005762086996074657,-0.0359029550471834,-0.030755439721537162,-0.8786288036783548,-0.09986070059011067,0.4246831986149236,-0.2501223074081454,0.0,-0.029628019752227407,-0.6344349745312179,0.03557777265100816,-0.05148981760932708,-1.4110264562086137,0.051300827715940744,-0.1976144461876835,-0.15693816397348057,-0.08773850155060374,0.0,0.0,-0.08589511165805469,-0.06423527282329011,-0.1832124769448017,-0.16137393301104844,-1.8423852703805856,0.0,-0.5988171672784631,-0.04665615803300975,-0.14674762693651278,-0.09071732606854324,-0.1388138363511932,-0.4985836388795718,0.0,-0.03182272537334106,0.0,0.0,-0.054156079136017714,0.0,-0.01592307587334264,0.0,0.03609197406120027,-0.0167474288677423,-0.5209447959839301,0.0,0.0,0.09325155425498667,-2.225540331565904,-0.44266950436365443,1.2094003938398925,0.0,-0.08149035643814234,0.1278917728542586,0.7408632903836826,0.0,0.019123780952267664,-0.01211660820066927,0.37859127597914366,0.4002580405699939,0.2214615099852793,-0.0038752220724008204,0.3210516710246597,0.29222383540304775,0.0,0.0,-0.611132774368371,-0.3995502209296684,-0.7135687809189689,-0.688961244803402,-0.047965983860508925,-0.015610354172979065,-0.018698985082977963,-0.6658073374149335,-0.04518503427501549,-0.04795127719887718,-0.1011178200422176,0.554915372206671,0.3253773751444661,0.18648432660693803,-0.07322128997181952,0.4267111585349967,0.0,-0.1453540863314088,-0.0381060618954061,-0.021698798272293048,-2.2231279296715147,-0.11222049893029336,-0.15105294380998327,-0.19061259928390584,0.05167148935264605,-1.1930454000819752,0.2567104709649804,-0.20434868344783938,-0.013784932803176492,0.0,-0.6726376218058612,-0.055401617764497674,2.1173810027922295,-0.09390454175998852,-0.8576244283086768,-0.12035462634116664,0.0,0.1989555496835443,-0.04062289843330407,-2.2807826398075814,1.806753076224411,-0.43231862733936854,0.0,0.0,-0.37725134249864073,-0.0051139330071553355,0.0,-0.06294371258182539,-0.15676314021243862,0.0,-0.5289809878505217,0.7036875295967099,-0.2996561956731177,0.0,-0.5060797696880837,-0.672046346838031,-0.02225878831749052,0.0,0.06462845573533307,0.9930327460947446,0.0,0.013956550368271087,0.13000537862925865,0.0,-0.8663724140126837,-0.3253842919681111,-0.02019974822141006,0.0,-0.053539118061241446,-0.2388615591580019,0.0,0.2648774457791746,0.0,0.0,0.14531326034441142,-0.5553384171464237,0.0,-0.029904991291766325,-0.0007584883868072801,-0.09042335588139772,0.0,-0.05630780645946905,0.4945918613463251,0.0,0.0,-0.08079748051082884,0.0,-0.06708490889705027,-2.0320842958465493,0.0,0.012470831093921043,0.023937036431020214,0.0,-0.046776385273287514,0.0,0.039355518167802396,0.0,0.09355777330361216,0.8056522509812329,-0.06068220353622048,-0.0033380157964064652,0.0,0.0,-0.3172444988481048,-0.22458248211973664,-0.03474653933785241,-0.3030945649740418,0.0,0.2047691256776827,-0.08663446919220834,-0.05356565042268993,-0.18438785208555572,-0.07587916119907132,-0.48917912400648295,-0.07289809986954895,-0.027223254338566063,0.42817295163185126,-0.13610331786392696,0.1387921120633367,-0.05994203718010019,-0.13687532637109145,0.10189932619284962,0.0,2.0492245652456,-0.19004109705343583,0.0,-0.3406774555427836,0.0,0.0424689027580934,0.38104544797180084,1.7313179638371647,-0.3561158371211098,2.186970602498297,0.020010054920726748,0.15113406219779973,-0.0020370960568684184,0.0,0.2531182094892892,-0.19975271488477755,1.7768457294645594,0.18205301171326171,0.0,0.003679066291226551,-0.017601840763888384,-0.010454834466264214,0.0,-0.433069486498804,0.0,0.0,-0.19040662805627004,-0.3728295093736873,-0.10818540292516172,0.0,0.0,-0.08771176171065945,-0.5346038314329831,-0.7067391620142494,0.17604927012140012,0.0,0.3960174448963678,-0.04129732548583618,0.0,0.0,-0.009407456990388413,0.0,0.0,-0.39737422034307596,-0.16798892390902836,-0.10337952944592683,0.0,-0.37980948532829584,0.0,-0.7258709884449728,-1.1537579745559319,-0.34251315318460956,-0.5075762343631975,-1.3122531092148069,-0.27905906031473704,0.33652024657886614,-0.1838358364486919,0.0,-1.129955871370669,0.2494057786505797,-0.0423132029483974,0.25210499153755905,0.0,0.05083230223299583,-0.6465182221042132,-2.197222447756026,-0.16148149229822464,-0.7861533609552189,0.29279528921602904,0.034752951632273446,-0.07635893522502399,-0.044453064456896084,-0.02534293135390398,0.6013293510192702,-0.12939180439416306,0.5114025458479129,-0.003800800395535386,0.145937325547015,-0.08187636091205194,1.4027301550515072,-0.44142893332519506,0.0,-0.5680256962960099,-0.2699868088347587,0.0,0.6744955553229037,-1.2243809751585162,-3.2279552081240914,-1.2695476293497563,1.3318566533861684,0.0,0.05898572305242193,-0.08861737989144805,-0.07664858019987215,0.0,-0.454140374812216,0.3187763976951706,0.25989181977103104,-0.010889821258271244,-1.7106083930843892,0.008836598848829197,-0.05905685496436438,-0.22002942181128818,-0.15247371429311737,0.0,-0.014639895562346012,0.0,-0.003029570007661042,-0.003223763299309774,-0.3329337639119258,0.0,-0.5402844057567849,-0.6751091809875159,-0.1501660322850971,0.02523189724158044,-0.0679087161754361,0.2862285097634291,-0.48457600741429085,-0.38846539375562184,0.0,0.051607138744171895,-0.030517633164185844,-0.12256926714581856,-0.17886747304078104,0.19144701485459137,0.1963461266774065,-1.1641630577177462,0.0,0.004538912374461932,0.0,0.48359450552743344,-0.44659382963961736,-0.13956461401940948,0.0,-0.004913189342315425,-0.17170743459950652,0.0,-0.11505713074938001,0.1310551668349405,0.0,-0.09849155328673137,0.0,-0.41359984063357536,0.8603751206374407,0.0,0.0,-0.004929920827259018,0.0,0.012207641801162876,0.0,-0.06999823167512256,0.034889031163734784,-0.07135975003874967,0.010979584462721228,-0.023517783491080583,0.0,1.0075167749327674,-0.016746273892456306,1.8908749793293202,1.7381179611707056,-0.029129343014479416,0.0,0.031047225142766262,0.0,-0.035229846246405745,-0.051491797307852825,0.0,-0.004870999014139678,-0.842428246110676,0.0,0.0,-0.01947049843406211,0.21462990066006535,0.25783382408574773,-0.32054038075360475,0.0,-0.024870974798328692,-0.2211431590259795,-0.8664931295623607,-0.014994062047083166,-0.10360167176246605,0.0,-0.12792919942856176,-0.12494544567923253,-2.2584609892430723,-0.05173146715446474,0.0,0.0,-0.003084598966069376,-0.06295817621618512,0.0,-0.5734458773465856,-0.8763938723208726,0.16989832458628232,-0.6649103230995898,-1.1087159100038766,-0.022772148019966236,0.3919966901948239,-0.05548183667709727,-1.5737168598030378,0.0,0.0,-0.20286512954834043,0.2417778872814479,0.0,-0.32657181724487694,-0.09450288329128631,-0.07086068631868297,0.14141712209092275,0.0,-0.316578306244784,0.0,-0.014233857769889193,0.0,0.0,2.6408336181896517,0.2040528331731921,0.3539523149742068,0.0,-0.019603423648667836,0.0,-0.27352884110121584,0.0,0.25941062261815284,0.2304706470398774,-0.40948796694592565,0.0,0.3213977689600083,-0.13080918250424045,0.0,0.0555357836125008,-0.048402002121340895,0.0,0.0,-0.96234040605333,0.0,-0.7183613502623905,0.0,-0.3663283013055674,0.0,0.09435283230180756,0.3704920173997857,-0.007698327214712319,0.6158310184030538,-0.001183924437546968,-0.01003150347334884,-0.04423345087361679,0.04793250895380334,-0.1345697206906357,-0.0782515843920058,0.11395369350702723,-0.1857339513272454,0.12357836715865876,-0.036124570077365824,-0.004678670059262626,-0.1355945963058261,-0.0323230964452825,-0.10478923744175453,-0.0019191337371555436,0.0,0.13179358144350917,0.14528938915518383,-0.009941074551518452,0.015398990697277957,-0.0868021464733726,-0.009043681133341634,-0.13986590383892492,0.32667128199240786,0.039165191240487326,0.0,-0.4755637018139159,-0.08110216451870537,-0.09187383855733383,0.0,0.0,0.0,-0.1205453160278669,0.03972778352465844,-0.10109272673007641,0.28241205622411714,-0.29251630522533095,-1.2329073999205518,0.4440094787725303,0.0,-0.006846798596808562,-0.05187328053168732,-0.23839413756963007,0.0,-0.03537088945463931,0.08133557212463785,0.0,-0.014195894565761327,-1.0827699192177458,-2.248318792977326,0.1473488865002509,0.0,0.0,-0.18885506211071876,-0.7010741609065194,-1.2043110258009866,0.0,-0.3548105168605288,0.0,-0.02852370214858915,-0.23369991029974072,0.3898099480912125,-0.0063090732696263075,0.3649973227922606,-0.43447083791744157,-1.0197034382715642,-0.01190232718992893,-0.9004038269861706,-0.46318801747797356,-1.3621613356093498,-0.2540217526470196,0.0,-0.23559060351333722,-0.46272182416317736,0.0,0.33117971263317925,0.3569627383393444,0.0,-0.2177447946284373,-0.18007514980999337,-0.307714063874525,-0.31385073439746053,0.07686093147845835,-1.0223235842542104,0.009921743605765023,0.0,0.7097818599752983,-0.43641459094547885,-0.5259086377063427,-1.2879544007558048,0.0,-0.15488232692571152,0.045970227882204846,-0.06808971340217185,-0.056242189184795906,0.0,0.24384792721727244,-0.011223155659829176,-0.2089712571697242,-0.06290369737976775,-1.4982676904301668,0.8126870139059345,0.29991024242783426,0.3805095603999526,-0.5414557831154764,-0.4397163139823705,0.3668897959793298,-0.07801722334248845,0.0,-0.09002292364636699,-0.06766161131492389,1.2313236108974335,1.3591647985119342,0.07275805268310014,0.05283364829504705,0.0,0.26323991027039506,0.0,-0.20317271603967463,0.019405413219987167,0.0,0.0,-0.005894486344060968,0.1868022402108325,0.0,0.0,0.9937758511081005,-0.04239105376980218,0.24078158058568172,-0.11529120355171103,-0.032216164308386766,0.07981469925783784,0.36086850656306985,0.0,-0.789478745849026,-0.298999622956927,-0.2869268926717367,-0.38959188520294874,-0.48446899953612266,-0.09013731091053993,0.1960730581460157,-0.02980982030203831,-0.2517092613421138,-0.17401593538172355,-0.03580721008464692,0.0,-0.19592194029971075,0.12459823814243656,0.054311751410114135,-0.5114863373426939,0.004047831321023538,-0.15439339704671934,0.0,-0.10512108700476956,-0.02195887154919247,-0.7446520186532855,0.00014827551733847437,-0.15925840028621194,0.057915843011660056,0.1337463462941435,0.0,0.0,-0.13877937578061347,-0.02870721382830677,-0.11548884027130571,0.3150010470333942,-0.049957458417087305,-0.6277014687949211,0.7474698762141136,0.0,0.0,-0.5613187190402548,0.3247343321260085,0.25419957218940203,-0.12821669129302007,-0.07731610721768287,-0.15346139506630962,-0.02618637967951208,-0.059550746164275005,0.0,-0.3932243915499979,0.12482522114072878,0.15701855202387896,-0.4092819626075787,0.0,-0.06740429118484728,0.011752300212031342,0.053681941694490386,-0.015230815342966601,0.2570704025527785,0.040735494099004066,3.560019513125036,-0.010857726481560628,0.003415742899955091,0.42177052988562774,-3.156233248188263,-0.1173624383891416,-1.0902313056934885,0.0,0.8809409596011051,-0.03158209401627488,-0.4058490995481458,0.0,-0.047907975798991836,-0.08876609037549149,-0.034390601883812086,-0.12029603226235153,-0.039250918158737456,-0.10510444317416136,-0.03961999774533523,0.0,0.0,0.3343218758610486,-0.03162001221968292,-0.46292373593728575,-0.37860385317689654,-0.022629765981543128,0.0,-0.027638930815794476,2.7842542889097417,-1.8578296934420813,-0.7226884594890332,0.0,-1.0631754260562754,0.018917290812441614,0.0,0.040542549666359354,-0.22204336689323909,-0.03843529772941627,0.0,-0.1396058095071289,-0.01969438103751567,-0.0741879468462577,-0.003847414391422007,-0.037371239898746626,-0.011767678395333468,0.24431752637580928,-0.608906054523615,0.14811336748493925,-0.014712692252465479,1.3669899325710684,-0.01445818667834319,0.0,0.6553620608538582,0.015225725655039518,0.0,0.21175906523029675,0.0,-0.04051053317495701,-0.17390404967835715,-0.5974493979265689,0.43636064805440816,0.2933328210045491,-0.33063243328535447,-0.07645671704987231,0.0177590574850641,0.0,0.08094573593529383,-0.30904731575034733,-0.166630272179338,-0.06033646133035274,0.0,0.0,0.0,-0.8763124332657539,0.24749953969553032,0.2985178595273139,-0.030489893532188516,-0.5526446176943103,0.0,-0.3352833503415119,0.7842229352568153,-0.2735158700637853,0.28449152524350574,0.0,-0.09317450160696676,1.042755358205458,-1.5880074030421492,-0.024454371051309765,-0.38506607730254827,0.0,-0.30461548420760565,-0.1092564644346048,0.4745871280526651,0.0,-0.13896314390062092,0.0,0.0,0.0,-0.025851719016298506,0.007161305580852947,0.04604512822882366,-1.8272668049100107,-0.026875259182540773,0.0,-0.26262443130407076,0.028347234557250717,-0.11194023424486715,-0.0753049069725879,-0.014615834252553743,0.3458922006124525,0.0,-0.4578058717691171,0.43454187379259446,-0.1659357409611812,0.025927540613615848,0.15279101306156767,0.0,-0.488270746337937,-0.6755898007529949,0.0,-0.07005589151894971,-0.058626363169588455,-0.18773857894741777,-0.4731092541993166,-0.4927575916972289,-0.02135168319126165,1.5374626731496976,0.1443636076352115,0.0005275405807713476,-0.12918116810852745,1.9818367016681226,-0.1029462310715958,0.1674729470871454,-0.2762071414012955,0.0,-0.06657416511805868,0.626280655139596,0.0,0.0,0.0,0.0,-0.12246353925610019,0.7747936434697009,0.06080411175767484,-0.29947866476914503,0.26344751732659694,3.0523421128242743,-0.5350259603477004,-0.6623092226397698,-0.03840163448345103,-0.07270992567348813,0.17820621671785214,-0.23088931212525743,0.03812725603282045,0.0,-0.015436431407060455,0.0,0.1331971068828268,-0.01007693117448444,-0.016342627499812207,0.9743033929788082,-0.2650224213591285,0.3537793999337801,-1.0850053556731651,-0.18265678095918975,5.999312450751672,0.0,0.16013517314028208,0.049714849199957195,-0.10612302161490289,0.0,-0.19415687428593614,0.3157666563084133,0.0,-1.7631582532617542,-0.2221468872185537,0.0,-1.7565980884195567,-0.021753470228203044,1.0207858343885285,0.6448172484747143,0.5363445691124593,0.772619233476928,0.7967655138736675,-0.012927412698950399,-0.019658431529706245,0.0,0.0,-0.15088411092392973,-0.08605006364082686,