0.721039528418165,0.0,0.0,0.08115002307399648,0.15827424582171964,-0.1612401948617604,-0.05524941815882644,-0.008321111625068985,-0.15906547177050884,0.0,0.005056595377271824,0.013090032537643242,0.14158528805402243,-0.0665784124272371,0.5187324650656023,0.7008700742533405,0.0,-0.0038078978087941794,0.2707424705149251,-0.0002890770525033386,-0.011780291770037577,0.004413186067894723,-0.27308172897668764,0.0,0.040265015933149025,-0.050149952449808875,-0.01116371900270392,1.008061679700726,-0.002086662328216074,0.0,-0.3675716197119735,0.05788813408159255,-0.047968815706084744,-0.08444782921853508,0.0,0.0,0.0,-0.04657341252794236,0.025760487210852202,0.5565296663655442,0.9452571491459535,-0.0746166473876905,0.41395747602210736,0.42648094932550573,0.11522226382723996,-0.036458151054631495,0.20058141320429473,0.0,0.0,-0.05951168765070656,0.0,-0.019882080122347302,0.0,0.45042185730548967,0.0,0.0,-0.06253170606675909,-0.04983856488781718,0.27440013274949465,-0.23092367112138731,0.0,0.0,0.0,-0.3573780875471349,-0.08365033477692942,0.0,-0.015569547400376204,0.0,-0.18017162443362916,0.5903795169888056,-0.08657077503332997,0.0,-0.09170150884360563,0.1974387040313927,-0.3845316303937626,-0.20892116319930235,-0.005991063150154177,-0.9503611926756946,0.03801836919285511,0.09356713015125406,0.0,0.020809296930864474,-0.011082978852107359,0.5095625540040999,-0.3216662064173258,-0.025252459033132828,0.0,0.027953353493346874,-0.005969302039173831,0.017005814560983202,-0.0025184515484641553,-0.0771929226090842,0.4808017013401386,-0.04326064270379869,-0.14339077329098168,0.0,-0.05286179443467828,-0.002709885064992719,0.06059133988670448,0.0,0.31531002679143916,-0.4078406868953688,-0.3581218388390218,-0.2847087689585525,0.03079318242984767,-0.001569841675962347,-0.7893627759515736,-0.052432299305045206,0.17723981841227884,0.05264134121086233,0.21168644898731187,-0.06115433282437206,-0.06136253203696112,-0.0724606427620348,-0.04358843704255272,-0.07563760900717534,-0.12657364543812727,-0.10070449373572929,-0.04451379694429331,-0.19306745209111617,-0.0531422234845245,-0.9506628454027412,0.015885249220070403,-1.1199031548977911,-0.010387295272905802,0.0,-0.13184243936924966,0.0,0.0,-0.00926562276196045,0.0,0.1765069606976799,-0.028312015421005973,0.3605286364615899,-0.0007943884085864247,-0.04466158317131766,0.5039995763001182,0.23458848924452957,0.0,0.02068683327146035,0.6590555079287646,-0.3195907174297424,-0.017556681518608418,0.0,-0.1836045406972092,0.26024404797162193,-0.03725209330872836,0.17289977964017153,0.9822481670361469,0.0,-0.14428991256164167,0.4729374290847412,-0.9005844972193544,-0.04150560378027801,-0.3273570469341148,-0.06847398758413355,-0.17805880913060462,2.676457550830989,-0.23383250518556734,-0.009720127821405754,-0.001356697919402003,-0.26513291890576635,-0.045118808217443435,-0.018497272388328462,-0.21389004263534206,0.005071287133230627,-0.052891560055655255,0.0,-0.016890155386101672,-0.026074033791072936,0.6273559504702243,-0.003967761196567514,-0.29361576186881944,0.0,-0.29430260671765485,0.06126533074707181,0.0,0.0,-0.13076554043553182,0.0,-0.5263670538615323,0.0,0.0,0.01442010832217891,0.43407596191317993,0.0,0.0,0.0,0.0,0.0,0.0,-0.29597025285955064,-0.04832796102254149,0.0,0.016386857368665266,0.2607557134642447,-3.1407234956480092,0.21191770288681802,0.057826439714427184,0.0,0.0,0.0,0.0,0.2349036522508046,-0.6384507890938692,-1.0355117382124106,0.01996132763791824,0.1513113989921098,0.0,0.06933337069858395,-0.013451875043714966,-0.9986479068893692,-0.022161856709213144,-0.08162368082665883,-0.5170797782844574,-0.17187146867715178,0.18450951949870162,0.0,-0.09473235694185395,-0.04114686451349194,0.5493846852919795,-0.0004946737884813712,0.18234371772223962,-0.2274863210675019,-0.0199872346243589,0.0,-0.02953200934704262,-0.021067648826902676,0.0,-0.16710063902678557,0.04341938797756008,0.04200101753006883,-0.013283480510196769,-0.025969975366963147,0.0,0.05328760755271346,0.0,0.0,-0.2681833025202993,0.0,0.049295940974422615,0.0,-0.8767555936175605,-0.3308858214889089,0.0,-0.07500165339927058,0.0,-0.024814110037610203,-2.2413915582282833,0.009683446225144898,-1.0238986990262244,0.0,0.0,-0.06144534863643237,-0.3462042071858583,0.46738993730133455,0.0,0.038264139508531476,-0.11824717253403894,-0.07347852394383352,-0.03465739902861038,0.0,0.0,0.0,0.25137922428824117,-0.10990347012604793,-0.25984946452886776,-0.3637444398035825,0.0,0.11165867432557816,0.0,0.0,-0.08286119379349083,0.0034866793713428483,-0.3935299738025814,-0.14348038410012912,-0.8629686460542334,-0.00017516064882795382,-0.24060137750021307,-0.031456179565667125,-0.002596960381723593,-0.09225009060800171,0.0,-0.012977588251929942,-0.08254757968866792,-0.26370418063723056,-0.45999804745402495,0.0,0.19306440231052183,-0.809967430717692,0.5962333946951868,0.0,-0.19473503848765242,0.09360859967557064,-0.16843115633255312,-0.002547168165568435,-0.12396671196229246,0.0,-0.7306668412599778,0.0028429863505367923,0.13472843727395414,-0.31231002705035565,0.0,-0.006274258649374585,0.2337175803516401,-0.1207697025545722,0.26119501561648684,-0.021574001822732305,0.198507180151563,-0.007904689122129913,0.0,-0.4198957875848797,-0.05420950260533025,0.0,0.15492191701052008,0.0,-2.0794418360524567,0.0,0.0,-0.22154638666029147,0.0,-0.45741068096750664,-0.03423102054707521,-0.04343620970091781,-0.6836280885311455,-0.31137042732058035,-0.003470000916046017,1.083317684321374,-0.0055201290449586795,-0.00648827168019361,-0.002688180547367826,-0.07074319694895292,0.031696118063030576,-0.5936312251637313,0.06333004861216994,-0.27248757246141203,0.014908015152774762,1.111160292778508,-0.23808072734254962,0.0,-0.03311559226122605,0.012531646120702533,0.0033358295824475483,-0.0800127069511848,0.24395570132336614,-0.030813174978818594,-0.14212901398619818,0.05447573824051849,0.2645515035031188,-0.026023093634598874,-0.07890571337654591,-0.24899653639806477,0.0,0.0,0.2178474709151484,-0.2164450825771962,0.08089287395568191,0.0,0.31677526029618186,0.15147235805509265,0.39074383531774165,-0.152869855335209,0.0,-0.011338283272922021,-0.20068436206189522,-0.23706572670159504,-0.4903238376826833,0.0,-0.08607270698090533,0.5892324940530774,-1.0907908267626456,-0.08526033400456201,0.0,-0.002763314124801483,-1.4965433071313954,0.05031921456727236,-0.08149641233868367,0.27036790985611286,0.3589420623492377,0.44587593818830046,0.027288245128636344,0.0,0.6310623859476517,-0.002126733495652579,0.14773360425918844,-0.5678306473664075,0.7386125214230328,-0.1536451154773901,-0.2588432693389116,-0.5849627176298343,0.0,0.5841437097884515,0.0,-0.007815766451099819,0.016284413539364724,-0.05066317463656193,-0.014610851606600911,-0.0019497019027706903,0.0,0.09972482896771201,-0.009339597420102038,-0.2026091779854797,-0.669084077633945,-0.19593244238966617,-0.18600845819638495,-1.5500639792496087,-0.11009017800886772,0.036873403410911706,-0.15195137535367156,-0.013408913302786915,0.0,-0.018309614776093663,0.01664274167415576,-0.13413048819306989,-0.15099418934004238,0.0,0.0,0.0,-0.08503190095432572,0.22237890187682477,0.0873402276620846,-0.0812080819725913,0.08969295251032086,-0.049506297513290755,-0.10249989701383949,0.01873108810192164,0.010613936530068686,-0.10860997975094669,-0.19728785494412687,-0.378472664969693,-0.3921292807082515,0.08023235591018456,0.0,-0.16996972538784264,0.0,0.0510095235007693,-0.7110247920822081,-0.03227556945382698,-0.016023163076169956,-0.7183913566915859,0.06510679831809581,0.3623422246684861,0.1156351987882245,0.04278827222286342,0.0,0.0,0.42655411488149425,-0.006327819002162886,-0.12780328745872965,-0.7622267018735328,-0.011074899931340325,-0.29400544081287155,-0.025173029767146783,0.7767898929470838,-0.0733728926304855,0.26417066047130516,0.30809036265814954,0.003375306570049577,0.5212684349091277,-0.23856761465076246,0.0,0.0,0.05470243562616995,-0.062444942777665616,1.6615239218348483,0.194606242549978,0.0,0.0,-0.679178295526664,0.0,-0.08179355721490789,-0.036627950217863234,0.6535829365995016,0.06878756969175198,-0.053549138935251615,1.5405764055039524,-0.0582603746422404,-0.0573905975599502,-0.5194220215993187,-0.12653535415911438,0.012249756396934812,-0.2935395209015179,0.0,0.0,-0.0754740057301627,-0.06407510583787657,0.0,0.09785450614301043,-0.04111609410481233,1.0891815293414007,-0.0036798552370239457,0.30226057500688164,0.08962249229662222,-0.04003527919690469,0.036223623365026235,0.13222359972689213,-0.9765635669234696,-0.09936084134788402,-0.7123523073573168,-0.12497640812033169,-0.005186121454457656,0.16526701258253274,-0.11042141139749484,-0.05353579245688316,0.2796943025178893,0.0,-0.011612136351252491,0.0,-0.04070377311943357,-0.07645764304542804,-0.09199477524287583,-0.39158778653689286,0.051106029407724476,1.1755815767792084,0.0,0.0008926044112944908,-0.7329922030485401,0.031229253220925984,0.0,-0.0635070718174525,0.0,0.0,0.0,0.007929924646373024,-0.09334996542202666,0.3145956847620486,-0.3166890510200026,-0.9312085211491068,-0.17132503668213597,-0.05094710472334775,0.022392995174203845,-2.6999793111068846,-0.5450622576874128,-0.45725663621205853,0.13974927247766733,0.05185361085467537,-0.14158034698362962,-0.2754257841372367,2.217547339498894,0.0,0.0,-0.013336329104688075,0.1393233424134257,2.0706892935476895,-0.3536011737708397,-0.059423159243453615,-0.21405241473728154,0.0,0.0010068525669582966,0.0,-0.003412970597149386,0.37099565299974907,0.0,-0.40600269711599,0.09537833573110523,0.0,0.0,0.0,-0.5504031198925337,-0.07084090556373342,-0.06993066170568264,-1.457950247503939,-0.09660949141140855,0.594828309558896,0.0537691524435847,0.016454388994401003,-0.21077709071871253,-1.11256756152682,0.052699292829810465,-0.016863610147773732,-0.004859204275130813,-2.3793894955003796,0.0,0.061675514164497194,-0.2368796741477453,0.011313898270198566,0.0,0.032698403773654766,0.020618387679585456,0.0,0.0596548496024399,-0.133674611329421,-0.41114585233915907,-0.002825801875389438,1.3521164933501697,-0.012436114735078978,-0.2025661339060514,-0.651311204717238,-0.2908421131431966,-0.21180497510751592,0.2286091358940298,0.4398738388987104,-0.03513687769729832,-0.02140312142045634,-0.16880176771944946,0.19601476385493005,-0.01840712096465041,-0.02922215703837985,-0.008391103917673663,-0.180433325565545,0.2809657939854194,0.04941055043356839,-0.016576505823240325,-0.029399335397643528,-0.19683098625428166,-1.3083577207041328,0.14011730576094736,0.08221503540649777,0.0,0.0,1.1484486071501019,0.0,0.8289781324797414,-0.12776719741300085,-0.10811542354101449,0.00813492917970821,0.36639154746698976,-1.0175139135246585,-0.08790272488159383,-0.6907655776910313,0.1983731208728287,-0.06983875039575356,-1.3658451986146927,-0.24993914896435096,0.09721096784496486,0.0,0.01304682917822567,-0.11300496580812382,-1.0451789348900908,-0.0346440241854019,0.09916563214540539,0.0,0.0,0.013976435088478154,-0.8483458100453417,-0.10227625160969474,0.19734842269637518,0.3376345007660403,0.0,-0.06385787729237238,0.0,-0.3544160124536828,-0.6711660621229955,-0.009889139647676614,0.0,-0.04080555984737185,0.0,0.0,-0.12891925315644884,0.0,-0.1021078946307779,-0.1560126876191182,-0.08325829378736807,-0.19287368900033644,-0.2611972755845909,0.0,-0.10350543529442549,-0.8464253323998923,0.26353174602322615,-0.04641340976534045,-0.30666152490352494,0.3738000753706,0.0,0.07344844553446987,-0.13569153512865487,-0.06868107519069631,0.06818540067879957,0.8913707649856406,0.09731165316588582,0.0,-0.16336643872464585,-0.028657027112438577,0.014353479338569801,0.0,-0.03741673789534228,-0.3246689423277493,-0.05834129651222538,-0.13098257602722174,-0.04510422758597021,-0.1665935623372128,-0.0660330639446404,0.0,-0.0005271735133649005,0.0,-0.06474678619582654,0.0,-0.2072873382074701,0.13620092131778813,-1.2271433205460704,0.0,-0.001050121941534564,-0.32209213824793154,0.4326798100020002,0.0,-0.44668672971733486,-0.6235798795053403,-0.03681279027234157,-0.43710944729767487,0.0,0.09508965462029045,-0.02210602323310331,-0.12824740395654868,-0.1033501544117615,-0.15221838873679475,0.0,-0.11996697409412403,0.0,0.5796585057385568,0.0,0.0,0.0006130982786318859,0.1949861849989319,0.0,-0.00421068910877983,-0.05186662705697709,-0.0925411651666126,-0.10474752458609057,-0.025325402576085766,0.0,1.345671123116003,-0.014829467303917942,-0.1482772484615258,0.045103549890289155,-0.3458811351517863,0.0,0.0,-0.02279163886244793,0.0,0.0,0.3957970617669318,0.48981692605632976,-0.023406951962687175,0.0,0.06665128750184185,0.01925700931334198,-0.027052195670397967,-0.122472822602816,0.12954241823480953,-0.44091776846101655,-0.18291124627782088,0.0,-0.2694851182311891,-0.33079664653639174,-0.0056386620159341,-0.44586652162344725,0.05079243167058439,-1.0821921992237091,-0.19540172265665756,1.7802443716143128,-0.29839280694971754,-0.24533005048311377,0.34779880553502596,0.0,0.0,0.0,-0.04571984570043653,-0.2534501045680263,0.0,-0.03853437462638735,0.23139754556398784,-0.29340357658452954,0.07399006713763202,0.0,0.19436912568989717,-0.07205038057600475,0.0,-0.2298960892506609,0.2903152976307209,-0.24236626055006902,-0.4986081697633545,0.20883913981082147,-0.08340846533706835,-0.014292815082841434,0.014310561597477442,-0.059454601580709344,-0.2980325407215755,-1.1462305896231697,0.17712777512362773,0.07714449812171893,-0.01770829268981636,-0.4698997246216507,-0.07146016532445926,-0.2127263550992118,-0.9104117456259169,0.07388347489651143,-0.018459215700798705,-0.0006061441161297836,0.0,0.09572336032545357,-0.2479058107048418,-0.0442179251666821,0.18224287410348877,-0.13084405236273491,-0.0834913848997662,-0.3280174978456302,1.3201320039090054,0.0,0.0,-0.4901522638101342,0.9126325369041639,2.0281915149533254,0.0,0.0,-0.14093640465990473,-1.0831871813152456,-0.02009487596206316,0.0,-0.07142083191425672,-1.2987038820381624,0.14978756397503315,0.0,0.1420400251119434,0.1782901612683056,0.0,-0.2131645171557391,-0.0931956907806133,-0.13568815331866524,-1.8188673277431378,0.1679550151127247,-0.013500571886477101,0.0,-0.28310342996506876,-1.0771058772131814,-0.028975833896093987,-0.6231198652079928,-0.16058607476703926,0.08095532189747871,-0.038101164691919806,-0.539993836881634,-0.017124331719080486,-0.06285000031697412,-0.14083628600037204,-0.002608879960249939,-0.5416940031839217,0.07898801530289706,-0.022476762589241576,0.0,0.023487048529923244,-0.09365917749868105,0.0,0.046771811052160286,0.0,0.09576178946669325,-0.3590218678385541,-0.08359772119720725,0.3869693133459541,0.0,-0.3791907523857867,-0.009116499237770586,-0.17942179210806639,0.0,0.025489993290651228,0.0,-0.20637850323855442,-0.15159816985935748,0.0,-0.014424644604324334,-0.3201982365717955,-0.0012010109525882875,0.07734528266154726,-0.30868549698537023,0.0,0.007308988705410477,-0.8936164121452174,0.08357140245572604,0.35606678097291267,-1.5944930912513964,-0.04564738117223722,0.22396904138247176,0.04374733900699975,0.0,0.4409918818839671,0.0,0.18768382876894185,0.016658483918873583,0.34218850987684857,0.14315303757731038,-0.16995483443795575,-0.0004889794657572639,0.0,0.7764232561846574,-0.22375053064805842,-0.07329220483396702,2.324419155395383,0.0,0.0,-0.36718624536623856,0.0,-0.027093305111385902,0.13065351752501983,-0.060383037274305766,-0.0015531323125834184,0.03577978399174814,-0.10861632413087845,-0.016607585917668605,0.1654068178314952,-0.04516333962934737,0.0,-0.47205266833771353,-0.46041358491633705,-0.11621918526747399,0.020294097575215848,0.0,0.0,-0.5098231143837955,0.0,-0.07968269555289312,0.010512568981404177,-0.12313152871240969,-0.0018094992238478962,0.0,-0.010143004491466424,-0.0010055149774167687,0.0,-0.013142366805960664,-0.10600645783547531,0.036672234924858285,-0.10435256944751661,0.17953819118842101,0.3967395894408545,-0.626698334970377,1.5757391569542496,0.0,-0.532311707621456,0.18830431030567074,0.09701046944375957,-0.12449731886079264,0.0,0.0,0.0,0.41972111286978475,-0.18436996582260018,0.0,-0.05982038151272375,0.0,-0.12633408409182184,-0.9969891101671029,-0.0033604871646282946,-0.02686751338693896,-0.17116273296765333,-0.25857994662759837,-0.9460055391148743,-0.2095804738365797,-0.02625437862347007,0.019828295100152882,-0.03194616842780813,-0.7799668654858958,0.0,-0.07113806975131239,-2.2263531515199366,0.0,-0.0017844428270109016,-0.07512420060781545,-0.32950836794860083,0.010332113595670957,-0.18063702870295498,-0.010654685478351786,-0.36862291850247625,0.07820878143001064,-0.03252333224400019,-0.023349206267998274,-0.030345721164299923,0.6495104721191552,0.8299514347435054,0.5848313547277075,0.06243564642341968,0.0,-0.02359132130372349,0.0,-0.5611315166834728,0.8928091154498413,-0.007908536706664387,0.0,-0.028495695397411095,-0.17619427789734413,0.0,-0.09240148275531108,0.0,0.0,-0.36420264373189076,0.0,-0.012480243355994621,0.033882122059380924,-0.18458525507130139,-0.07082603189232341,-0.3051647948135915,-0.016185972553761457,0.0,0.5685259784934188,0.0,-2.9874647974270907,0.0034191005906147433,-0.015647840132256237,0.0,44.33094751025814,0.0,0.8561236664762042,-0.07144948741101444,0.0,-0.5084756151998584,-0.02506981790396433,-0.16210705443874465,-0.06658636257652033,0.0,-0.10580704806229793,0.0,0.0,0.0,1.0417913770936276,0.0,0.13686189125608228,-0.021429563750479674,0.07828226728672337,-0.033764768349593154,0.0,-0.5639872775064462,0.0,0.0,-0.0480835618038899,-0.3729008423986097,-0.813818422007493,-0.0267511806944677,-0.24159071837846405,0.0,-0.008653401217899948,0.6016201729144075,2.3226750254922286,-0.15477571987929306,-0.10302510990275876,-0.3587829373733513,-0.2636384562811656,-0.30519163372581953,-0.28002934029602816,-0.09134260522797863,-0.39632953571986834,0.0,-0.034943350985403944,0.05131862731742319,-0.024770752117810824,0.0,-0.028291030086912104,0.1619966267002076,0.0,-0.2572682133445466,0.0,0.0,-0.06805213677294376,-0.014672500039293606,-0.3029582467123102,0.0,-0.11637437204502511,0.0,0.10268379511648704,0.300939952800245,-0.6461441960379402,-0.046598833232104335,0.48109877715902555,-0.1165564142502857,0.0,0.0,0.0,0.05037020851865287,0.016419911437320224,0.0,0.06276915456996221,0.06133291156780704,0.3547779297013674,-0.004902513150439447,-0.07324440615888544,0.022808020648412215,-0.013351130296916447,0.04181214704046538,-0.011436669501285258,0.004645426542502351,0.08678717405521715,0.12884662066824146,-0.052477904927772705,-0.004170435471940768,-0.010533962647991661,-0.07057868772016676,-0.3861372155937585,-0.13151750078808194,0.0,0.1238407532563731,-0.05944049613772011,0.0,-1.0869226972233563,-0.004089475071304583,0.23731726251544655,-0.10871523940224784,-0.5907116757292442,-0.0780934692699871,-0.1257757809016529,-0.31456526254696116,-0.6149842270186148,-0.21939593871766894,-0.01786956505429862,0.0,0.05260257209316387,-0.06074406903581222,-0.14795911367263595,-0.0652033424202869,0.05204157407768763,-0.3305500124242918,-0.3795613786633474,0.0,-0.017903795160977495,0.049008084057296286,-0.13199573483388752,0.0,-0.10618503145936317,-0.8528741035728193,-0.018439299143351642,-0.08354398055558589,0.0,-0.03520074188415318,0.0,1.1796264173666149,0.0,-0.5138311765668878,-0.0729738790224007,-1.567248374572373,2.0070159497187476,0.018429460244252384,-0.017210607216957018,-0.5794690571418162,-0.06457546673317692,0.02571977969366342,0.10976065576149684,0.0,-0.29652115222557407,-0.16700270400440032,-0.18708660581491496,0.0,0.0008987154492061451,0.0369867357853378,-0.02504739163211898,-0.37942649907542414,-0.10090573231000104,-0.03824600835746937,0.0,-0.015186446846576064,0.12413701070181024,-0.07121591671422597,-0.2328899451257356,-3.744980247035944e-05,-0.22605612831362384,0.2678236748240748,0.11391038997212513,0.0,0.11248614313646026,-0.013988776537254517,1.4753171866594963,0.20993588321060025,0.028028442326007864,0.17165846587266184,-0.22465736114512277,0.04038233477759258,-0.6543660237753417,-0.0011335845304493754,-0.09460821554890533,0.0,-0.15670702042804133,-0.0035688267199866894,-0.5529847013987575,-0.047752202091846184,-0.017361766421060666,-0.07827506432666521,-0.015704658624769163,-0.2121562951832459,-0.0023232978223175216,0.3329207146189905,0.0970657251992568,-0.014454161158083914,-0.3251165176867543,-0.04152919568723938,0.5998045836236073,-0.010758297979723754,-0.027044317803608744,-0.02063899047157866,-0.05643066024062201,-0.07246383855303326,-0.2967810642881548,-0.005474697389045681,-0.15971392534689421,0.012531646120702533,0.0,-0.6418767506694719,0.0017814760881933542,3.6564293702393966,-0.002608480311786927,0.0,0.0,-0.39430874376560504,-0.0863506278099989,0.0,0.013243421078289547,-0.21101390552413454,-0.4009922624379428,-0.1781401006932163,-0.43928605936980075,-0.24658968981558244,-0.38456937381110695,-0.775276878589033,-0.9647409853183492,-0.1627094412320497,0.0,0.015277331503249352,-0.30571458022040077,-0.2584561604817233,0.36420946668591464,0.0,-0.19609287875767994,0.17088682393280738,0.2189094080399301,0.0,0.0,-0.44158253833005234,-0.4976106786495882,-0.009855084707934841,0.0,-0.12177866624673139,0.02352594552272854,-0.22745571194115913,0.20376568432650308,-0.06777568582960079,-0.05616135114571945,1.7277250192894067,-0.028557759470054477,0.0,-0.039323938228603625,-0.04118491626472415,-0.027707447130268403,0.228126303712373,-0.07414283418177035,0.0,0.0,-0.030678983459390047,-0.34114947247517363,-0.5611483013454241,0.07917830303176078,0.11608039125100923,-0.014362125230966184,0.0,0.03324348798538223,-0.007879934079065967,-0.21613362702890673,0.0179951065031254,-0.0621618814009011,-0.014993700704280999,0.0251505828062869,0.0,-0.08886396749180171,0.22890358537279307,0.596341398205343,0.0,0.9225407120814753,1.1871334206591406,0.21294638531960572,-0.06113205864237431,0.2263743708279525,0.009281738362553516,-0.08410546794602648,-0.012073114703422448,0.0,0.0,-0.01211939882895328,-2.1983810345001404,-0.004699925260438445,-0.055629992792938024,0.0,-0.008843310358439337,0.6153090662408928,-0.01433735046865261,-0.018043972234833755,1.9506298497508683,0.2798266982780272,0.0,-0.40270027173106404,0.29880485557704367,-1.1919765385473318,-1.3010309543093324,0.0458206164807785,1.1559349317621346,-0.09358860766952463,0.0,0.0,-0.03853437462638735,-0.3526288723773413,-0.23964154900226636,-0.02023478464835296,0.10947810162257095,-0.14693931406650673,0.0,-0.12936623441181386,0.0,-0.08932427998245812,1.0705322768690193,-0.016093805605551,-0.13275103828843793,-0.11692566779173441,-0.6111817806078778,-0.45217317449171957,0.0,0.0,0.009617417908351895,0.0,0.013982868746132778,0.0,0.10722911320710668,-0.050975096341688064,0.17274336372908314,0.15749170934977888,-0.1286327145172637,0.0,0.09710784411230083,-0.09593930388817762,0.07724741967675841,-0.014125609509740681,-0.15121941866707353,0.5173483301923183,-0.2235223400754429,0.3727680849384534,-1.2241072026785056,0.02219857325925671,0.0,0.0,0.0,0.02221349941451107,-0.30791045909062215,0.014675297606493342,-0.25720288948971554,-0.03123407291093867,-0.06903405528505495,-1.1173567698286644,-0.1157106998413584,-0.1624979710308294,-0.03281407210770439,-0.7981592870562212,0.01371291037186259,0.46191677734289066,0.04190833776198577,0.3358654363375901,-1.6770588470870895,0.026316559582169073,-0.030077153925248137,0.0,0.0,0.0,0.005914305810443793,-0.253679165325394,-0.863998469553268,0.13521888058822937,0.19834165755200547,-0.10749884261891664,0.0,-0.028940107305366114,-0.6443731225530143,-0.09596245857024187,2.3109019626611405,-0.005141308712805029,1.1610924691222095,3.9476086582599788,1.861907973148435,0.09691952232204996,0.06181685482656272,0.0,0.5831609100215587,0.0,-0.7979099203164766,0.0,0.0,-0.050635437319545167,-0.37480197089903877,1.638022964940382,0.10257294482282635,0.0,0.08642461477022297,-0.056942549339902296,-1.780412800756115,-0.03220801756001908,-0.27628991685941756,0.2917892629739482,0.07638015349582734,-0.17426827703069067,0.0,-0.7346628476910105,0.009230426217986998,1.4591038247163746,-0.328287546182375,0.0,-0.03820923608504284,0.0,-0.3441834321510587,0.26122042267996504,-0.1284550341923583,0.5800674684577773,-0.013455112860188013,-0.3439363376341053,0.14934333251515547,-0.17625259198252133,-0.3596167858578564,0.0,0.4137495334012593,-0.6811979559667665,-0.02798796800436102,0.021795314747128567,0.0,0.0,0.0,0.0,-0.5786795347619889,0.0,-1.4499261072167102,0.0,0.07913650162936499,-0.04374434000325427,-0.0061503752228990695,-0.06869215965798678,0.0,0.3332710082239043,0.3751791936935041,-0.05648645818384748,0.10838913830588368,0.3526748980926613,-0.07713974019019755,0.0,0.0,0.0,0.31451989845573364,-0.14859438842959888,0.0,0.0,0.0,0.031199114608212886,-0.048435245040872404,-0.9484059483053117,-0.10149823324861659,0.0,0.005859855028232857,0.0,0.0,-0.09219127018979927,0.19593397264338114,0.0,-0.07732229252256308,0.18973200890796196,0.10315245854550986,0.0,-0.01281911286093903,0.0,0.0,-0.5671948411692218,-0.0416793371384781,0.12627200128579008,0.0,0.04528999939298628,0.12266694443794258,-0.0033235591215173307,-0.08791876711855531,-0.12163639514302488,0.685216314929518,-0.002039619129934928,0.015367279344482213,0.0,-0.06546247170533323,0.12944316573142967,0.012065405017840715,1.5378490627432113,0.0,-0.00139906596017381,0.0,-0.2731652592083166,0.008778933604231012,0.14459542178536128,-0.06241373240883139,0.0742352126182635,0.0,-0.020793176227585464,0.0,3.9241778334431174,-0.05253561882972441,-0.12148283133891459,0.0,-2.1753966536667404,-0.07873883427616205,0.0,-0.022462639461398575,-0.1680742428981259,-0.0030649522720151406,0.03618413467294921,0.2566680128704087,0.30000623482651695,0.0,-0.3954102524853735,-0.4444838577961442,0.09910194861727724,0.0992515235903318,-0.04328006284785055,-0.3097818612062335,3.7682632830284692,0.07381353870327807,0.05409043225147731,0.0,0.0,0.0,-0.09914339583338132,0.0,-0.18706382828260296,-0.1509828741281567,0.5556454669094911,-0.01961117766598984,-0.09698889763439716,0.02008218065314552,0.0,-0.26279794475247054,2.6189839256751117,0.6115430198699803,0.14287531442960705,0.1691482480755298,0.0,-1.2886963820832804,-0.18880813334083857,-0.0014026854192252791,0.7417540510618577,0.0,-0.31880012958982634,0.10607319853573503,0.0,-0.20005495407776858,0.08990441037722573,-0.08978175663002652,0.0,-0.1280614625081031,0.248424248824405,-0.009140656083914723,0.0,0.14986390289682788,0.0,-0.0389366392512485,-1.817009843988387,0.14038543835152642,-0.08167796760516677,-0.0010681115643501608,-0.9767845674367759,0.0,0.2984038226308393,0.0,-0.04899682092940134,-0.09841786839713619,-0.13958561185709972,-0.6338383006015614,0.18784177031846258,-0.01950007464673138,0.19418871184020003,0.06457918501924556,-0.18736809745712188,-0.0467783947040757,0.0,0.14877880726289414,-0.4958948624112434,0.0,0.219553918899725,-0.01148947298949644,0.0,0.0,-0.013650373854615303,-0.052552463398016745,-0.017151934496413106,0.0,-0.22114727800613126,0.0,-0.20678916953831764,0.0,0.0,0.0,0.0,-0.18303816742975834,0.0,0.3916259201585006,-0.631538165905551,-0.16144178586138905,0.0,0.0,1.995018329874723,0.0,0.0,-0.025847446966456616,0.0,0.9925868238041048,0.8132875523224105,-0.7376788382788393,-0.1375642230129863,1.6672025631853027,0.0,-0.004342925071973535,-0.0033917807505216852,0.0,-0.1555083299200445,0.0,0.10648372565833061,-0.08001810638686728,-0.02545692311079171,-0.0845255933894181,0.0,0.10674968093912107,0.24386113570030146,0.0,-0.009676499953297129,-0.16689710395011412,-0.03333941343091922,-0.22271255549200228,-0.03297117579119074,0.0,-0.09254185028729056,0.4610531827381964,-0.05635923726871438,0.0,-0.04200436782830412,-0.30627020834211344,0.0,-0.2387347001162387,-0.276491346206264,0.18585449938975618,0.16047565251881066,0.24847308265408896,1.2100964759739943,0.0,-0.02315029993316995,-0.027194332973590016,-0.5742208876620566,-0.3234226844648594,1.6258722568108814,-0.9890395262690711,0.0,0.0,-0.15961280250894402,0.0265226769140454,-1.291948974711519,0.0,0.25210232629061385,2.0823317564418864,0.18825028793560816,0.0,0.0,0.0,0.0,-0.5885130329126544,0.0,0.0,0.0,0.37349156214155915,-0.10353788452678987,-0.25156527956305547,0.0,-0.0573611820845379,0.006521488270334055,-0.26792950803676696,0.06585495872031169,-0.012138035593676167,-0.07292342465122993,1.9373450815592417,-0.05394257375351619,1.5021615446093763,0.01739866967603189,-0.03706544947291375,-0.009533334930358918,-0.03191051388951756,0.0,-0.05014600513653118,0.3720266461268062,-0.31817796060986736,0.0,-0.027485850944151194,-0.04449320596526656,0.0,0.32977370292015556,1.1422951540537356,0.0,0.37548967899423097,-0.9784268940390185,0.0,0.08051641582165432,-0.5081095918027734,0.10028174610343639,-1.018081450889038,-0.02198071854248399,-0.4593010841456933,-0.7172302401082258,-0.09954976591133455,-0.8035210299000776,0.6919629789933045,0.0,0.0,-0.28840190341139527,0.0,-0.20807104342878044,0.0,0.0,0.22898355173221202,-0.2839416642302483,-0.03279961138380495,0.8762143422124424,-0.01616548493572339,0.0,0.15540091718487184,-0.06651477637962193,1.7382022873069354,-0.4104947689735534,-0.5776678414590917,0.0,-0.06732633398008969,-0.057245765562872794,0.0,0.0,0.15097812320353607,1.0791009433582561,-0.047466021274665475,-0.20201061347637383,-0.029812257867692888,-0.3573259673287048,-3.4960155622155753,-0.28753069867960646,0.0,-0.2932524334756401,0.06226846821421641,0.0,-0.1192418008011074,0.4076256442043644,0.018005918496723936,-0.031025729355408503,-0.12234324246227339,-1.0915475980178984,-0.04979507569271899,-0.004317219694413982,0.0,0.0,0.0,-0.001464130230141011,0.09705448661549661,-0.44107035399913536,-0.023346894793987057,-0.5220696010978282,-0.17541486238351678,0.0,0.001080689350827264,0.0,0.042728920184170405,-0.025492528701588846,-0.03444433417868044,-0.3197844679394596,-0.0033604871646282946,-0.6269479874831695,0.0,-0.3273653952150118,0.0,0.0,-0.0630615413505777,-0.005272675284467325,-0.05508576201494748,-0.00918606112517517,0.8133612996560675,-0.12347620162724546,0.08399463948949405,-0.10786465038242973,-0.23425913931416623,-0.007137653439973379,-0.09630201932623565,0.0,0.0,0.0,-0.22668723393333357,0.448203553425158,0.33936755906001004,0.2626967691192134,0.0,0.0,-0.04291885254746165,-0.31284470924035557,1.5503187524378779,0.14004364528445515,-0.1998625021710877,0.32617538961952003,-0.1187294701320017,-0.5318174488223857,0.0,-0.45825283992616184,0.0,-0.16563798960537796,0.645505327123682,0.28882600667056385,-0.008554749120323096,0.017456716998173496,-0.0125864870165407,0.0,-0.028822376376561584,0.0,0.23101426120393012,0.3952081649991766,-0.1263111454382454,-0.19142058349427593,1.0343481098737866,-0.27244616411000977,-0.3919356054528742,-0.029642589258612663,-0.0020644163825076244,0.07738666485474724,0.0,0.314940137262031,-0.5260334476809042,0.13928594556430246,0.0,0.0,-0.015121418569707867,0.05186565818618231,-0.036259958636288746,0.5319702633333994,0.0041136242687535235,-0.00020006379719963345,0.12202075258184031,-0.09039994254931638,0.009428145383427601,-0.010594517155727514,0.0,-0.08025910836181792,-0.003977676295987711,-0.24826807808329124,-1.1436240839708227,-0.3087779308087158,0.0,0.0,0.0,-0.4556328170229002,-0.006307664382651766,-0.02367784477342997,0.07240435590930502,0.1276502713243151,0.0,0.16368209479067092,-0.27884512446310755,-0.3725369480847904,0.24037097034676022,0.058974346114134754,-0.011436669501285258,-0.02516125166836562,-0.011069325720155626,0.0,0.09721879193261548,0.0,0.046430208047426307,0.0,0.0,0.2719159620338868,-0.07586299623572496,-0.21027832657355305,-0.3388553363220551,-0.05231407365927629,0.35540474678900813,0.0,-0.2706691911107437,0.9720704058146419,-0.0960060580364851,-0.10113412565517045,-0.06755148140481895,-0.030556366256533612,-4.667907713607101,-0.3218718051388419,0.0,-0.058752024456332,-0.009854664278617153,-0.24671217944023127,0.0,-0.053501164963042254,-0.010335296681549895,0.0,-0.5284977196839167,-0.4220128269553783,-0.17959367338885862,-0.03377754089459387,-0.04989892137895277,0.006846846820597843,0.0,0.14873865937592812,-0.04242536791136973,0.2412346645245565,-0.7151026883173764,-0.174437976581631,-1.1696510361840593,0.16043903601203657,0.08651013624234614,-0.07889634431670735,0.0,-0.016727500150293843,0.0,-0.10277560047336308,-0.22243201372712954,0.0,0.08204127084010014,0.0,-0.05112488750713247,-0.08989885226974738,-0.09998234110091613,-0.2610755559634495,-0.004355637129064886,0.09636316178936787,0.0,-0.9612051401491621,0.0,0.0,0.0,0.578410101234233,-0.3191100506802398,-0.0074093967292800655,-0.19545357012105527,-0.965018756976731,0.03403853069909081,-0.18251788612434727,0.0,-1.9045839292264108,-0.35561634784262064,-0.06689677758964951,-0.26847355176260573,0.31006563143359867,-0.38322985525376047,-0.3549870305018215,0.1747228656232544,0.27271747313475236,0.0,-0.2543022920737112,0.1303888849287169,0.0,-0.3027318209193511,-1.1821389435504703,2.019096997779224,0.0,0.0,-1.1962629381751604,0.0,-0.5909905136350656,0.0948802678345613,0.0,-0.1017393322200056,-0.40560552570711245,-0.13436207797384048,-0.0897679966130851,0.14248931660926883,-0.026848877539499025,-0.009202457045572756,-0.17447226332757665,0.15981175262244907,0.0,0.028967622284608266,0.4401738868814401,0.40564555227380567,-0.19145008430934168,-0.03377754089459387,0.0,0.0,0.02148548667344094,-0.5848882958382751,-0.21239824118291625,-0.09513473540534831,-0.006773999078511417,0.0,-0.034722699998808,0.0,-0.2590558747204333,0.24025641912988968,0.45824513494639113,0.0,-0.18299017292034211,-0.029374302765627826,0.0,-0.05388388606847033,-0.08514578232004112,-0.010286603210239935,-1.4469176062997822,0.0,0.10866318831354757,0.36382210249441976,0.0,0.5397018097020759,-0.4539318456852044,0.0,-0.04939344144256809,0.4239698841309303,0.0,-0.13627523412984754,-0.46510584700562363,-0.3170299996151951,-0.019947221094724445,0.06665666963391906,-0.7737536346961784,-0.06577637975598206,0.0,0.02293769388266952,0.0,-0.11240620715018931,0.5471742144705333,-0.01722685722993508,-0.02699738727105922,0.0,0.0,0.0,-0.24820010073029714,0.0,-0.30234322591174834,-0.007235445767301749,0.17390947558757153,-0.009831379175338203,-0.2502369223907952,-0.3358712498159555,-0.6295843222609825,-0.16830902176809065,0.25644135755771047,-0.3023741581406721,-0.1518143615562091,0.17580484237533087,-0.10879779378158462,0.0,0.08717213662228025,0.4637675983366889,0.0,-0.020515639924135604,-0.13009918878513116,-0.8695024500007176,-0.009843760371733101,0.0,-1.2337448326684177,0.009862694757510192,0.132397246954098,0.037887986934331326,-0.045960512797744574,0.0,0.020295900508633457,0.19960677883463035,-0.2348709175070056,0.0773660239693744,-0.027910571650462672,0.0139242809311944,-0.031822940000402755,-0.1297593831388005,-0.019023804818992667,-0.3846191238519896,-0.15331811974839873,-0.08270387052158876,0.0,-0.16796632328133554,-0.08756678888703573,0.0,0.3209930722262632,0.0,0.0054202342959255466,0.0,0.6381403375376382,0.0,-0.013776621881617027,-0.4256251881047392,0.02623245997930824,-0.19117260882230952,-0.2459967949064347,-0.3993520157920236,0.7899325583272941,0.0,0.14325161836968617,0.20556995786860358,-0.3856555894399146,0.520293318940567,0.0,-0.16804626185744187,0.0,-0.2676095634342359,-0.04788696975829504,0.0,0.11748872391747014,-0.09586157525408168,0.13091076198051987,0.0,-0.6014477624633174,0.018163503044741357,0.0,0.0,-0.17864442866708635,0.0,-0.3504973874982967,-1.7777896759731486,0.0,-0.11929161687006067,0.0,1.4564920651483808,0.021324521110118358,0.39602693850538223,0.02891356206045544,-0.3164582932820401,-0.003248141370347206,0.0,-0.022671821517614356,0.06484240262442863,-0.00952999977513914,0.0,0.0,-0.08785568471805491,-0.3037926015649977,0.29980388725975643,0.5652658974089314,0.007116553720419784,-0.015421168327926386,0.05661316192981694,-0.020032835691608783,-0.011446945777019494,-0.13477158838614886,0.038351111927628564,0.0,0.0,-0.027608144019248014,-0.32580589727478276,-0.010832004758913003,0.0,0.0,-0.008001917192008738,0.0,0.6879590248412226,-0.4479313259609021,-0.12122059647535642,0.0,-0.45873778516142016,0.0112991604181676,-0.03121502486883166,2.2429347969317033,-0.1660575074910978,-0.014071836024203086,-0.12322977006143399,-0.11943880874568029,-0.06306819388130475,-0.06722201095504725,-0.036697765938366746,0.08193366016817522,-0.1215615537087334,-0.044160055759318494,-0.00834979118524101,0.0,-0.03156777714588245,-0.11603639158925896,-0.21377665700724643,-0.3179971026341298,0.0,-0.04558916564283849,0.05563175251548228,-0.3472298924146755,-0.014647037328146695,-0.10225146889852471,0.0,0.0,-0.2470961277397423,-0.11497214307570072,-0.006215831100446445,-0.1329368127599174,0.5116948498119513,-0.09033509103278109,0.34005816663809435,-0.09621673906953444,0.08959092121597341,-0.04019929433328168,0.0,-0.11822740967124264,0.0,-0.2553943493599652,0.49170511402236505,-0.003966712731100966,0.10534250474287722,0.2099094125208827,-0.06329367063027799,0.0,0.009368168119993825,0.20208287815655648,0.0,-0.3683042780583486,0.05458895093273045,0.040546262645544305,0.3606536552969179,-0.0019497019027706903,0.0,0.0,0.0,-0.36960279191169815,-0.08125443609754165,-0.01364675356080071,0.6050230425095138,0.1979549291171154,-1.171293148776328,-0.1937889606178904,0.3500067468630571,-1.1959481362923385,0.0,0.0,0.23073434837324738,0.0018989010917315294,-1.4241633012383843,-0.9555881563394432,0.12687045438770506,0.2609601184443471,-0.24976721357371892,0.0,0.0,0.11492084577412295,-0.3104329603754407,0.030027477176377916,-0.38915890867725406,-0.09191410691822305,0.0,0.0,-0.006623935340631154,-0.04723038604323901,-0.2306323287912006,0.0,-0.1434464579440571,-0.015493447449741743,-0.7398829640526581,1.2691502248108582,-0.02759429122662127,-0.153212382342769,-0.01956769558135733,0.0,-0.14195603042881283,0.0,0.019341096642410342,-0.14529071644332683,0.03639230614055544,-1.295092488785073,0.0,-0.5618820981231822,-0.11436645774633018,0.0,0.07522368378959746,-0.15825774289097264,0.0,-0.38276208381245774,-0.45839827816014855,0.3727429028130993,0.02022874694194685,0.3455450027975122,0.0,-0.384485956300754,-0.8105535644435469,0.0,-0.37187084493855815,-0.030428970955584674,-0.28562053923448694,-0.010849432614947894,0.0,-1.3660828272410537,-0.08025910836181792,-0.09974202731157289,0.0,-0.9611352918596926,1.934273877142851,0.12005391645053691,0.0,-0.11018292170486663,0.0,-0.7333802181087686,0.0,0.0,0.06916028979539371,0.6012703135704514,-0.670066262321296,-0.24341599711691358,-0.908113933987702,-0.0497329070386883,-0.2638066733744541,0.0,0.0,0.0,-0.16709105596026774,0.0,-0.5542174621232362,-0.5342489005892904,-0.06626576925938878,0.0,0.09941352831902617,-0.19364650022560037,0.0,-0.0374213613229794,0.0,-0.011132062922639897,-0.3923666452943038,0.0,-0.7302593241002016,-0.026848877539499025,0.268913349485646,0.0,0.23676535137083077,0.3153032121719188,0.07417432667143377,-0.09707618697822473,-0.02150551835686442,0.12012908093447208,0.2623849701938572,-0.17163491889524324,-0.8168126345697361,0.0,0.0,0.009414373276214751,0.0,0.026878577703843044,0.6233188246401146,-0.8159792469218068,0.0,-0.2689536499604312,0.795385939170443,-0.12273470231413207,0.0,0.025582056077555967,0.0,-0.0008015024081641981,0.0,-0.00648827168019361,-0.7946521582336507,0.08534458139900598,0.7369083591715262,0.0,-0.06151572497864099,0.0,0.0042796827929505185,-0.9182506472051682,0.0,-0.2267684104577483,-0.15681553184745936,0.4267137851611792,-0.2862249423651551,0.0,-0.025417018250155122,-0.01953944575199632,1.2100852489220726,0.0,0.0,0.4409823350583916,0.0,-0.13720236095518742,0.2924465452577404,-0.1645837059885644,0.033670668566369515,-0.02894553039621394,0.13877967863097146,0.21986498544507777,-0.3740457583269822,0.026791804527184153,0.3062631724346215,-0.0031538210033560405,0.0,-0.01791796719256572,-0.00032848487132402913,-0.20515565034965058,0.742191978970681,0.7269547462619598,-0.017221226226302035,-0.07751564106171974,1.9821963309087334,0.0,0.0,-0.2467574192401123,-0.007384407237220008,0.4392121714787216,0.476292778755137,-0.041329913077311896,-0.10766313720915549,-0.08927972660077932,0.02225849830772664,0.0,0.02269836827231067,-0.6789651331978349,0.07777161693498062,0.0,-0.030140357454832133,0.06899539766971072,-0.13223507322572048,0.12372882698406307,0.021142104692196195,0.099235513606331,0.0,-0.14229452726253514,-0.033466334849489784,-0.027386297824232225,-0.09941266294330915,0.0,0.0,0.0,0.0325346000617588,0.020651411090252356,-0.044597884432523084,-0.09950627548717667,-0.034695605111589076,-0.440312242555214,-0.10805895837762158,0.0,0.0,-0.9895530735702306,-0.051966386475295265,-0.01770206636210348,0.10193697379066505,-0.19234574074367145,0.0,-0.2106794218528841,0.24816593444734547,0.0,0.0,-0.6490905050897241,0.0,-0.1961660125190069,-0.01801150105097181,0.0,-0.4199992693695793,0.0,-0.13829438868733532,0.10238032489671889,0.10395458781770286,-0.4439503764952852,-0.3675417069503649,-0.10940029094930823,-0.034756972506691027,0.0,-0.44306547620002046,-0.03691052577455126,0.0,-0.03840533478166546,0.030513128864703823,-0.3938005349576482,0.19074958903779513,-0.2910442418494734,0.39410509349705547,-0.0470385102824007,-0.005366608919176691,-0.2759137034651686,-0.017383518620487506,0.16251357997205323,-0.018597819219646684,-0.09061867380153583,0.11692023853549505,-0.23061015573555183,-0.02133862062106975,-0.5078753357547272,0.0,-0.18097487579476626,0.0,-0.0544076956376856,0.005894447864718705,1.3051316747163195,0.0,0.08639474765452226,-0.0021918472196245237,-1.4076059918045127,-0.24337649545608142,-0.41015311410206284,-0.016933897897731382,-0.17323881065950925,-0.003144167677583568,-0.14715932642910007,-0.003606384789007879,0.03813284480667442,0.0,0.0,-0.13340025608314915,-0.03747568711621966,-0.07105351020820272,-0.01654477049257429,0.0,0.15057524460328314,-0.39227128852717247,0.179585706313832,0.0,-0.29049326731287306,-0.31283808481099895,2.9266382243397087,0.10209479317423098,0.2431197790342503,0.0,-0.1288201373916279,0.0,0.0,0.0,-0.22334688607298167,0.2365792667586213,-0.05175477962939523,3.08653028259216e-05,0.0,-0.4224081245237055,0.0,-0.19087242356828193,0.0613746108013536,0.8364085919609733,0.2993411237957698,0.06738660789199692,0.0,0.5385834272585441,0.38080208014999767,-0.06120712310977738,0.16064704820244557,-0.22688665278035317,0.02265651499913097,-0.07054313803382413,0.0,-0.0147974167445295,0.054733912792198164,0.0,-0.15459730955903495,-0.01115243015917876,-0.09389916471713851,-0.54913690562559,0.01024318321042685,0.41626132557300966,0.09953438971287196,0.9280242717966638,0.0,-0.023308203451058076,-0.07890470707307334,0.0,-0.33171282343202213,0.0098405821173045,0.16631915351246152,-0.05643066024062201,-0.10906165390788547,0.08332422964194146,-0.24885054453986985,-0.11902000716777496,-0.48045437857633144,-0.06300102716267625,0.0,-0.11122044355255226,-0.020308275707812927,0.0,0.0,-0.062129593752245166,0.010086180981419012,-0.05725782424515509,0.0,-0.005857927044502788,-0.5038366450036428,-0.3739181455714714,0.0,-0.008160250343479235,0.2968931027139687,0.6773258369951034,0.20374943001275345,0.1514262026598086,0.002704222893368872,-0.014985565324467997,-0.36733717782977626,0.33351934089829693,0.0,0.0,-0.1311639267439058,0.029729285226013417,-0.03796766267074756,0.0,0.0,-0.06048114098906431,-0.815337079521678,-0.0038762456303439957,0.0,-0.007044025290753659,-0.4640032158789665,0.0,0.4114797902369792,-0.17679074625338748,-0.002468491853805142,0.29121910233943327,-0.14660069029324033,-0.11299448790359978,-0.2746367700438522,0.0,0.0,1.320568939498631,-0.05515209554604329,-0.0140272445167425,0.0,0.5947565051601458,-0.47937618041954644,-0.09362980627540163,0.07050710001780036,0.0858806548691323,-0.09194120377079383,0.1212210012180633,0.09360781044556699,-0.09990159064291702,-0.0012648657445192123,-0.007324964266873767,0.2560998923803799,-0.1051343498426048,-0.12722715589011233,-0.07051307268409314,-0.8327440465135796,-0.1867742726232066,0.0,-0.2909670345097515,0.14270086583067973,-0.0010183039834874104,-0.3751661681137721,-0.8054074823678422,0.0213869841707153,-0.030445533021820924,0.0,0.0,0.0,-0.3189477558595698,0.0,-0.04064230937588926,-0.7940358384646086,0.0,-0.0772035496239716,0.11308640224450181,-0.04151638236101427,0.0,-0.08798379419639878,0.007924488708719044,0.07830155682710248,-0.0033962718066660683,0.2510188813592471,-0.03617489559145949,-0.059011784785536155,-0.2691358137228709,0.017808829884344585,0.0,-0.18721354406899007,-0.015599427668406399,-0.13458849078000396,0.0,0.15710821173890163,0.0,0.0,0.5526535139456699,0.5352937229814354,0.0,0.0,-0.11623862583938072,-1.2548708259739814,0.0,-0.036381456121926135,-0.23067294104724956,-0.029265485370736505,-0.024098133709428052,0.0,-0.01164784023103396,0.36502863858281503,-0.02152012918620122,0.09014580262227369,-0.25124931575482073,-0.22027545827719125,-0.20385654503969544,0.0,0.0,0.0,-0.10993424260723468,-0.002039619129934928,-0.3163477186534285,-0.2961073517021671,0.0,-1.7242817096919019,1.8248929266522258,0.0,-0.060861657843879216,1.097119289956922,0.1398538706663523,-0.4180692278667476,-0.9688801068130842,0.02885243248066888,0.0,0.0,-0.12487145955825511,0.0,-0.07463647472952131,-0.13517243424899789,0.0,-0.17731472163209686,-0.39271173878884796,-1.0622746200744337,0.0,-0.046871506455451725,-0.2993836166643252,-0.2615948592708122,0.0,0.0,-2.6014027726462774,0.14280971525575986,-0.4894547640417199,0.0,0.7127117141151654,0.4741003091938005,-0.13066965222101404,-0.0285240436272699,-0.042644503856775394,0.03261012231022119,-0.01654636114003506,0.07930620039844029,-0.004874110115939423,0.0,0.0,0.0,-0.47207375695576714,-0.04758328018780432,-0.00882150673999416,0.23979364000625533,0.009753724438718966,-0.12829554767315623,0.0,-0.021944460664493418,0.3882051490873875,0.0,0.0,-0.03152095867316012,-0.04542020351091228,-0.6527684841753023,0.15608898215106007,0.22892576936858242,-0.050692251965847215,0.005211325493813802,0.0,0.24042510479629423,0.06167972688967088,0.05648667782849949,-0.3687922551007659,0.0393418070189306,-0.6283514935794983,0.0,0.03423620197950801,0.0,-0.014283226437598025,0.0,-0.0020935834123029743,0.0,-0.15616833825245655,0.0,0.0,-0.018361140906464565,-0.04594632966607576,-0.04470810833038273,0.0,0.07250255210194712,-0.10591257576013571,-0.05976617702522422,0.07735594223376488,-0.2778150883444524,-0.22846795367544626,-0.2056653113150449,0.0,-0.07078227958219666,-0.0027157328499839714,0.12392996087171652,-0.4251781076221448,0.0,-0.32404911359784194,0.0,0.05370339662619768,0.0,-0.029439741383463565,0.0,-0.18669059222181733,0.0,-0.30398955410481815,0.3944884841302364,-1.208053028685009,0.038605895880926965,-0.18738316537405417,0.0,0.017423401761984085,-0.047030116684391415,-0.06797138013429276,0.0,-0.07859030531028607,0.0,0.4085692890927913,0.030771333435509547,0.034316703923340255,-0.08059004572638724,0.012742258041308973,0.0,0.3043706107554995,-0.06675499175546315,0.4826980649428229,-0.7074038744941014,-0.004161909772192911,-1.8488195251308124,-0.12450776536023771,-0.44165256722834006,-0.2146242562640887,-0.15206575905458117,-0.44807380701606714,0.10250177558594126,0.0,0.16466232213708862,-0.1457094610264867,-0.08775990675390301,0.022451657661470562,-0.2835618756794996,0.0014974338181536894,-0.5797840703888842,0.0,0.04343018122630292,-0.18148678362207576,-0.6138120740107892,-0.010403790248986038,0.11475510385942533,0.005225246903031486,0.0,0.7006786768069017,-0.11620763525288506,0.14985715678908548,-0.17350126442748476,-0.02221641155414226,-0.12573912530588321,-0.059638756203847704,0.0,-0.05830686324401141,0.04686863050833353,-0.5924873341388822,0.014470450090765644,0.0,-0.4795450409946966,0.0,0.03960607323610254,-0.11408400246042354,-0.006497673112725441,-0.3041532229684159,0.0,0.2994255095236223,0.0,-0.18084530293571963,-0.14202899344914768,0.0,0.05653370062684775,-0.01137280703574942,0.0,0.0406673815850647,0.1469619613218595,0.0,-0.36697720842358617,0.0,0.05783133846716087,0.0,-0.10961808385732892,0.0004343146483242539,0.010055080348065284,0.0,0.0,0.21420826104383084,1.9492842608674559,-0.13167377769363822,0.0,0.0,-0.09421495150284216,-0.31119738805156955,-0.06617805810207211,0.08043612065378722,0.26446739739678493,-0.19546301080901743,0.018392464051160722,-0.11947321838756438,-0.02958964416713033,3.5535881580247857,0.02302141338932004,0.10907025847896018,-0.002196712476246866,-0.1298971609208826,-0.13133575688827967,0.0,0.8921426991753189,0.04631434365598899,-0.018180058636671333,-0.015580859619190774,0.03566261556384928,-0.04766243233976925,0.0,1.4274668398284418,0.031112961714896487,0.044592621954245105,0.0,0.3095837423936527,0.26586426426742116,-0.02779877667532508,0.017471989256385975,-0.5562501911878261,-0.033311159591097074,0.0,0.0,-0.046652646811698464,-0.10246500470973473,-0.08490916935958519,0.12211194738334726,-0.07733611702077955,0.0,-0.006055475530553075,-0.0009664824429815442,0.305285897718802,0.0,0.0,0.0,0.19363692428185958,0.0,-0.005128985453137751,0.21744813855624592,0.32817201259750156,-0.24313576131564732,-0.026475169961694613,-0.08313613907656377,-0.06684854814689105,-0.05526134489252314,-0.0876192852014906,-0.05017797896313318,-0.06112865321652485,0.0,0.0,-0.0896257485280416,-0.11451003873434011,0.0,0.001014584997220508,0.2641872171178503,-0.2899223463187006,-0.09076330078135264,-0.05631069032092296,1.6435837042877481,0.0,-0.1023318993398009,0.0,-0.011494939324990674,0.01501949302313919,1.4144791342662613,0.0,-0.020065473259940625,0.13907526470097908,0.0,0.22022668314919705,-0.07372281598591707,-0.11134615588818411,-0.08526525198365867,-0.05249066917110277,0.005583373617610294,-0.1138216008353514,0.004682223576968746,-0.13066965222101404,-0.18833393456531305,-2.5140370953301123,0.0,-0.09150516733795101,0.011032875029292729,0.7167844108487218,-0.33495315030831624,0.0,-0.17717794629678363,0.0,0.0033367817437066453,-0.037207537223633035,-0.7567599273567148,-0.011205781087915758,-0.054202133135573004,-0.006259075402116432,0.0,-0.1177410257952657,-0.4410044148626011,0.0,0.014164143489691175,-0.07483806374248847,0.0,-0.40014464178890713,0.0,-0.016393377960927772,-0.013419595615186035,0.6144052474061746,0.023325862008867413,-0.014379033623655117,0.0,0.0,-0.7408149140023583,0.5409767368490263,-0.27439492789304903,-0.07912970470480699,-1.8337431203718946,-0.1223692561014231,-0.2837538556764913,-0.17177115583948588,-0.12494593353532113,0.0,0.9174703288205681,-0.7498337142326454,0.05074454898186928,-0.4012039686437169,0.22580901246140328,0.01812098993876142,0.0,1.938071202510282,0.1025383957775682,0.4001754907958125,0.1352592681798053,-0.028627549491460284,-0.07960735596029499,1.9544154982571496,0.0,0.0,-0.08122995915379926,-0.0526290032907567,0.0,-0.460985933706472,-0.03722699112264276,-0.13158481906857686,0.0,0.0,0.0,0.0,0.04197698864221053,-0.0989939545138685,-0.04173738616550439,-0.05543232669432169,-0.07519113939277386,-0.08027947039696909,-0.07780661046848268,-0.004340871677368522,-0.16602908512550096,0.0,1.9124602413735838,0.0,-0.07525481230123557,-0.15297179268093836,-0.19954416928808041,-0.3415091395610736,-0.01176234490556864,0.09761625952443145,-0.28833975601735756,-0.1499514556992915,0.09214784484137561,0.0,0.0,-0.14936161995763134,-0.2772627877856591,0.0,0.0,0.10455431150915083,0.18974441097668351,0.0,-1.66970191983323,0.00590240162061941,0.0,0.002659408411999494,-0.08744684957255386,-0.9271216551527434,0.0,0.12298344735006708,-0.056162404183005325,-0.03339827203302063,-0.11853499549791656,-0.06797138013429276,-0.10813329975708488,0.078532056180019,-1.0710329833794021,0.0,0.08828009766136319,0.0,0.06933782788148128,0.0,-0.19259123037859355,0.0,-0.02815312016687697,-0.04901747861829589,-0.07844446889362224,0.0,-0.0008031701618247637,-0.02535418719747528,-0.05385874926882611,0.8641466595211412,-0.19223157451001296,0.0,0.19016087927393258,-0.014681980601851633,0.2270234706952779,-0.016508769312532617,-0.017872304817562055,-0.14452707136421902,0.2703369277000806,0.0,1.3074254072737217,-0.06803004057801362,0.0,0.7290994400587507,-0.042969835734845786,-0.5306472455753652,-0.08544590583977005,-0.03638225858592537,0.0,-0.017411583269988547,-0.03633562379222708,0.01872517677590388,0.0,-0.03788117058948086,0.8000276902275727,0.45447646247720386,-0.004415310269897486,-0.8432039894512819,-0.046838353672134514,-0.11576713020300464,0.0,-1.6271850053361232,0.9261313884255651,-0.49222485105696995,-0.21436302929851134,0.0,0.048714847469740946,-0.06090453719567669,0.0,0.016695473403103362,-0.01791455352703407,-0.34134693421387674,-0.9473688483118194,0.06727239981317985,0.0,0.0,0.14370637957277105,-0.05600899704158018,0.0,-0.27579325513627007,-0.07401111320162239,-1.26733010407182,-0.02779877667532508,0.0,-0.8837956468105196,-0.8292522442278387,-0.3344756099373142,0.0,0.042325074911534345,0.0,-0.10045801236030469,0.0,-0.07356369424782465,-0.6541031056258519,0.0,0.2834024857322351,-0.028520878228741192,0.9588173658677985,0.31757538852047473,0.025335986119264894,0.8840535334245967,-0.1849800284260459,-1.148063625724379,-0.1873401677327948,-0.12846432967692836,0.0,-0.030425034375152937,0.10794676099551756,-0.2903948839861132,0.537370045916169,0.06382605881537175,-0.0018437513151381274,-0.11592185406528832,0.10126857727044346,0.037998401664802756,0.0,-0.13619505469066495,0.0,0.2271926001297285,-0.636574013401391,0.31626012853243746,-0.49360564870034296,-0.041292372211207407,0.0,0.06878021941824726,-0.13945813545238653,0.0,-0.44206233854171045,-0.3567470945024799,-0.06384051639800527,-12.762418344972236,1.1840160747470265,0.00751777738895143,0.030189018860619702,0.1588205951598073,0.06751213242688536,0.013800808516082745,0.0,-0.03227556945382698,0.0,-0.4242589832093353,-0.18407194725362058,-0.05014415268804376,-0.023181464508959963,0.21684693104070388,0.0,-0.8037368903243275,0.0525852196833157,0.6476916928443137,0.47981896977078703,0.0723412497004583,0.25809622442388686,0.0,0.0,0.4168540302693484,0.3539686456919635,-0.01011308808628867,0.036452724312745724,-0.313639229829581,0.0,0.0,0.0,-0.22224148221323953,0.6388629194457869,-0.18797235231360773,0.0,0.016266489181044196,0.0,-0.013580140213192694,-0.46246046317981854,0.14290501491205612,-0.13816556691079285,-0.02799521403856434,0.11666872771931429,0.0,-0.0038849110189145076,-0.03614075966966024,-0.07573197515250557,0.2539222697306538,-0.09135463066640259,-0.351325286994185,-0.004859977540455205,0.02530857760797766,0.1941114876415514,-0.38953630863485933,0.0,0.18468824684093915,-0.16477404983935992,0.15948372557008514,-0.2722291048829908,-0.6015312768294371,0.2642578793315478,-0.10128999368625241,-0.02851810438908989,-0.0008959877100795353,-0.33091129903239697,-0.11612506497272286,0.9106919916033377,0.09246980533710575,-0.07070698091143977,-0.6212048071103358,0.0,-0.010878594655154042,0.0,-0.15929664471471727,0.19871164701957172,-0.00728510025631038,-0.07908480592471015,-0.0014056201663152207,-0.05121498599291864,-0.01642099796805186,0.0,0.016011641523671055,0.0,-0.022210531072176895,0.38941655837335365,-0.010384733322726528,-0.5784186922189054,-0.5418109594641762,-0.16852253775821055,0.9169848078401736,1.2657413965360857,0.20512403885421074,0.036818561442397126,1.00208345848428,0.8509279009312163,0.33057204891484615,0.3190295911856663,-0.05933689517567361,-0.76763237436269,-0.20841094249763306,-0.2483066510623243,0.8183552459017148,-0.5073642308261159,0.2500103293439196,0.35014044485834533,-0.05259180074353142,1.9627673723562182,0.0,0.11866831257868038,-0.343389171732911,0.0,7.991763739670632,0.03874658669203511,0.2897320423959299,-0.09497991594720276,-0.0835497061580699,-0.03498985550025074,0.013888779490400942,0.0,0.1113109553162076,-0.12584667814042766,-0.5956372967135933,-0.08443906552122635,-0.002048156810932334,-0.017907474058353204,0.0,-0.8111156503300594,0.0,0.0,-0.14417711434119274,-0.1383089707134718,-0.10189092324125737,0.1896147689552794,0.5567680091487881,0.04951227541796021,0.0,-0.37848073075938454,-0.44231886954013105,0.0,0.02337553688966678,-0.08811483429826139,0.5374945638802052,0.03583169684930201,0.025103885548154396,-0.15709880798393894,-0.0725706055404562,-0.2556062856236306,-0.026591625676109332,-0.2091521396424658,0.0,0.11885069499936841,-0.016774056052900742,0.026206020676013873,0.20131678976321898,0.03954873831517919,0.0,0.22658343914282414,0.0,0.0,-0.30112409763495346,-0.07416028937578661,0.0,-0.033260790078730576,0.0,-0.016057918866463745,-0.7002912822491874,1.3847982729414374,-0.29394956068152317,-0.336008322439052,-0.008103614289172922,-0.4673424149734279,-0.46617711835977116,-0.8539320039099815,0.0,-0.4255053795047291,0.0,0.04464112146831449,-0.1675872638121129,-0.4397444887314392,0.0,-0.6175141350701229,-0.023383133217323323,0.14724405391220774,-0.6474000315267142,0.004515298294293734,0.0,-0.20319876573364076,-0.005613276307977906,0.2387625500059021,0.09396490541695302,0.0,-0.0611487869785236,0.6310583846029596,0.03395200403624805,0.0,-0.019057319037424046,-0.048986154750285935,0.0,-0.012539039615632257,0.0,0.0,0.0,0.18148580860370422,-0.2086545482855245,0.39175888545714327,-0.26677652391023515,0.0,0.7724505398697965,-0.1881609499652202,-0.026234690577254142,2.5675710071668854,-0.11486977479131746,0.0,0.007866085428565813,-0.2755521183068177,-0.11113468875683451,-0.04949323873054077,0.09135196694373177,1.8457571863883686,-0.09504037559130231,-0.26355419121807716,0.07989871656764976,0.0,-0.0037082746435800704,0.4557917107506058,1.691449727431533,-0.22400324337553132,-0.0006650775405057051,-0.12270661059816801,-0.27657617892181063,-1.5787243503683797,-1.504709476055389,0.0,0.05011079336276055,0.0,0.0,-0.3035779273432889,-0.10262649598912521,-0.15621180855842826,-0.2629871083938576,-1.2561375268502677,-0.22256757847008768,-0.09324811264681662,-0.029440016690757298,-0.023397247547541654,-0.9779435096771919,-0.3528242162990489,0.0,0.06650790180655815,0.07755215965446362,0.0,-0.36821477843726935,-0.1310247352608495,0.0,0.17497343683792133,-0.09354854141196728,0.052697933158795965,0.00039987950661529427,-0.13977342126646922,0.03549573304947375,0.0,-0.015496213153770273,0.032401440585096995,0.0,-0.006545390964998451,0.054531683165466145,0.0,-0.07975426568118776,-0.09793462929565497,0.0,-0.05640499358439213,0.239574659347836,-0.2427701197095222,0.23689842366308064,-0.01765822117222262,-0.5302015047395747,2.579285530460687,0.0,1.1929421827574982,0.07341862316377257,0.0,-0.011450507718111486,0.149741589323103,0.0,0.0,0.0,-0.3430501472399011,-0.31375094808793147,-0.1276415957944472,0.0,-0.345412349298119,0.0,-0.5409627643751531,-0.11502509697237638,0.0,0.5423113626774219,-0.06726073208716742,-0.005800870940551431,0.1091734472801808,-0.4103523257094751,0.023493074241161947,-0.08137290489258499,-0.4810041857668121,0.0,0.0,-0.2973170925607455,-0.28848121385545467,-1.9109834393033767,-0.09293295798252856,-0.0029585127377027187,0.11368658957299008,-0.04293209961345021,-1.0645613316651514,-0.014672500039293606,-0.06917265203216866,0.06226846821421641,-0.012672429802316728,-0.30913494798159047,-0.019280729766661796,-0.0719748644453889,0.0538402342436088,-0.7335388948772926,0.5913126744811217,0.0,0.4863135201402545,0.0,0.08008053924088605,-0.47810253726133856,0.0,0.0,-0.17199441402679236,-0.20870763785437735,0.033338087303992875,0.0,-0.0230466603440445,0.0025241283400082304,0.8189931250520559,0.007256150630471166,-0.026679459889090262,0.5221656790177657,0.0,0.0015572743796223559,-0.05861358446163385,-1.187655562439595,0.7305794961266991,-1.787497872719897,-0.008990766447533525,0.0,0.16469761413630382,-0.016444342180750318,0.2949377489849468,-0.47369708851180514,-0.06130081631034211,0.0,-1.797479761782297,-0.10300931773903282,0.0,0.11683583210290988,0.030332341616817138,0.0,0.0,-0.06723880292421638,0.01299474845136953,-2.8072058012113033,-0.41179166391362493,-0.1220635483382651,0.0,-0.16103394948372154,0.08438907051612729,0.30623245488381046,-0.14954222473599899,0.06474485370749634,-0.10988048697861112,-0.170642029016378,-0.8210099620901278,-0.28556985982222577,-0.044232590821747166,-0.0332579539415134,0.0,-0.18025350135318485,-0.09409749169149645,0.06843658155190699,-0.18867366835740124,-0.07599607023093094,0.0,-0.23222809347399362,-0.014596502230280493,0.0,-0.3064461258589585,0.0,0.3211742164504239,0.0,-0.472361228277335,0.2877312479390937,0.05017259648748267,-0.11768575696784357,-0.011419463894369642,-0.033455937481526685,0.008306637340061011,0.0,0.34188683226270417,0.0,-0.5588112793146416,0.4276054133713683,0.0,-0.26236416844939536,0.1815772113071129,-0.041695525383739454,-1.8354727641571869,0.0,-0.08708261306603408,0.0,0.8813325018282769,0.4326384675964539,-0.016764075660965425,0.0,-0.9125807024870847,-0.024186252779384666,0.22262590402079274,0.1178680108436971,-0.20288983124206633,0.01677628765346115,-0.417606617824884,-0.32142162242704314,0.46542860043034207,1.4634214410461597,0.006299371942168777,-0.011721843965890858,0.40503440340721863,-0.013085030518939065,0.0,-3.3091191416105583,0.05323679202291694,0.0,0.0,-0.022418930031191726,0.0,0.002122202814063879,-0.08786386612497156,-0.07993834478717432,-0.367565916012183,-0.45547731695319293,-0.32926719241541286,0.0,0.04529748284163604,-0.7494682559758425,0.0,-0.35421793924565964,0.0678190780075907,-0.02036811218119294,-0.009553044638566521,-0.01116371900270392,-0.4056023020195124,-0.08033567779626616,-0.0031121449371885514,0.5171213413516487,0.0,0.0,0.09852654528190065,-0.052808846717605495,0.0,0.4700876852368174,0.017160804342126013,-0.20523330898385542,0.08082932710499537,-0.16803204085399634,0.21359297765903837,0.7322644643044405,1.603990638474004,-0.0003858631495436207,0.0,-0.05014703460611101,-0.013295812838054666,-0.04785290568511548,-0.05254560793338733,-1.0298856310825935,0.6426732373986878,-0.009007176988261487,0.0,0.17785021834215697,0.4648234600618096,0.07312258169301228,0.0,0.060211219942038076,-0.00882150673999416,-0.04550513423132675,0.07053801749763984,-0.05938760896900084,0.0,0.17148843889545667,-0.01710198480933041,-0.03416679430301504,-0.04022594839551811,-0.32270016614637703,-1.0939566984558717,-0.42714550951054836,-0.04773459193210427,0.03557138314917059,-0.014319444370692947,-0.00631727888756946,-0.0792732138317057,0.0,-0.0533909449331676,-0.31509155528354643,0.0,0.0,0.0,-0.058697941869991624,-0.6961515346374425,-1.549873399293521,-0.011620298022039191,-0.22889295223080314,0.0,0.7634059798071697,0.0,-0.03202422899061695,3.808338333274506,0.060880507865552894,-0.5497330837330089,0.0,0.0,-0.0197161319779729,0.061139195390359474,0.19096441355957908,-0.0022964804161568547,-0.04983856488781718,-0.04387338473335012,0.0,0.0,0.02105519640050923,-0.12741489481293997,0.0,-0.40465425496682883,0.0,0.003832656657505986,-0.007825419790668014,-0.11615875586422149,0.0,0.10436316547018257,0.0,0.0,0.0,-0.050050002494393,0.0,-0.03771436931204335,-0.20641762473695452,0.0,-0.26327757166187027,0.04644129188732632,0.03263140580535143,-0.4439503764952852,-0.09988163964060136,-0.01444597946906728,0.02628072436837321,-0.0018994463154383,-0.07669987366253604,0.0,0.05000703162586688,-0.10943597469018619,0.0,0.0,1.2337392254916772,-0.030745365838441275,-0.1527698765897017,-0.6994836653316606,0.0,-0.06301100817616227,-0.04009574530295406,0.05135493430266358,-0.0060192815661654605,0.0,0.4003069329083376,0.0938753202206514,-0.21899496941046523,1.2635988546051633,-0.01600086357273567,-0.006649173492454412,0.0,-0.18177798261202407,0.1120900303593475,-3.109687584992491,0.13135626820115082,0.0,0.0,0.056115752231923575,-0.005370789975376179,-0.08090428757008555,0.0,1.5991450894028632,0.0,0.0,-0.08039846010444372,-0.876409593863009,0.00886815760005039,0.0,-0.43711046609676396,0.04677179957743415,-0.37558876812642605,1.8456471340841518,-0.024277992813555305,-0.13321410089702634,0.0,-0.4189825167055861,0.033118297678562184,0.0,0.38690850435926255,-0.024518065856114154,-0.06756802203760033,-0.008441192087398288,-0.03875773128448767,0.011514409864288257,0.16347467132807225,-0.4891522711230764,0.0020000390215605818,-0.25094078521866564,0.0,0.07362482632917057,-0.002206143557944252,0.0,-0.015228941267895538,0.0,0.0,0.0,0.0,-0.013255028696929018,-0.9851539278378418,0.331760554436742,0.0,0.0,0.07536319181318939,0.0,0.004706863842178284,0.0366178692819285,-0.29880235398675536,-0.029183747310644204,0.019355184170104296,-0.34238073741959224,0.0,-0.07925896188544074,-0.13533244816118156,0.45839789505984074,0.0,-0.0759762116610823,-0.11374525314016014,-0.1591214565560665,0.0,0.1515429523877624,-1.7172868758746656,-0.052558054789709395,-0.279382222764164,0.0,0.3924910008597471,0.0,0.0,0.005564461821541563,-0.10582102643924178,-0.23018253354341467,-0.2023822328967595,-0.1743274404023075,-0.631813834095572,0.0,0.0,-0.15998879910916075,0.09001315239799056,-0.16336241023404685,0.0,0.0,0.03572151288688734,-0.06787518565729497,0.0,0.13980227868334216,-0.42941295259784773,-0.7621648176630864,-0.31565173699182075,0.20331312761840575,0.038553430521571674,0.0,-0.5010162721552854,0.09299524695943244,-0.1906532470488647,-0.05217682938985618,0.7958125842369297,-0.3665973748236057,0.010060173192229531,0.0,0.0,0.3249816956506469,0.0,0.0,-0.02045318849479066,0.0,-0.008160250343479235,0.0,-0.17013084341448065,0.7651944873751657,-1.2418703196877259,0.18562651843104536,-0.21723654135226442,0.07044720658355381,0.0,0.5829634047472547,0.0,-1.3207932826097686,-0.07591634169753009,-0.3802725121677782,0.0753236087034457,-0.10761735555787114,-0.06514254298352151,0.01345223838120647,-0.4695054986665168,0.0,0.1418987070346736,-0.0834495938094469,-0.036122274851221076,-0.08955362552333077,0.022929802461044722,0.0,-0.15226381136185205,0.3087454633667539,-0.08947338205834501,-0.014414923181715809,-0.2563869467337898,-0.011695870495284436,-0.054836234848555425,0.8877603502077702,-0.16454148762495613,0.0,0.015074376698303733,0.0,-0.29915287164858867,-0.01606771053487669,-0.49711629157608134,0.0,-0.5019320441754307,-0.27808530763476363,-0.9272678545292798,-0.4869493576691846,0.06209538957735978,-0.06414303986177367,0.19501484033602623,-0.05657395513432069,-0.07593943580684491,-0.3541382856722848,0.0,0.0,-0.001675964205261338,0.05560283244624844,0.0,0.20494268497617824,0.0,0.0,-0.10541869992188684,2.4777101103212287,0.7918403930977074,-0.06765542219632857,-0.30197131488949763,-0.009923089940462112,0.0,0.19215289531187887,0.0,-0.0026145326720020644,-0.27565282369330507,0.6510499861490935,0.0,0.12318192081337041,0.6268284264430873,-0.26818417278982254,0.12216986161433105,-0.10233325749277877,0.0,-0.02353439628629047,-0.03657758283152552,-0.21188697043956897,-0.03867795909791261,-0.00616842228797902,-0.28970577652111545,-0.22859896912635555,0.3829119539374462,-0.4585068122067294,-0.02684026431371679,-0.012672429802316728,0.024166950016050345,-0.0064168940512701915,7.084576667431934,0.15675580851737544,-0.13103072306429292,7.197883614289404,0.016122929113834106,0.2885326239030728,0.37515273812146743,-0.006475969723954275,-0.0019497019027706903,0.07431131520949558,-0.08350340311606294,-0.22626874231677946,-0.009955099614229874,-0.004586879625915049,-0.031773186178539366,0.0,-0.22777728692875213,-0.07004050989087167,-0.007531791310838478,0.38412545314079194,-0.10052365418148913,0.04534097067256961,0.17603994599795034,-0.2512049516065999,-0.03995226710814881,-0.24205360503222645,-1.5827886378661802,-0.10517941428420345,0.3263195885668133,0.0,-0.011363664306723477,-0.010605498369219896,0.0,-0.01474595408097182,-0.07911391883248853,-0.17339037770103125,-0.19462072317018433,0.0,-0.1296522331013399,-0.08326351640905964,0.0,-0.13622378345322209,-0.144557891153616,0.0,-0.16004903541405993,0.0,-0.013361121012052779,-0.16718681804905294,0.19917235696120583,0.053389365724721215,-0.16338038618882725,0.11320527792589503,0.0,-0.2561338238158832,-0.3386238036670056,0.10162072979991377,0.32323297095272957,5.640035331422451,-0.036535179569751663,0.0,0.0,-0.36038748840227297,0.0,0.011561807693692859,0.02989782096238133,-0.21118375258399946,-0.0009364109656263328,-0.09890113955719898,-0.11152225740524034,-0.057421146450287945,-0.04543967692026667,-0.4997156079546237,-0.48859724139074046,-0.014911091412863968,-0.7340982511125553,-0.11099123955206305,0.0,0.0368001305279327,-0.24113879641535496,-0.06384387563488167,0.3576676451317722,0.2619427486501617,-0.046702215694774465,0.15775485283854868,-0.08667304124581865,-1.90935585120984,-1.2613343448926773,-0.10645602002420458,0.04381136591348284,0.4771155920382344,-0.06867987045998908,0.0,-0.012801936728170317,0.0,-0.0992896546037288,0.0,-0.0010055149774167687,-3.4854105007046448,-0.06305147674862265,-0.035560160260416675,0.3207708886996271,0.05950807470073557,-0.3148309207536297,-0.04874735791779785,0.0,0.052244283219567596,-0.37950251049590156,0.11635539076668261,-0.05394841923291201,-0.01590456655945221,-0.48676940827472737,0.0,-0.05255615689022363,0.0404642688940195,0.03136177288181765,0.1424736065795387,0.1510008519232076,-0.011098007168672146,1.023847567533507,-0.41824881326786595,-0.3911783955976425,-0.9669874171101455,-1.277382343247395,0.0008109204774698058,-0.17051537069678732,0.0,3.913898228754938,-0.30617807206435865,0.0,-0.4101452346773635,-0.030406654670175132,-0.14719862533578423,-0.3810208955601556,0.0,-0.3176699051883996,-0.009506018525889308,-0.7813567320118343,-0.3111268818260949,0.012343813127061959,-0.03496533085284132,-0.42706021169688185,-0.028822376376561584,-0.23452442653466837,-0.021106567749828817,-0.13594206759064556,-0.026971405730035265,-0.31714605920362204,0.0,-0.05359995419571834,0.5382069817632599,0.0,-0.2822040995419267,0.7111968496977492,-0.06668578067069113,0.0,-0.6446211865712463,-0.013247124428399553,0.0,-0.1390278900267641,-0.5338955551328798,-0.25050175416671994,-0.004327674996962378,-0.0075376030567804765,-0.09699705149585378,0.32568005555902535,-0.7375581548885232,-1.514125975954259,0.0034272827199376818,-0.044969576244251096,0.0,-0.1756217987790696,-0.37084124648809613,0.7286775147499444,-0.27860398381667567,-0.45066445817326134,-0.002622758200348423,0.021387220758778615,0.24284258448547125,0.0,0.0,-1.587614943897641,0.13839573181290646,1.4755343942238475,0.0,-0.0014227250054247016,-0.0012648657445192123,-0.062488366555969496,-0.06150222116681771,-0.009168786290517797,0.24462796259111572,-0.9172209598165579,-0.9007877071507441,-0.03464353082535753,-0.6119711659569206,-0.442450224361381,-1.426488555585854,-0.5243686264728702,-0.04147979638672375,-0.12226312377162699,0.0,0.0,0.0,-0.009642701702748559,-0.10436392152235911,-0.018808070388862543,-0.3576773606400592,0.2002120991072953,-0.04633629438362177,-0.9554007341363886,0.0,0.017614433978106213,0.0,0.0934372568864309,-0.11298040215841836,-0.020522754542915314,-0.09668182890400666,0.0,0.09189299354125836,-0.04703672492726355,0.26385098546856034,-0.12251390231678838,-0.08135534435592336,-0.06654584121328197,0.0,-0.2868434705267076,-0.1254943299515151,1.4296434009448165,-0.025488125056185307,0.0,0.7178287204021121,-0.005394541289556086,0.0,-0.03355994791466989,-0.012536284009809037,0.0,-0.767531026050508,0.0,0.0,-0.21881526018898553,0.1610608604633181,-0.04578968319404194,-0.03226488973266938,-0.8157734607651083,-0.006452901865216501,0.0,0.021199955001378137,-0.06015579517730922,-0.733497125811202,0.0,-0.03466406068266336,0.0,0.0,-0.26678968946065684,0.31960773057088404,0.04494723162729876,0.14464562615833637,0.006333379981238025,-0.06976963033245522,0.0,-0.03259511021289103,-0.06463835996179129,0.0,-0.04526107354513731,-0.059993262749267195,0.904673679773801,0.0,0.0,2.8172605461515396,0.030590731260430465,0.0,0.2033155932964462,-0.25934487105483556,-0.011436924303189861,-0.400077442419217,0.013504190896119843,-0.37114300201444833,-0.14523975264586908,-0.11313540076121366,-0.3216286873886609,0.0,1.137422574537766,-0.023038455981776507,1.7273339463824446,-0.017485591227822034,-1.4014653789023719,-0.044592956607416176,-0.32333817144947313,-0.08435507619382676,-0.05943446204851617,0.0,0.21792744204215414,-0.18232664961902428,-0.04532464606708411,-0.004948902555534363,-0.05961527941144095,0.0,0.0,-0.02781435395582429,0.35684723988110206,0.004040093588094875,0.0,0.6612592820875428,0.02705635614250874,0.0,0.0,-0.04685983288132378,0.0,-0.046081623934767835,0.0,-0.2363658627133173,-0.16426777742385232,0.0,0.0,0.0,-0.04193392031340392,-0.044267217057858896,-0.24316580952234848,-0.03883303860000549,-0.07393057262545416,-0.09628906744122909,-0.2226106135547337,0.0,-0.13901876537167573,-0.10131465507085562,-0.06229859335053377,-0.017844733827631742,-0.06453930563415826,0.0,0.0,-0.059094042699164864,-0.07789238322674563,0.00973741158733871,-0.3431225860282714,-0.14573842054361338,-0.29742338698710735,-0.00983114586157234,0.04189396292251148,0.0,0.2794603137142614,-0.1395659567885844,-0.012167493481928748,-0.16443628534814841,0.0,-0.20641762473695452,-0.10600645783547531,0.22773941867991648,-0.04401750011788082,0.5112438326505883,-0.00952999977513914,-0.7335069785549829,0.07897715551419385,0.16869297446431153,0.0,-0.39550250260231606,0.4443215410359794,0.0,-0.28671377629869044,1.8496113215998164,-0.6983872337545984,-0.03487330759468774,0.20165321158143057,0.0,-0.17045230678359496,-1.1566369630392255,0.0,0.23531411354394005,0.0,-0.06534488400630424,0.009071185948651486,-0.144157066890545,-0.06286901358818898,0.0,-0.36404621035996404,-0.04347038271465518,-1.585604792633944,-0.20823366085698966,0.0,-0.6509619652892,-0.08045486477136181,0.18798427984313537,-0.13552953935990356,0.47409930206455797,0.8611977960240728,0.0,0.03862783857762471,-0.4412686815064495,0.09046786503595057,-0.010495071624632535,0.0,0.0,-0.23284150727826097,0.045129141921787394,0.0,-1.4707901495043447,-0.3164561467087827,-0.04505710886926137,1.2006235930625915,0.0,-0.1796975412816277,-0.012732671356001186,0.7952259517641405,-0.014641430097325945,-0.15816743894845345,-0.01833803837417917,-1.5407849623975136,0.27211882580915747,0.0,-0.06732210789357346,-0.02654291790130962,0.2741430718079181,-0.12386004678428691,-0.03155432672639269,-0.03228200928428497,0.0,0.0725386045931958,-1.1374322761384212,-0.04190238384056535,0.02208784213496234,0.0,-0.02355456418304809,0.1578159636030984,0.0,0.3667921173576065,0.0,0.0,-0.03064300709786951,0.049921240294483006,-0.4766447545476237,0.0,-0.3102957501669844,0.0,0.0,0.13743273378649787,-0.45333052469705576,-0.5856612919513486,-0.004775827049053011,0.0,-0.04259304980118661,0.028218364513395697,0.0,0.2739727446632342,-0.00013284174155161902,0.0,1.0038312083152348,-0.0010612756731966796,0.042929737810607896,-0.0031404261181088183,-0.008280644937591626,-0.15400583891990052,0.70531649575558,-0.2600768343369168,-0.15714082137177474,0.0,0.017773019457919342,0.0,-0.05253321075299568,0.14573220500966247,-0.06389786249500759,-0.15127288684624313,-0.348522012184673,-0.11801569252974864,0.15968847417944387,0.0,1.5622794857377809,0.043733137873986694,0.0,-0.06031005766716769,-0.1157241838421102,0.004971045457147669,0.0,2.099968336948489,-0.08436242614879011,-0.26308859635540977,-0.038095460673230164,-0.0029094040978112556,-0.15306324503735408,1.2468724155298239,0.024632391880666668,-0.05151880147651214,-0.7338797830266669,0.6639005083092112,0.0321466660788178,-0.08087157290328888,-0.03925751006213322,0.2726338973052179,-0.665271899033406,0.6714234781339941,-0.03037577534774004,-0.9282443572067862,-0.013087398554632042,0.0,0.19116383198878104,-0.042556229934427536,0.0,-0.2493329106880922,0.536501372612436,-0.7351011581866451,-0.4412978209054626,0.0,-0.29576789879206733,0.18872914490145104,-0.12256381503585775,-1.2583273894717422,0.19626256498628195,0.0,0.06159851467340092,0.39159130989289326,-0.8457225117299533,0.0,0.0,-1.5217660421802777,-0.1140008625328465,-0.08079854498669972,-0.1621952528213165,-0.008774293568577946,-0.09889096164921647,-0.1392087141457188,0.0,0.0,0.0,0.08451845393401383,0.0,-0.6305163688945523,-0.10547259547678475,-0.004317219694413982,0.0,0.6076692533276843,0.04447051194693151,0.060320535365710755,0.0,-1.3921843148977326,-1.271114463456076,0.0,0.0018237118217756547,-0.2209948908442475,0.00768404803894943,0.21142785466213196,0.0,0.0,-0.9398842915059645,-0.18556806667785686,0.05317453809614316,0.13036768887258005,-0.013709704152408788,0.14054147742502213,0.013862489594043386,-0.06861122327840748,-0.04272103209003303,-0.010229217326799534,0.13811549579388144,0.0,0.004921779505561121,0.0,-0.226543286886376,0.0,-0.26092487104069206,-0.29967552448825335,0.18006946497381984,-1.25046947118401,0.0,-0.0038423944203363355,0.10170820791623907,-0.0467783947040757,0.1719939726770741,0.21409577961034412,-0.0956285243653671,0.03590605942162357,-0.31416868990368496,0.14083720483623907,0.02064590932955562,-0.06905310654196731,-0.35206854616499966,0.0,-0.4073214651873371,-0.07620543142082109,0.0,-0.02953298371089064,-0.03393455578779629,-0.03209650434548701,-0.03621985532393933,0.0,0.0,-0.15401138059965966,-0.0498761411150053,-0.08060055881873059,-0.01558710310308432,1.1256612204155976,-0.07707271604481869,0.0,-0.1280723024009894,0.908920506752984,-2.167954097323305,-0.10067043571289407,-0.018474812220630417,0.3488537074160305,0.7392129248774105,-0.16812971853072892,0.0,0.04845161269790586,-0.24611665894204304,-0.03535580222089443,0.03562473092981128,-0.11868619745012705,-0.47146191469108156,0.0,0.16353964327996448,0.14738953110285863,0.21546644515684335,-0.16833813207410595,-0.028906619291771928,0.7109882382883436,0.0,-0.07690821857565208,0.47899181805759594,0.008541088912071552,0.0,-0.0006482879686281457,-0.0477574444050911,-0.0020935834123029743,0.009685407811322941,-0.09861821323849101,0.0,-0.6694193892857193,-0.04345680284016192,0.15148583737975285,0.2341391872573199,-0.388171331291775,0.0,0.0,-0.17504201802805983,-0.1796975412816277,0.7125101312168589,-0.06300149202263605,0.1668689875167961,-0.007822945597312041,-0.5591869848232461,0.16974679086872516,-0.23753513098391188,-0.052552463398016745,0.1570764089955504,-0.6265728216023096,0.0,0.051914845906155936,-0.13233025150955013,0.0566933152818508,0.0,0.0,0.09977049922302746,-0.17677392729422955,0.0,-0.10748643852979044,-3.26997556676121,-0.614007248779909,-0.035918624390136024,0.0,1.5014791175407258,0.0,-0.37619987647513325,0.15957292616663604,0.0,0.0,-0.0025984993200259925,-0.0524106315583213,-0.006076992614607369,0.08499026071499713,-0.33434134022072753,0.6864297038486339,-0.19116759107755227,0.0,0.23588999758623394,1.336042150755441,-1.123297229665466,0.0,0.0,0.7069051423616136,0.0,-0.004570812032528662,0.0,-0.01757548330196591,0.0,-0.01050453660766429,-0.6110639174537673,0.0,0.4663591529270335,-0.008410803113111567,0.0,0.30155497038530993,-0.0023209980946628764,0.0026456737625254628,-0.00811236668873341,0.5340339767190517,-0.44366245673998034,-0.18962205995379844,0.01228357407958891,-0.007798604252599226,0.4038007918453699,0.0,-0.7182427668988902,0.0,-0.03020162036663339,0.0,-0.05026924567403292,-0.3439025124710958,-0.27433989874643966,-0.27977325976113276,0.0,-1.1537377418835657,-0.28362644602650244,0.11962924500990292,0.13328692338586878,0.0,-0.1821225184872548,-0.3363049744136068,-0.11965029568485053,0.0,0.32314391656405583,0.0,0.0,-5.316807505681487,-0.4758543445812489,1.82088085358445,-0.015756605404112625,-0.20185059837370287,0.0973278890695313,-0.17479417723608032,-0.041050925506847226,-0.0224022834788927,-0.007412687059473235,-0.06411171224009532,-0.4992003793549196,0.748639878677955,-0.1968166890700904,-0.5793735164264342,0.0,0.05321215050520692,0.0,0.04715472137300569,-0.0759728376478124,0.0,-0.4165520699003589,0.3027377733770245,-0.06396853506991598,-0.06726733120708918,-0.11149727402760491,-1.2727573829082246,0.0,0.0,0.0,0.41479590028172386,-0.4561570205300016,-0.003491140658459911,-0.04643846970708068,-0.39796516398863807,-0.04866532763518966,-0.31784592946506424,-0.00648827168019361,-0.12354224404478066,-0.08286237921455455,-0.1979425626875959,2.6736717907239997,-0.23011944931481682,-0.01197945957633536,-0.024379486028302397,0.0,-0.07759508650821073,-0.021305240947256523,0.6191443674823194,-0.0017668219513574002,0.06296134335180598,-0.07954448899973104,0.0,-1.7817517171294464,-0.007352660498186465,-0.02702465175162129,0.3804240315189258,-0.34570982257663935,-0.021890932009443302,-0.03401887128929473,1.0940262753027945,-0.016607585917668605,-0.2377893219127163,0.05479999391547655,-0.016416005828264604,0.020128577218575402,0.10046166875237915,-0.07746823792895541,-0.2145512306036649,2.575010036616286,0.2150526811904258,0.0,-0.1261962678860729,0.0,-2.3787385373775267,0.6228901479283379,-0.07134527895253892,-0.9247971236610517,-0.3517280534753708,-0.037709556418131944,-0.01349214231216019,-0.004198447439063239,0.045487836093993525,0.43385281429980127,0.013920494569083688,0.7704063123709612,-0.3354308609856254,-0.02630799254009777,-0.10828995358701107,-0.04560259167069987,-0.0401115239681451,0.0,0.0,0.0,0.0,0.0,-0.047593286380080785,-0.02773301850376658,0.0,-0.5825448755655325,-0.042146974809397914,0.0,-0.020642561287954022,0.009438213382087798,-0.009831379175338203,-0.003765398170010657,-0.19184332465560955,-1.0358989043721702,0.0,-0.012768783478122549,-0.9847031981473422,0.00865232908548932,-0.1342521245547115,-0.03716505770999439,-0.4462535807641226,0.010326343676395358,1.0221920120952055,-0.09107140269459375,0.3958281309295128,-0.0035300857342296064,0.0,-0.4217998708122877,0.0,-0.3960354761602541,-0.2245521892527309,-0.12662706764399767,0.03164318414542731,-0.32913923193466865,0.0,0.09794974673361721,0.3068417582663487,0.9770627057049828,0.10162877279030108,-1.00609745028715,0.13019966546193784,-2.0450227897255537,-0.027075433787773173,-0.00815044498552979,-0.20872787475869134,-0.034316961042361274,-0.050924531926888505,-0.12195923970933509,1.5501099380831784,0.0,0.0,1.166362555675279,0.5302880321903723,-0.3940438711719091,-0.21637140990641285,0.07001094373316206,-0.11828005814192782,0.0,-0.2936321435704447,0.5570223515248962,-0.1996124583307348,-0.010599179635682078,-0.009160525084525035,-0.007449555335290004,0.9090854594876138,-0.21301280850311488,0.11475569558292849,0.6169107988255556,0.07202052777129207,-0.09388417449182815,0.0,-0.011667379779545245,0.0,-0.3137674461040463,-0.035321465616729844,0.02206571787825989,0.3885313000837064,-0.13585005612282303,0.05803649420302087,0.0,-0.003229427575407555,-0.35670462887703624,0.7564575480109764,0.0,-0.8691858826985435,-0.004351130459321324,-0.044661704830815406,0.0,-0.1288260616261258,-0.07665276670619263,-0.23703002909355783,-0.17758446659124305,0.0,0.0,0.17898443771374123,-0.1050752268993738,-0.0849175407766102,-0.33937144174245615,0.0,0.06578729592675812,0.698689371243804,-0.3687646287924212,-0.27502819304616494,-0.9238174957509827,0.0,0.0,-0.1837990931684072,0.10962558787440008,-0.0004345996578639005,0.06964955199841652,-1.714390793300234,0.23479470658322565,0.0,0.0,0.0,0.0,0.0,-0.3209113951503188,-0.08505247149145728,0.2463661659246895,-0.018486530322581515,-0.1266895678616086,-0.12470773373849899,-0.001675964205261338,-0.04486207155468986,0.003170788057984526,0.13879232852304654,0.0,-2.221039926584821,0.0,0.0,-0.01980425080784952,0.0,-0.5047829353490493,0.3319047877475565,-0.19210328500333618,0.28451237696337756,0.08091742004770607,0.0,-1.803871644483397,-0.004111200358323327,-1.9454692846043045,0.0,0.9866017952394196,-0.09007013670395052,-0.4364628490458867,-0.22648134444239373,-0.26794198854201184,-0.08791084901859446,0.0,0.09799786888297154,0.0,0.10982938113431753,-0.3771121373271019,-0.33199650456188,0.0,-0.059003138546505844,0.0,-0.040601536269231395,0.0,-0.09724751962916495,0.016975548696404635,-0.06651273120009414,0.0,0.0,3.186358982871827,0.0,0.0,-0.033260790078730576,0.0,-0.0293546243544479,-0.09601402820022731,0.0,0.34671848507279596,0.0,0.4540652617314537,-0.12496359099449583,-0.09308758050096141,0.04131344151601343,-0.48446905727207806,0.8031838380470802,0.12124548282249585,0.0,-0.16620765658362555,-0.41824174368925365,-0.06300149202263605,-0.018520575142180914,0.0,-0.07752060734724496,-0.5722993916981979,0.6328148289221559,-0.012602590199526184,-0.4335834837233974,-0.27282732699032886,0.0,-0.2081156454085294,-0.09071809662375827,-0.1998509615349099,-0.36179526647568966,-0.009978777176779365,0.0,0.08325817361611267,-0.15724248329914856,-0.39158164170474175,0.0,0.0,-0.1393237207806507,-0.1540745463440552,-0.02872741099299322,0.0,0.16110811948149475,0.0,-0.032716594417403565,0.021070782776082875,0.0,0.02843708777049618,-0.14563215733598872,0.0,0.0,-0.10157299003433833,-0.3028196304457669,0.11931034889206288,-0.10679395471317785,0.39700260986507396,-0.0038538564952567225,-0.009687917450769114,-0.01497567736359225,0.0,0.0,0.2553064099087349,-0.00117384981720001,0.0,-1.4919642021048838,-0.28662168966190893,-0.07732229252256308,0.0,-0.2246663581861386,0.0,-0.004926107543303338,-0.051190942300148035,-0.21820683259650922,0.0,0.0,-0.14919661288398745,0.0456380486604137,-0.012394849166645825,0.0,-0.016743658102639128,-0.04514038500336606,-0.0870381773095681,-0.0031920169453260503,-0.1696130104634895,0.38758073569524115,-0.45121892239472966,0.191319227564098,0.0,-0.00500457409709527,0.1204552983945033,-0.06696460340577513,0.40191949068037347,-0.010981562902680235,0.0,-0.005577813960307144,-2.079416652517916,1.2280856879424296,-0.8208048417611877,-0.1716307783094116,0.0383497349427373,0.03831272364543541,-0.4394906704005861,-0.15624694718691493,-0.06665840802111053,0.0,0.08821847284044136,0.6897839861843613,0.0,-0.22351473579762782,-0.2114726717415604,0.21349478438401986,-0.39498351590396946,-0.09374301291090345,0.0,-0.06341024276148702,0.0,-0.017746145834829877,-0.036298273176583386,-0.22761542358960635,-0.13293309052680571,0.10119618133884942,0.0,-0.1485230556607618,0.0,1.0569119990023528,-0.01783414106934039,-4.78152095505166,0.0,-0.235587155582475,-0.07783531958787707,-0.08023777306691234,0.0,-0.10772770747682947,0.0,0.0,0.25420120424790016,1.3478861110131817,0.0,0.0,0.0,-0.11179284564344098,-0.0069255449817666286,0.06286749515859225,-0.08287401619664891,-0.03564658041527865,-0.05142631701751615,0.19919083068825982,-0.010384089461839701,-1.8249261626761868,-0.08227330352487247,0.0,0.0,-0.25533206220796995,0.0020630096701319675,-0.269213935114013,-0.27299023855225363,0.08380461584063248,-0.000330625601843448,0.02317702754469382,0.0,-0.0011723023083071683,-0.011780291770037577,0.1980157815427373,0.09927059744788057,0.05191179954375954,-0.01410363175013081,-0.10465925077427711,-0.2811026366133844,0.3414094979271689,-0.0006710871087795816,0.0,0.16811336384281833,0.0,-0.1847272654880209,0.0,0.0,-0.040747126195078254,-6.80215774857007,0.407704579402961,-0.05094974572563755,-0.0368410117832857,-0.03990097906583258,-0.0384987544015995,-0.18592646776897043,-0.06131752699832371,-0.04932300553417531,-0.05713762354385484,0.5917203590516448,-0.16723213902370562,0.18623017349543652,-0.014610851606600911,-0.4933794604922286,-0.011008725283897515,-0.1064836493565173,0.261409297143131,0.0,0.0,-0.08423625267344663,-0.0336399503713912,0.035979844363661334,-0.025154448218210397,-0.0378533323840521,0.3381816709022099,0.0,-0.4788272055116635,-0.0421958264309619,-0.8949476737036793,-0.04435934429639428,-0.5006505484615834,-0.32912025738824524,-0.08302016868548535,0.09776617584224542,0.40347200821321716,0.004265408353753549,0.016162147876143174,-0.365998210276586,-0.005210645791568136,0.0,-0.02237016071875126,-0.895242919496014,-0.08830206423930269,0.0,-0.267885232978491,-0.01557640575851352,-0.5912460319436068,-8.187653679893126,0.014553452977080031,-0.7153795513479283,0.1966220884905153,2.4238484271881693,0.17939141009625725,-0.00087013898487415,-0.0468536055554413,1.8399022973119166,-0.07250133393443883,0.33351934089829693,0.0,0.0,-0.048417762728794014,-0.2522435232502258,-0.0005861511541535841,0.0,0.0,-0.17675556046023747,-0.4180692278667476,-0.025932485681163683,0.035993498899186044,0.24679771530237055,0.20296670552585186,-0.017323278222784642,-0.4265090592481825,-0.21200423327682563,-0.0671603802888826,0.3863397210655261,0.0,0.0,-0.16429114323055422,0.0,0.0902439401734788,-0.0635070718174525,-0.08440442371099438,-0.7464544404654712,0.0,-1.1760220457616217,-0.012323970351232998,0.0,0.0436424367812261,0.11801706799783268,-0.22092281689563825,-0.000984244356172943,-0.11080346272437064,-0.29212289183630835,-0.0920648272061683,0.028534391442189742,1.0644066493939905,-0.33357918053755226,-0.009445926558555418,-0.05372727496982804,-1.239638774697274,0.00703979247752755,-0.19872700278891944,0.07111866502178675,-0.7659797360211139,-0.5830231388699163,-0.12151321694450544,2.895875282968414,-0.17429433563094301,0.25342597723301,-0.03141850289082171,3.20398420424743,0.14256083235361622,-0.35810097167153926,-0.010981562902680235,0.9418506297058766,-0.14260640796070398,-0.09350305255608901,-0.03184984293890725,-0.04253777471247049,-0.11402706721810266,-0.2681749101157636,0.0,0.1156351987882245,-0.19843375350712175,0.0,-0.04866206371267524,-0.02697898271268658,0.0,0.0,-0.5859078756510869,-0.43038428029125353,0.08806849176061009,0.0,3.5083027961400037,0.0,-0.019319140643828923,0.14966824229189785,-0.01040460729424301,0.0,0.0,-0.1793925183208397,0.0,0.0,-0.05735987878788344,-0.016328929524442558,-0.07746022734574252,-0.4754513333756066,-0.5048542872862197,-0.1132277265050983,-0.08334502819369143,0.383190782537781,-0.10420167325606274,-0.10416734107226863,0.2569431914085865,-0.05116922057067743,0.0,0.0,0.0,-0.09092597911864189,0.0,0.29904614075110103,-0.2762541685656175,0.13139312188126864,-1.717208543345445,-0.39906360334633617,-0.6149651646351797,0.0,0.516977511559855,-0.08467548724679382,-0.02833654062952537,0.0,-0.2860626444001874,0.0,-0.02333032915314002,-0.24971772095589026,0.140967072263425,-0.10258044288273542,-0.00983666666477491,-0.005640212610045072,-0.6331519650568784,0.0,1.512273429049669,0.10968396494890437,-0.03162510071981821,0.17735092694751103,-0.030999543045093392,0.29772170714115886,-0.04356648516047794,0.10681248648242453,-0.002608879960249939,-0.06790585172376308,-0.009205473308671167,0.0,0.0,-0.10627778751979396,0.0,0.07860300945840452,0.20623829033505808,-0.21807994791752472,-0.18280124898682337,-0.09046065863326096,0.3497293413033962,0.0,0.0,-0.06004342485121036,-1.0147621309202353,-0.11043721823311327,0.4334187662172949,0.10556072440926913,0.00618286416829269,0.0,-0.24317260315489306,-0.614137319867691,0.0,0.04511270160324201,-0.02565752239460862,-0.7891061971060507,-0.023943824241323464,-0.16589846360179167,0.0,-0.028316957480150517,0.0,-0.12510382511274903,-0.026248991142654332,0.39976456153146356,-0.030825026627101113,-0.018441192406531255,0.0,0.0,0.0,-0.009200817687756562,-0.03680505195912395,0.041679811262029944,-0.4335650043456193,0.2190950015995907,-0.924441409638394,0.0,0.19776398230874806,0.21160140387373244,-0.47908180723012567,0.014502445244734166,-1.414670879437145,-0.9805916886268493,-0.15573951595041918,-0.09655026160610036,-0.058410447659488246,0.0,-0.006487154533417069,-0.3668555407257199,-0.1539089312134836,0.0,-0.03234753660417327,-0.011376690843773263,-0.04986897462993613,0.015197073469409796,-0.4633288535222948,0.052318832894561164,0.3931433474563883,-0.048852961088117895,0.0,-0.04342892269744412,-0.16426416504076044,0.0,-0.07835092765201851,0.11048961277248479,-0.695343902519623,-0.0345495460607365,-0.010004415114199371,-1.1388579263857996,-0.5099650174900516,-0.4865283129145218,-0.31841644001090075,-0.19407431130020728,-0.019551040004563897,0.04690732558973706,-0.32112414178516413,0.0,-0.05863244141075911,-0.007848658948626647,-0.42240524410672264,0.0,-0.1298840278669927,0.0,0.0088182737097355,-0.11042966703748562,-0.08240150430585602,0.10969763577246465,0.0,-0.008715892110183936,0.036569927451655874,-0.14869822078208056,-0.059090251202375925,-0.8455133479715841,-0.013502336455697896,0.16168358187661386,-0.4558769791024362,0.3046675983633607,0.0,-0.2828980730547064,0.282747044176967,0.0,-0.03957743828071454,-0.21124468469092075,-0.008803232225948525,0.5967828190311308,0.9296776896999743,-0.6994159379074737,1.096652289080849,0.0,0.11788453690297183,-0.003412970597149386,-0.21843770914614521,0.0,0.03826197600459584,-0.019817174220870343,0.024102266835140867,0.0,0.0,-0.06262868339825796,-0.19084327509431115,-0.06797138013429276,-0.05969511811918455,0.0,-0.020334910598841835,0.1599192207209282,0.10222882771753405,0.05049226250335512,0.5795119563999925,0.0,0.05492685639139214,0.004768434552984474,-0.14106320890449936,0.0,0.0,-0.014143040780951292,-0.008553281166345208,-3.5281771428226127,2.1888715039879005,0.0,0.07355062921559752,0.0,-0.052398985589812236,0.011526475182890916,0.051578695057575494,-0.2568542856347471,-0.01783414106934039,-0.07451063391524397,-0.6436195219633988,0.0,0.015199496490614138,0.0,0.0,0.03357140452965485,0.30300543700775295,-0.1224899750325273,-0.10446406326664848,-0.03580188380728838,1.0960406534366216,-0.30451807685937476,-0.0965437917191807,0.18843920547147888,-0.25848454600526305,0.22419097845219352,-0.9323898523371411,-0.13666137972761142,-0.1266895678616086,-0.1445189458407122,-1.1632575004579064,0.077497475827382,0.0,0.020631434449570357,-0.019744539073704458,0.011425158591223767,-0.7478209925720858,0.8071593399664936,0.0,0.0,0.1288451023050953,-0.8531064746046683,0.13535838066200886,-0.01321444206550464,0.0,0.0,-0.5110384533503377,-0.08050263740091315,0.24155464294155965,0.0,0.06339254199510226,-0.23114748058887352,-0.24162295076908025,0.505101011135347,-0.04691069450523215,-1.2266284635424618,-0.19150577511461592,0.0,-0.12879272148845533,-0.23844039033489547,0.0,-0.10451255715701425,0.0,0.0,0.056025803587358786,0.13040662225321092,-0.07543868372734536,-0.38646790095465877,-0.025126818620614194,0.0,-0.6684520138136278,-1.7241726594063838,-0.027904206997163464,-0.1148085827845616,-0.2777868059224421,0.12006663342390186,-0.04857354729240597,-0.10589063225941489,0.0,-0.010561084119426894,0.0,-1.1316760374772377,0.0,0.5789024578473343,0.06317445207130959,-0.06421899046701106,0.0,0.07834311215605239,-0.5507903420260402,-0.009546885270943368,0.22390013249535362,-0.055290669719990956,-0.23571885205948104,0.7369374241110438,-0.029741681071009975,0.0,-0.030087959158243777,0.0,0.03772653347860766,0.0,0.013171869063025666,0.0,0.062276314310722405,0.0,-0.015214283193046152,1.7684851954170795,0.12416835768768356,-0.12602071833561554,0.053421942966756,-0.12645537127925016,-0.020253687635059286,-0.038893870139781545,0.11474564231280092,0.934948539602502,-0.008093751163606179,0.169937067535014,0.11576661579540949,-0.3130272376034475,0.0,0.10366102328565799,-0.019120370631626023,0.25063433985812184,0.4118434645319946,-0.19770044729340194,-0.29454231938914355,-0.06661079890203087,-0.061051130963315964,-0.13194530245337088,-0.10655992595154921,-0.8427346155289872,-0.24095824677164415,-0.005959953793187008,0.0,0.0,0.28422532479798684,-0.2892714361477674,0.0,-0.021023039453698635,-0.015070687309507839,0.48068382266156345,0.0,-0.28414974992804776,-0.9040919729133415,0.007358497647927664,-0.32448959524922066,-0.10598990699343902,-1.9845820734040711,0.05418388308631157,-0.09658440608298313,0.0,-0.09704041378306184,-0.06905398162369211,0.0,0.0,-0.5851172991211187,-0.8758438272850554,-0.08811483429826139,0.056754786673270656,0.0,0.0,0.3303280876842523,0.8620824724575279,-0.3008009811347621,0.32744310218393613,-0.12514977983307132,0.0,0.20231923645700184,0.014450437074405067,0.0,-0.0784312144967453,0.9789344141088558,-0.122312529041929,0.5123927537688653,-0.05620699074237486,-0.013227651283609728,-0.09483208135378354,0.4881761230283376,-0.02774862806417652,-0.0680931533022976,-0.053012154315010517,2.8418535895558703,-0.0006432021510533527,-0.10597410296010451,0.0015940743267800607,0.13569443967978218,0.2350413224255252,0.07087126374979069,0.0,0.07974782173606376,-0.3612649377203236,0.0,-0.2183807106106252,-0.038603050917641726,-0.07911199584896626,-0.058379174310009885,0.8489388821629417,-0.373614409229997,0.0,0.17112752953166727,-0.20402499619807918,-0.8049919922863071,-0.377110529823577,1.2125747221487073,0.35104978896228645,0.0585223275240773,-0.12280516930653337,-0.04703679138226189,-0.049503372798181206,0.13982025924525476,-0.011205781087915758,-0.006068724780252468,0.0,-0.13034925895746916,-0.012222385218462212,-0.051406039729131554,0.09997335358311589,-0.33601200792838337,2.102137282707443,0.1191608696647741,-0.08348447959954058,0.0,0.0,0.38879413055850676,0.1549233362569657,-0.04144470341341645,-0.3082113302486211,0.2777061068411592,-0.013271242133160702,-0.8153435335535921,0.0,-0.0380598936485501,0.07753482307553429,0.0,-0.2953007804941922,0.003185674120901552,0.0,-0.129151169905238,-0.7116818909658721,-0.44253615919767114,-0.027429693753292107,0.05603718018683331,0.0,0.0,0.0,-0.14946795344290903,-0.3392846351609389,0.017598797012914256,0.03351891604914288,-0.16591260705471406,-0.1926010567598695,-0.045190469018962315,0.0835079078082156,0.0,0.45396617380724474,-0.023271245986012497,-0.053702874883499924,0.4057034952609374,-0.01731248535674022,-0.39944353232907803,0.0,-0.07324440615888544,-0.011449816223880117,0.23986495242182476,0.0,-1.2907067070920473,0.0,0.0040199816433070315,0.0,0.032800659222176946,0.0,-0.08694110039489017,-0.0014742709576232491,0.3526805317503354,0.0,-0.08919700080761704,-0.2493401700862927,-0.044876050736741634,-0.032711025170171465,0.254540096323766,-0.000483143587574894,-0.12323776737338342,0.07994905233437953,-0.056677304999933606,0.7859439694206417,-0.20714967345534382,-1.2682166154122636,0.0,-0.2165816322965407,0.0,-0.05610806399392457,-0.5002129326746109,-0.630504364580396,0.027953353493346874,-0.7429570801725998,-0.04380418812993177,0.0,-0.05570752167561341,0.0,0.6289344377495353,0.0,0.22654067199737357,-0.0019225820430405565,0.0,-0.08093421446307845,0.0,0.031638329626441905,-1.46138151166765,-0.018767030106850633,0.14575281336947232,-0.09017709226789099,-0.007531791310838478,0.11900494124228099,0.0,-1.1859094428352845,-0.21210348648936575,-0.3216442092273801,0.0,0.002244838969057827,-0.15460933936677754,-0.2894508686699831,0.43484190813889356,-0.32950148043761507,0.3673692743859303,-0.042451898748866713,-0.10452293947075607,0.01316780159333355,0.0,0.0,-0.04594632966607576,0.0,-0.2631368444355369,0.0,0.07193200384494046,-0.03587106521465609,-0.4430109111577516,0.0,0.0,-0.3178076625831609,-0.08928752996384348,0.1629152011133995,-0.08080620737799002,-0.24767545030534543,0.0,0.17281121578510947,-0.06730879662342817,-0.28496014887758037,-0.630828842251363,-0.0580563346287355,0.0,-0.044083568691574544,-0.018675365058783318,0.286917607348891,-0.06764079570681043,-0.0998505812526425,-0.8683280791657573,-0.08365965505989854,0.0,-0.38233623263165717,-0.10813507340036528,0.3730503173621921,0.06115868412156938,0.0,0.2497320986133272,0.07475437390983328,-0.012525538234395185,0.20631125898562097,-0.2619428969253094,0.0,-0.22748616809123612,0.0,0.039497687105721636,-0.1247826256498767,0.0,0.07355657559975398,0.0,-0.014424644604324334,0.036104611300122436,0.5580769734423663,0.3135779739554481,0.0,0.0,0.0,0.0,0.0,-0.5703237168322486,0.04055973249360507,0.5305258222174529,-0.03664539720074645,-0.011811948718092866,0.0,-0.02319117354453991,0.0,-0.01975238892386613,-0.04097985981214042,-0.0568173433108737,-0.5507208638467389,-0.021526444924622107,0.6473145127632011,-0.2509246715413227,-0.11297333887643778,0.13976384297695754,0.23239042454882083,0.6186392843742754,-1.4077001717428015,-0.1394737479790053,-0.06564297114262885,0.0,0.0,0.0,0.0,0.0,-0.2564842302564683,0.0,-0.039051890960690734,-0.22138157485227283,0.2182224572301516,0.0,0.0,0.05129294810478061,-0.1759152829962639,0.03881368797347314,-0.9084015711259895,0.0,-0.052225573699397274,-0.7928380933251522,-0.026657529769024857,-0.2105035166362248,0.0,-0.016297719079273833,0.0,0.0,-0.3004200809685476,0.11652624592698296,0.036386666248016654,0.016259015111038735,-1.2473780933879794,-0.046001046970488325,0.5236672260786576,-0.48350455914697155,-0.018672950347788236,0.0,0.14221275042178813,0.0,-0.002668245805687088,-0.22063409647262902,0.019418898364984557,-0.0086135399964455,0.0,0.007688857326806694,0.004488727949183002,1.2314042489133612,-0.06887755354146047,0.10297838547101554,0.10067424795472804,0.0,0.0,-0.13003433392335081,0.05044671248447628,-0.5054228335773308,-0.35649667429408904,-0.18126420992378361,-0.05019953678049449,0.12902015892540442,0.0,-0.2004161036277304,-0.3130832584446348,0.0,0.07052672591325959,0.0,-0.17903786518360668,-0.7073616408917038,-0.018171534670922647,0.3237294637226045,-1.3484011375618665,-0.3147083850143559,-0.1715047952796353,0.42868228896263905,-0.2646426383437933,0.0,0.0,0.8019621426780306,0.0,-0.03712100068664684,0.08422951955601747,0.0,0.0,0.11212052789075387,0.0,0.0,-0.005149238502444538,0.035991375429895854,0.2961645327235198,0.09658116644844116,-0.013839559907246389,